digraph Tree {
node [shape=box, style="filled, rounded", color="black", fontname="helvetica"] ;
edge [fontname="helvetica"] ;
0 [label=<HbA1c_level &le; 6.7<br/>gini = 0.154<br/>samples = 66987<br/>value = [61352, 5635]>, fillcolor="#e78d4b"] ;
1 [label=<blood_glucose_level &le; 210.0<br/>gini = 0.09<br/>samples = 64379<br/>value = [61352, 3027]>, fillcolor="#e68743"] ;
0 -> 1 [labeldistance=2.5, labelangle=45, headlabel="True"] ;
2 [label=<age &le; 50.5<br/>gini = 0.057<br/>samples = 63217<br/>value = [61352, 1865]>, fillcolor="#e6853f"] ;
1 -> 2 ;
3 [label=<bmi &le; 39.205<br/>gini = 0.021<br/>samples = 40470<br/>value = [40040, 430]>, fillcolor="#e5823b"] ;
2 -> 3 ;
4 [label=<hypertension &le; 0.5<br/>gini = 0.017<br/>samples = 38603<br/>value = [38276, 327]>, fillcolor="#e5823b"] ;
3 -> 4 ;
5 [label=<HbA1c_level &le; 5.35<br/>gini = 0.015<br/>samples = 37812<br/>value = [37533, 279]>, fillcolor="#e5823a"] ;
4 -> 5 ;
6 [label=<gini = 0.0<br/>samples = 15561<br/>value = [15561, 0]>, fillcolor="#e58139"] ;
5 -> 6 ;
7 [label=<age &le; 38.5<br/>gini = 0.025<br/>samples = 22251<br/>value = [21972, 279]>, fillcolor="#e5833c"] ;
5 -> 7 ;
8 [label=<blood_glucose_level &le; 113.0<br/>gini = 0.013<br/>samples = 16482<br/>value = [16370, 112]>, fillcolor="#e5823a"] ;
7 -> 8 ;
9 [label=<gini = 0.0<br/>samples = 5046<br/>value = [5046, 0]>, fillcolor="#e58139"] ;
8 -> 9 ;
10 [label=<age &le; 27.5<br/>gini = 0.019<br/>samples = 11436<br/>value = [11324, 112]>, fillcolor="#e5823b"] ;
8 -> 10 ;
11 [label=<age &le; 11.5<br/>gini = 0.011<br/>samples = 7925<br/>value = [7882, 43]>, fillcolor="#e5823a"] ;
10 -> 11 ;
12 [label=<blood_glucose_level &le; 180.0<br/>gini = 0.003<br/>samples = 3141<br/>value = [3137, 4]>, fillcolor="#e58139"] ;
11 -> 12 ;
13 [label=<bmi &le; 15.385<br/>gini = 0.001<br/>samples = 2804<br/>value = [2803, 1]>, fillcolor="#e58139"] ;
12 -> 13 ;
14 [label=<bmi &le; 15.375<br/>gini = 0.004<br/>samples = 472<br/>value = [471, 1]>, fillcolor="#e58139"] ;
13 -> 14 ;
15 [label=<gini = 0.0<br/>samples = 470<br/>value = [470, 0]>, fillcolor="#e58139"] ;
14 -> 15 ;
16 [label=<blood_glucose_level &le; 149.5<br/>gini = 0.5<br/>samples = 2<br/>value = [1, 1]>, fillcolor="#ffffff"] ;
14 -> 16 ;
17 [label=<gini = 0.0<br/>samples = 1<br/>value = [0, 1]>, fillcolor="#399de5"] ;
16 -> 17 ;
18 [label=<gini = 0.0<br/>samples = 1<br/>value = [1, 0]>, fillcolor="#e58139"] ;
16 -> 18 ;
19 [label=<gini = 0.0<br/>samples = 2332<br/>value = [2332, 0]>, fillcolor="#e58139"] ;
13 -> 19 ;
20 [label=<HbA1c_level &le; 6.15<br/>gini = 0.018<br/>samples = 337<br/>value = [334, 3]>, fillcolor="#e5823b"] ;
12 -> 20 ;
21 [label=<bmi &le; 15.96<br/>gini = 0.031<br/>samples = 190<br/>value = [187, 3]>, fillcolor="#e5833c"] ;
20 -> 21 ;
22 [label=<gini = 0.0<br/>samples = 49<br/>value = [49, 0]>, fillcolor="#e58139"] ;
21 -> 22 ;
23 [label=<bmi &le; 16.045<br/>gini = 0.042<br/>samples = 141<br/>value = [138, 3]>, fillcolor="#e6843d"] ;
21 -> 23 ;
24 [label=<gini = 0.0<br/>samples = 1<br/>value = [0, 1]>, fillcolor="#399de5"] ;
23 -> 24 ;
25 [label=<age &le; 4.5<br/>gini = 0.028<br/>samples = 140<br/>value = [138, 2]>, fillcolor="#e5833c"] ;
23 -> 25 ;
26 [label=<age &le; 2.5<br/>gini = 0.074<br/>samples = 52<br/>value = [50, 2]>, fillcolor="#e68641"] ;
25 -> 26 ;
27 [label=<gini = 0.0<br/>samples = 33<br/>value = [33, 0]>, fillcolor="#e58139"] ;
26 -> 27 ;
28 [label=<bmi &le; 17.245<br/>gini = 0.188<br/>samples = 19<br/>value = [17, 2]>, fillcolor="#e89050"] ;
26 -> 28 ;
29 [label=<HbA1c_level &le; 5.9<br/>gini = 0.5<br/>samples = 2<br/>value = [1, 1]>, fillcolor="#ffffff"] ;
28 -> 29 ;
30 [label=<gini = 0.0<br/>samples = 1<br/>value = [0, 1]>, fillcolor="#399de5"] ;
29 -> 30 ;
31 [label=<gini = 0.0<br/>samples = 1<br/>value = [1, 0]>, fillcolor="#e58139"] ;
29 -> 31 ;
32 [label=<bmi &le; 24.215<br/>gini = 0.111<br/>samples = 17<br/>value = [16, 1]>, fillcolor="#e78945"] ;
28 -> 32 ;
33 [label=<gini = 0.0<br/>samples = 13<br/>value = [13, 0]>, fillcolor="#e58139"] ;
32 -> 33 ;
34 [label=<HbA1c_level &le; 5.75<br/>gini = 0.375<br/>samples = 4<br/>value = [3, 1]>, fillcolor="#eeab7b"] ;
32 -> 34 ;
35 [label=<Female &le; 0.5<br/>gini = 0.5<br/>samples = 2<br/>value = [1, 1]>, fillcolor="#ffffff"] ;
34 -> 35 ;
36 [label=<gini = 0.0<br/>samples = 1<br/>value = [0, 1]>, fillcolor="#399de5"] ;
35 -> 36 ;
37 [label=<gini = 0.0<br/>samples = 1<br/>value = [1, 0]>, fillcolor="#e58139"] ;
35 -> 37 ;
38 [label=<gini = 0.0<br/>samples = 2<br/>value = [2, 0]>, fillcolor="#e58139"] ;
34 -> 38 ;
39 [label=<gini = 0.0<br/>samples = 88<br/>value = [88, 0]>, fillcolor="#e58139"] ;
25 -> 39 ;
40 [label=<gini = 0.0<br/>samples = 147<br/>value = [147, 0]>, fillcolor="#e58139"] ;
20 -> 40 ;
41 [label=<HbA1c_level &le; 6.15<br/>gini = 0.016<br/>samples = 4784<br/>value = [4745, 39]>, fillcolor="#e5823b"] ;
11 -> 41 ;
42 [label=<blood_glucose_level &le; 159.5<br/>gini = 0.011<br/>samples = 2702<br/>value = [2687, 15]>, fillcolor="#e5823a"] ;
41 -> 42 ;
43 [label=<blood_glucose_level &le; 135.0<br/>gini = 0.008<br/>samples = 2097<br/>value = [2089, 8]>, fillcolor="#e5813a"] ;
42 -> 43 ;
44 [label=<former &le; 0.5<br/>gini = 0.017<br/>samples = 592<br/>value = [587, 5]>, fillcolor="#e5823b"] ;
43 -> 44 ;
45 [label=<HbA1c_level &le; 6.05<br/>gini = 0.014<br/>samples = 574<br/>value = [570, 4]>, fillcolor="#e5823a"] ;
44 -> 45 ;
46 [label=<bmi &le; 21.405<br/>gini = 0.005<br/>samples = 440<br/>value = [439, 1]>, fillcolor="#e58139"] ;
45 -> 46 ;
47 [label=<bmi &le; 21.3<br/>gini = 0.022<br/>samples = 91<br/>value = [90, 1]>, fillcolor="#e5823b"] ;
46 -> 47 ;
48 [label=<gini = 0.0<br/>samples = 88<br/>value = [88, 0]>, fillcolor="#e58139"] ;
47 -> 48 ;
49 [label=<Female &le; 0.5<br/>gini = 0.444<br/>samples = 3<br/>value = [2, 1]>, fillcolor="#f2c09c"] ;
47 -> 49 ;
50 [label=<age &le; 17.0<br/>gini = 0.5<br/>samples = 2<br/>value = [1, 1]>, fillcolor="#ffffff"] ;
49 -> 50 ;
51 [label=<gini = 0.0<br/>samples = 1<br/>value = [1, 0]>, fillcolor="#e58139"] ;
50 -> 51 ;
52 [label=<gini = 0.0<br/>samples = 1<br/>value = [0, 1]>, fillcolor="#399de5"] ;
50 -> 52 ;
53 [label=<gini = 0.0<br/>samples = 1<br/>value = [1, 0]>, fillcolor="#e58139"] ;
49 -> 53 ;
54 [label=<gini = 0.0<br/>samples = 349<br/>value = [349, 0]>, fillcolor="#e58139"] ;
46 -> 54 ;
55 [label=<age &le; 17.5<br/>gini = 0.044<br/>samples = 134<br/>value = [131, 3]>, fillcolor="#e6843e"] ;
45 -> 55 ;
56 [label=<bmi &le; 20.805<br/>gini = 0.109<br/>samples = 52<br/>value = [49, 3]>, fillcolor="#e78945"] ;
55 -> 56 ;
57 [label=<gini = 0.0<br/>samples = 19<br/>value = [19, 0]>, fillcolor="#e58139"] ;
56 -> 57 ;
58 [label=<bmi &le; 21.045<br/>gini = 0.165<br/>samples = 33<br/>value = [30, 3]>, fillcolor="#e88e4d"] ;
56 -> 58 ;
59 [label=<gini = 0.0<br/>samples = 1<br/>value = [0, 1]>, fillcolor="#399de5"] ;
58 -> 59 ;
60 [label=<age &le; 14.5<br/>gini = 0.117<br/>samples = 32<br/>value = [30, 2]>, fillcolor="#e78946"] ;
58 -> 60 ;
61 [label=<gini = 0.0<br/>samples = 13<br/>value = [13, 0]>, fillcolor="#e58139"] ;
60 -> 61 ;
62 [label=<Female &le; 0.5<br/>gini = 0.188<br/>samples = 19<br/>value = [17, 2]>, fillcolor="#e89050"] ;
60 -> 62 ;
63 [label=<gini = 0.0<br/>samples = 8<br/>value = [8, 0]>, fillcolor="#e58139"] ;
62 -> 63 ;
64 [label=<age &le; 15.5<br/>gini = 0.298<br/>samples = 11<br/>value = [9, 2]>, fillcolor="#eb9d65"] ;
62 -> 64 ;
65 [label=<bmi &le; 26.935<br/>gini = 0.5<br/>samples = 2<br/>value = [1, 1]>, fillcolor="#ffffff"] ;
64 -> 65 ;
66 [label=<gini = 0.0<br/>samples = 1<br/>value = [0, 1]>, fillcolor="#399de5"] ;
65 -> 66 ;
67 [label=<gini = 0.0<br/>samples = 1<br/>value = [1, 0]>, fillcolor="#e58139"] ;
65 -> 67 ;
68 [label=<blood_glucose_level &le; 128.0<br/>gini = 0.198<br/>samples = 9<br/>value = [8, 1]>, fillcolor="#e89152"] ;
64 -> 68 ;
69 [label=<gini = 0.0<br/>samples = 5<br/>value = [5, 0]>, fillcolor="#e58139"] ;
68 -> 69 ;
70 [label=<bmi &le; 23.65<br/>gini = 0.375<br/>samples = 4<br/>value = [3, 1]>, fillcolor="#eeab7b"] ;
68 -> 70 ;
71 [label=<gini = 0.0<br/>samples = 1<br/>value = [0, 1]>, fillcolor="#399de5"] ;
70 -> 71 ;
72 [label=<gini = 0.0<br/>samples = 3<br/>value = [3, 0]>, fillcolor="#e58139"] ;
70 -> 72 ;
73 [label=<gini = 0.0<br/>samples = 82<br/>value = [82, 0]>, fillcolor="#e58139"] ;
55 -> 73 ;
74 [label=<bmi &le; 29.75<br/>gini = 0.105<br/>samples = 18<br/>value = [17, 1]>, fillcolor="#e78845"] ;
44 -> 74 ;
75 [label=<gini = 0.0<br/>samples = 14<br/>value = [14, 0]>, fillcolor="#e58139"] ;
74 -> 75 ;
76 [label=<HbA1c_level &le; 5.9<br/>gini = 0.375<br/>samples = 4<br/>value = [3, 1]>, fillcolor="#eeab7b"] ;
74 -> 76 ;
77 [label=<gini = 0.0<br/>samples = 1<br/>value = [0, 1]>, fillcolor="#399de5"] ;
76 -> 77 ;
78 [label=<gini = 0.0<br/>samples = 3<br/>value = [3, 0]>, fillcolor="#e58139"] ;
76 -> 78 ;
79 [label=<age &le; 12.5<br/>gini = 0.004<br/>samples = 1505<br/>value = [1502, 3]>, fillcolor="#e58139"] ;
43 -> 79 ;
80 [label=<blood_glucose_level &le; 142.5<br/>gini = 0.028<br/>samples = 71<br/>value = [70, 1]>, fillcolor="#e5833c"] ;
79 -> 80 ;
81 [label=<bmi &le; 20.275<br/>gini = 0.124<br/>samples = 15<br/>value = [14, 1]>, fillcolor="#e78a47"] ;
80 -> 81 ;
82 [label=<bmi &le; 19.395<br/>gini = 0.32<br/>samples = 5<br/>value = [4, 1]>, fillcolor="#eca06a"] ;
81 -> 82 ;
83 [label=<gini = 0.0<br/>samples = 4<br/>value = [4, 0]>, fillcolor="#e58139"] ;
82 -> 83 ;
84 [label=<gini = 0.0<br/>samples = 1<br/>value = [0, 1]>, fillcolor="#399de5"] ;
82 -> 84 ;
85 [label=<gini = 0.0<br/>samples = 10<br/>value = [10, 0]>, fillcolor="#e58139"] ;
81 -> 85 ;
86 [label=<gini = 0.0<br/>samples = 56<br/>value = [56, 0]>, fillcolor="#e58139"] ;
80 -> 86 ;
87 [label=<bmi &le; 24.45<br/>gini = 0.003<br/>samples = 1434<br/>value = [1432, 2]>, fillcolor="#e58139"] ;
79 -> 87 ;
88 [label=<gini = 0.0<br/>samples = 579<br/>value = [579, 0]>, fillcolor="#e58139"] ;
87 -> 88 ;
89 [label=<bmi &le; 24.48<br/>gini = 0.005<br/>samples = 855<br/>value = [853, 2]>, fillcolor="#e58139"] ;
87 -> 89 ;
90 [label=<blood_glucose_level &le; 157.0<br/>gini = 0.5<br/>samples = 2<br/>value = [1, 1]>, fillcolor="#ffffff"] ;
89 -> 90 ;
91 [label=<gini = 0.0<br/>samples = 1<br/>value = [1, 0]>, fillcolor="#e58139"] ;
90 -> 91 ;
92 [label=<gini = 0.0<br/>samples = 1<br/>value = [0, 1]>, fillcolor="#399de5"] ;
90 -> 92 ;
93 [label=<HbA1c_level &le; 5.75<br/>gini = 0.002<br/>samples = 853<br/>value = [852, 1]>, fillcolor="#e58139"] ;
89 -> 93 ;
94 [label=<blood_glucose_level &le; 150.0<br/>gini = 0.01<br/>samples = 200<br/>value = [199, 1]>, fillcolor="#e5823a"] ;
93 -> 94 ;
95 [label=<age &le; 22.5<br/>gini = 0.027<br/>samples = 73<br/>value = [72, 1]>, fillcolor="#e5833c"] ;
94 -> 95 ;
96 [label=<gini = 0.0<br/>samples = 42<br/>value = [42, 0]>, fillcolor="#e58139"] ;
95 -> 96 ;
97 [label=<age &le; 23.5<br/>gini = 0.062<br/>samples = 31<br/>value = [30, 1]>, fillcolor="#e68540"] ;
95 -> 97 ;
98 [label=<blood_glucose_level &le; 142.5<br/>gini = 0.32<br/>samples = 5<br/>value = [4, 1]>, fillcolor="#eca06a"] ;
97 -> 98 ;
99 [label=<gini = 0.0<br/>samples = 3<br/>value = [3, 0]>, fillcolor="#e58139"] ;
98 -> 99 ;
100 [label=<Female &le; 0.5<br/>gini = 0.5<br/>samples = 2<br/>value = [1, 1]>, fillcolor="#ffffff"] ;
98 -> 100 ;
101 [label=<gini = 0.0<br/>samples = 1<br/>value = [0, 1]>, fillcolor="#399de5"] ;
100 -> 101 ;
102 [label=<gini = 0.0<br/>samples = 1<br/>value = [1, 0]>, fillcolor="#e58139"] ;
100 -> 102 ;
103 [label=<gini = 0.0<br/>samples = 26<br/>value = [26, 0]>, fillcolor="#e58139"] ;
97 -> 103 ;
104 [label=<gini = 0.0<br/>samples = 127<br/>value = [127, 0]>, fillcolor="#e58139"] ;
94 -> 104 ;
105 [label=<gini = 0.0<br/>samples = 653<br/>value = [653, 0]>, fillcolor="#e58139"] ;
93 -> 105 ;
106 [label=<age &le; 16.5<br/>gini = 0.023<br/>samples = 605<br/>value = [598, 7]>, fillcolor="#e5823b"] ;
42 -> 106 ;
107 [label=<age &le; 15.5<br/>gini = 0.051<br/>samples = 154<br/>value = [150, 4]>, fillcolor="#e6843e"] ;
106 -> 107 ;
108 [label=<bmi &le; 27.25<br/>gini = 0.017<br/>samples = 115<br/>value = [114, 1]>, fillcolor="#e5823b"] ;
107 -> 108 ;
109 [label=<gini = 0.0<br/>samples = 78<br/>value = [78, 0]>, fillcolor="#e58139"] ;
108 -> 109 ;
110 [label=<HbA1c_level &le; 5.9<br/>gini = 0.053<br/>samples = 37<br/>value = [36, 1]>, fillcolor="#e6843e"] ;
108 -> 110 ;
111 [label=<blood_glucose_level &le; 180.0<br/>gini = 0.124<br/>samples = 15<br/>value = [14, 1]>, fillcolor="#e78a47"] ;
110 -> 111 ;
112 [label=<Female &le; 0.5<br/>gini = 0.219<br/>samples = 8<br/>value = [7, 1]>, fillcolor="#e99355"] ;
111 -> 112 ;
113 [label=<gini = 0.0<br/>samples = 4<br/>value = [4, 0]>, fillcolor="#e58139"] ;
112 -> 113 ;
114 [label=<age &le; 13.5<br/>gini = 0.375<br/>samples = 4<br/>value = [3, 1]>, fillcolor="#eeab7b"] ;
112 -> 114 ;
115 [label=<gini = 0.0<br/>samples = 2<br/>value = [2, 0]>, fillcolor="#e58139"] ;
114 -> 115 ;
116 [label=<gini = 0.5<br/>samples = 2<br/>value = [1, 1]>, fillcolor="#ffffff"] ;
114 -> 116 ;
117 [label=<gini = 0.0<br/>samples = 7<br/>value = [7, 0]>, fillcolor="#e58139"] ;
111 -> 117 ;
118 [label=<gini = 0.0<br/>samples = 22<br/>value = [22, 0]>, fillcolor="#e58139"] ;
110 -> 118 ;
119 [label=<bmi &le; 23.61<br/>gini = 0.142<br/>samples = 39<br/>value = [36, 3]>, fillcolor="#e78c49"] ;
107 -> 119 ;
120 [label=<bmi &le; 21.195<br/>gini = 0.255<br/>samples = 20<br/>value = [17, 3]>, fillcolor="#ea975c"] ;
119 -> 120 ;
121 [label=<gini = 0.0<br/>samples = 14<br/>value = [14, 0]>, fillcolor="#e58139"] ;
120 -> 121 ;
122 [label=<bmi &le; 21.665<br/>gini = 0.5<br/>samples = 6<br/>value = [3, 3]>, fillcolor="#ffffff"] ;
120 -> 122 ;
123 [label=<gini = 0.0<br/>samples = 2<br/>value = [0, 2]>, fillcolor="#399de5"] ;
122 -> 123 ;
124 [label=<bmi &le; 23.06<br/>gini = 0.375<br/>samples = 4<br/>value = [3, 1]>, fillcolor="#eeab7b"] ;
122 -> 124 ;
125 [label=<gini = 0.0<br/>samples = 3<br/>value = [3, 0]>, fillcolor="#e58139"] ;
124 -> 125 ;
126 [label=<gini = 0.0<br/>samples = 1<br/>value = [0, 1]>, fillcolor="#399de5"] ;
124 -> 126 ;
127 [label=<gini = 0.0<br/>samples = 19<br/>value = [19, 0]>, fillcolor="#e58139"] ;
119 -> 127 ;
128 [label=<bmi &le; 26.59<br/>gini = 0.013<br/>samples = 451<br/>value = [448, 3]>, fillcolor="#e5823a"] ;
106 -> 128 ;
129 [label=<gini = 0.0<br/>samples = 200<br/>value = [200, 0]>, fillcolor="#e58139"] ;
128 -> 129 ;
130 [label=<bmi &le; 26.67<br/>gini = 0.024<br/>samples = 251<br/>value = [248, 3]>, fillcolor="#e5833b"] ;
128 -> 130 ;
131 [label=<blood_glucose_level &le; 180.0<br/>gini = 0.5<br/>samples = 2<br/>value = [1, 1]>, fillcolor="#ffffff"] ;
130 -> 131 ;
132 [label=<gini = 0.0<br/>samples = 1<br/>value = [1, 0]>, fillcolor="#e58139"] ;
131 -> 132 ;
133 [label=<gini = 0.0<br/>samples = 1<br/>value = [0, 1]>, fillcolor="#399de5"] ;
131 -> 133 ;
134 [label=<current &le; 0.5<br/>gini = 0.016<br/>samples = 249<br/>value = [247, 2]>, fillcolor="#e5823b"] ;
130 -> 134 ;
135 [label=<bmi &le; 28.585<br/>gini = 0.009<br/>samples = 219<br/>value = [218, 1]>, fillcolor="#e5823a"] ;
134 -> 135 ;
136 [label=<gini = 0.0<br/>samples = 158<br/>value = [158, 0]>, fillcolor="#e58139"] ;
135 -> 136 ;
137 [label=<bmi &le; 28.61<br/>gini = 0.032<br/>samples = 61<br/>value = [60, 1]>, fillcolor="#e5833c"] ;
135 -> 137 ;
138 [label=<gini = 0.0<br/>samples = 1<br/>value = [0, 1]>, fillcolor="#399de5"] ;
137 -> 138 ;
139 [label=<gini = 0.0<br/>samples = 60<br/>value = [60, 0]>, fillcolor="#e58139"] ;
137 -> 139 ;
140 [label=<HbA1c_level &le; 5.9<br/>gini = 0.064<br/>samples = 30<br/>value = [29, 1]>, fillcolor="#e68540"] ;
134 -> 140 ;
141 [label=<gini = 0.0<br/>samples = 17<br/>value = [17, 0]>, fillcolor="#e58139"] ;
140 -> 141 ;
142 [label=<HbA1c_level &le; 6.05<br/>gini = 0.142<br/>samples = 13<br/>value = [12, 1]>, fillcolor="#e78c49"] ;
140 -> 142 ;
143 [label=<bmi &le; 27.6<br/>gini = 0.444<br/>samples = 3<br/>value = [2, 1]>, fillcolor="#f2c09c"] ;
142 -> 143 ;
144 [label=<gini = 0.0<br/>samples = 1<br/>value = [0, 1]>, fillcolor="#399de5"] ;
143 -> 144 ;
145 [label=<gini = 0.0<br/>samples = 2<br/>value = [2, 0]>, fillcolor="#e58139"] ;
143 -> 145 ;
146 [label=<gini = 0.0<br/>samples = 10<br/>value = [10, 0]>, fillcolor="#e58139"] ;
142 -> 146 ;
147 [label=<blood_glucose_level &le; 150.0<br/>gini = 0.023<br/>samples = 2082<br/>value = [2058, 24]>, fillcolor="#e5823b"] ;
41 -> 147 ;
148 [label=<bmi &le; 29.945<br/>gini = 0.031<br/>samples = 939<br/>value = [924, 15]>, fillcolor="#e5833c"] ;
147 -> 148 ;
149 [label=<bmi &le; 24.28<br/>gini = 0.026<br/>samples = 821<br/>value = [810, 11]>, fillcolor="#e5833c"] ;
148 -> 149 ;
150 [label=<bmi &le; 24.25<br/>gini = 0.041<br/>samples = 384<br/>value = [376, 8]>, fillcolor="#e6843d"] ;
149 -> 150 ;
151 [label=<bmi &le; 21.78<br/>gini = 0.036<br/>samples = 380<br/>value = [373, 7]>, fillcolor="#e5833d"] ;
150 -> 151 ;
152 [label=<bmi &le; 17.345<br/>gini = 0.018<br/>samples = 223<br/>value = [221, 2]>, fillcolor="#e5823b"] ;
151 -> 152 ;
153 [label=<bmi &le; 17.31<br/>gini = 0.074<br/>samples = 26<br/>value = [25, 1]>, fillcolor="#e68641"] ;
152 -> 153 ;
154 [label=<gini = 0.0<br/>samples = 25<br/>value = [25, 0]>, fillcolor="#e58139"] ;
153 -> 154 ;
155 [label=<gini = 0.0<br/>samples = 1<br/>value = [0, 1]>, fillcolor="#399de5"] ;
153 -> 155 ;
156 [label=<age &le; 23.5<br/>gini = 0.01<br/>samples = 197<br/>value = [196, 1]>, fillcolor="#e5823a"] ;
152 -> 156 ;
157 [label=<gini = 0.0<br/>samples = 163<br/>value = [163, 0]>, fillcolor="#e58139"] ;
156 -> 157 ;
158 [label=<blood_glucose_level &le; 142.5<br/>gini = 0.057<br/>samples = 34<br/>value = [33, 1]>, fillcolor="#e6853f"] ;
156 -> 158 ;
159 [label=<gini = 0.0<br/>samples = 27<br/>value = [27, 0]>, fillcolor="#e58139"] ;
158 -> 159 ;
160 [label=<Female &le; 0.5<br/>gini = 0.245<br/>samples = 7<br/>value = [6, 1]>, fillcolor="#e9965a"] ;
158 -> 160 ;
161 [label=<bmi &le; 21.065<br/>gini = 0.5<br/>samples = 2<br/>value = [1, 1]>, fillcolor="#ffffff"] ;
160 -> 161 ;
162 [label=<gini = 0.0<br/>samples = 1<br/>value = [0, 1]>, fillcolor="#399de5"] ;
161 -> 162 ;
163 [label=<gini = 0.0<br/>samples = 1<br/>value = [1, 0]>, fillcolor="#e58139"] ;
161 -> 163 ;
164 [label=<gini = 0.0<br/>samples = 5<br/>value = [5, 0]>, fillcolor="#e58139"] ;
160 -> 164 ;
165 [label=<bmi &le; 21.795<br/>gini = 0.062<br/>samples = 157<br/>value = [152, 5]>, fillcolor="#e68540"] ;
151 -> 165 ;
166 [label=<blood_glucose_level &le; 133.0<br/>gini = 0.444<br/>samples = 3<br/>value = [2, 1]>, fillcolor="#f2c09c"] ;
165 -> 166 ;
167 [label=<gini = 0.0<br/>samples = 1<br/>value = [0, 1]>, fillcolor="#399de5"] ;
166 -> 167 ;
168 [label=<gini = 0.0<br/>samples = 2<br/>value = [2, 0]>, fillcolor="#e58139"] ;
166 -> 168 ;
169 [label=<bmi &le; 22.465<br/>gini = 0.051<br/>samples = 154<br/>value = [150, 4]>, fillcolor="#e6843e"] ;
165 -> 169 ;
170 [label=<bmi &le; 22.445<br/>gini = 0.133<br/>samples = 42<br/>value = [39, 3]>, fillcolor="#e78b48"] ;
169 -> 170 ;
171 [label=<bmi &le; 22.06<br/>gini = 0.095<br/>samples = 40<br/>value = [38, 2]>, fillcolor="#e68843"] ;
170 -> 171 ;
172 [label=<gini = 0.0<br/>samples = 15<br/>value = [15, 0]>, fillcolor="#e58139"] ;
171 -> 172 ;
173 [label=<bmi &le; 22.085<br/>gini = 0.147<br/>samples = 25<br/>value = [23, 2]>, fillcolor="#e78c4a"] ;
171 -> 173 ;
174 [label=<gini = 0.0<br/>samples = 1<br/>value = [0, 1]>, fillcolor="#399de5"] ;
173 -> 174 ;
175 [label=<age &le; 22.5<br/>gini = 0.08<br/>samples = 24<br/>value = [23, 1]>, fillcolor="#e68642"] ;
173 -> 175 ;
176 [label=<gini = 0.0<br/>samples = 17<br/>value = [17, 0]>, fillcolor="#e58139"] ;
175 -> 176 ;
177 [label=<HbA1c_level &le; 6.35<br/>gini = 0.245<br/>samples = 7<br/>value = [6, 1]>, fillcolor="#e9965a"] ;
175 -> 177 ;
178 [label=<age &le; 24.0<br/>gini = 0.444<br/>samples = 3<br/>value = [2, 1]>, fillcolor="#f2c09c"] ;
177 -> 178 ;
179 [label=<gini = 0.0<br/>samples = 1<br/>value = [0, 1]>, fillcolor="#399de5"] ;
178 -> 179 ;
180 [label=<gini = 0.0<br/>samples = 2<br/>value = [2, 0]>, fillcolor="#e58139"] ;
178 -> 180 ;
181 [label=<gini = 0.0<br/>samples = 4<br/>value = [4, 0]>, fillcolor="#e58139"] ;
177 -> 181 ;
182 [label=<Female &le; 0.5<br/>gini = 0.5<br/>samples = 2<br/>value = [1, 1]>, fillcolor="#ffffff"] ;
170 -> 182 ;
183 [label=<gini = 0.0<br/>samples = 1<br/>value = [0, 1]>, fillcolor="#399de5"] ;
182 -> 183 ;
184 [label=<gini = 0.0<br/>samples = 1<br/>value = [1, 0]>, fillcolor="#e58139"] ;
182 -> 184 ;
185 [label=<HbA1c_level &le; 6.55<br/>gini = 0.018<br/>samples = 112<br/>value = [111, 1]>, fillcolor="#e5823b"] ;
169 -> 185 ;
186 [label=<gini = 0.0<br/>samples = 84<br/>value = [84, 0]>, fillcolor="#e58139"] ;
185 -> 186 ;
187 [label=<blood_glucose_level &le; 128.0<br/>gini = 0.069<br/>samples = 28<br/>value = [27, 1]>, fillcolor="#e68640"] ;
185 -> 187 ;
188 [label=<bmi &le; 23.465<br/>gini = 0.219<br/>samples = 8<br/>value = [7, 1]>, fillcolor="#e99355"] ;
187 -> 188 ;
189 [label=<gini = 0.0<br/>samples = 6<br/>value = [6, 0]>, fillcolor="#e58139"] ;
188 -> 189 ;
190 [label=<bmi &le; 23.565<br/>gini = 0.5<br/>samples = 2<br/>value = [1, 1]>, fillcolor="#ffffff"] ;
188 -> 190 ;
191 [label=<gini = 0.0<br/>samples = 1<br/>value = [0, 1]>, fillcolor="#399de5"] ;
190 -> 191 ;
192 [label=<gini = 0.0<br/>samples = 1<br/>value = [1, 0]>, fillcolor="#e58139"] ;
190 -> 192 ;
193 [label=<gini = 0.0<br/>samples = 20<br/>value = [20, 0]>, fillcolor="#e58139"] ;
187 -> 193 ;
194 [label=<current &le; 0.5<br/>gini = 0.375<br/>samples = 4<br/>value = [3, 1]>, fillcolor="#eeab7b"] ;
150 -> 194 ;
195 [label=<gini = 0.0<br/>samples = 3<br/>value = [3, 0]>, fillcolor="#e58139"] ;
194 -> 195 ;
196 [label=<gini = 0.0<br/>samples = 1<br/>value = [0, 1]>, fillcolor="#399de5"] ;
194 -> 196 ;
197 [label=<HbA1c_level &le; 6.55<br/>gini = 0.014<br/>samples = 437<br/>value = [434, 3]>, fillcolor="#e5823a"] ;
149 -> 197 ;
198 [label=<gini = 0.0<br/>samples = 286<br/>value = [286, 0]>, fillcolor="#e58139"] ;
197 -> 198 ;
199 [label=<age &le; 26.5<br/>gini = 0.039<br/>samples = 151<br/>value = [148, 3]>, fillcolor="#e6843d"] ;
197 -> 199 ;
200 [label=<age &le; 18.5<br/>gini = 0.028<br/>samples = 141<br/>value = [139, 2]>, fillcolor="#e5833c"] ;
199 -> 200 ;
201 [label=<gini = 0.0<br/>samples = 58<br/>value = [58, 0]>, fillcolor="#e58139"] ;
200 -> 201 ;
202 [label=<age &le; 19.5<br/>gini = 0.047<br/>samples = 83<br/>value = [81, 2]>, fillcolor="#e6843e"] ;
200 -> 202 ;
203 [label=<blood_glucose_level &le; 128.0<br/>gini = 0.278<br/>samples = 6<br/>value = [5, 1]>, fillcolor="#ea9a61"] ;
202 -> 203 ;
204 [label=<gini = 0.5<br/>samples = 2<br/>value = [1, 1]>, fillcolor="#ffffff"] ;
203 -> 204 ;
205 [label=<gini = 0.0<br/>samples = 4<br/>value = [4, 0]>, fillcolor="#e58139"] ;
203 -> 205 ;
206 [label=<age &le; 23.5<br/>gini = 0.026<br/>samples = 77<br/>value = [76, 1]>, fillcolor="#e5833c"] ;
202 -> 206 ;
207 [label=<gini = 0.0<br/>samples = 48<br/>value = [48, 0]>, fillcolor="#e58139"] ;
206 -> 207 ;
208 [label=<age &le; 24.5<br/>gini = 0.067<br/>samples = 29<br/>value = [28, 1]>, fillcolor="#e68640"] ;
206 -> 208 ;
209 [label=<blood_glucose_level &le; 135.0<br/>gini = 0.198<br/>samples = 9<br/>value = [8, 1]>, fillcolor="#e89152"] ;
208 -> 209 ;
210 [label=<gini = 0.0<br/>samples = 6<br/>value = [6, 0]>, fillcolor="#e58139"] ;
209 -> 210 ;
211 [label=<blood_glucose_level &le; 142.5<br/>gini = 0.444<br/>samples = 3<br/>value = [2, 1]>, fillcolor="#f2c09c"] ;
209 -> 211 ;
212 [label=<gini = 0.0<br/>samples = 1<br/>value = [0, 1]>, fillcolor="#399de5"] ;
211 -> 212 ;
213 [label=<gini = 0.0<br/>samples = 2<br/>value = [2, 0]>, fillcolor="#e58139"] ;
211 -> 213 ;
214 [label=<gini = 0.0<br/>samples = 20<br/>value = [20, 0]>, fillcolor="#e58139"] ;
208 -> 214 ;
215 [label=<blood_glucose_level &le; 142.5<br/>gini = 0.18<br/>samples = 10<br/>value = [9, 1]>, fillcolor="#e88f4f"] ;
199 -> 215 ;
216 [label=<gini = 0.0<br/>samples = 8<br/>value = [8, 0]>, fillcolor="#e58139"] ;
215 -> 216 ;
217 [label=<bmi &le; 25.985<br/>gini = 0.5<br/>samples = 2<br/>value = [1, 1]>, fillcolor="#ffffff"] ;
215 -> 217 ;
218 [label=<gini = 0.0<br/>samples = 1<br/>value = [1, 0]>, fillcolor="#e58139"] ;
217 -> 218 ;
219 [label=<gini = 0.0<br/>samples = 1<br/>value = [0, 1]>, fillcolor="#399de5"] ;
217 -> 219 ;
220 [label=<bmi &le; 29.965<br/>gini = 0.065<br/>samples = 118<br/>value = [114, 4]>, fillcolor="#e68540"] ;
148 -> 220 ;
221 [label=<gini = 0.0<br/>samples = 1<br/>value = [0, 1]>, fillcolor="#399de5"] ;
220 -> 221 ;
222 [label=<HbA1c_level &le; 6.35<br/>gini = 0.05<br/>samples = 117<br/>value = [114, 3]>, fillcolor="#e6843e"] ;
220 -> 222 ;
223 [label=<age &le; 21.5<br/>gini = 0.145<br/>samples = 38<br/>value = [35, 3]>, fillcolor="#e78c4a"] ;
222 -> 223 ;
224 [label=<gini = 0.0<br/>samples = 16<br/>value = [16, 0]>, fillcolor="#e58139"] ;
223 -> 224 ;
225 [label=<Female &le; 0.5<br/>gini = 0.236<br/>samples = 22<br/>value = [19, 3]>, fillcolor="#e99558"] ;
223 -> 225 ;
226 [label=<age &le; 24.0<br/>gini = 0.5<br/>samples = 4<br/>value = [2, 2]>, fillcolor="#ffffff"] ;
225 -> 226 ;
227 [label=<gini = 0.0<br/>samples = 2<br/>value = [0, 2]>, fillcolor="#399de5"] ;
226 -> 227 ;
228 [label=<gini = 0.0<br/>samples = 2<br/>value = [2, 0]>, fillcolor="#e58139"] ;
226 -> 228 ;
229 [label=<age &le; 26.5<br/>gini = 0.105<br/>samples = 18<br/>value = [17, 1]>, fillcolor="#e78845"] ;
225 -> 229 ;
230 [label=<gini = 0.0<br/>samples = 14<br/>value = [14, 0]>, fillcolor="#e58139"] ;
229 -> 230 ;
231 [label=<blood_glucose_level &le; 135.0<br/>gini = 0.375<br/>samples = 4<br/>value = [3, 1]>, fillcolor="#eeab7b"] ;
229 -> 231 ;
232 [label=<bmi &le; 36.115<br/>gini = 0.5<br/>samples = 2<br/>value = [1, 1]>, fillcolor="#ffffff"] ;
231 -> 232 ;
233 [label=<gini = 0.0<br/>samples = 1<br/>value = [0, 1]>, fillcolor="#399de5"] ;
232 -> 233 ;
234 [label=<gini = 0.0<br/>samples = 1<br/>value = [1, 0]>, fillcolor="#e58139"] ;
232 -> 234 ;
235 [label=<gini = 0.0<br/>samples = 2<br/>value = [2, 0]>, fillcolor="#e58139"] ;
231 -> 235 ;
236 [label=<gini = 0.0<br/>samples = 79<br/>value = [79, 0]>, fillcolor="#e58139"] ;
222 -> 236 ;
237 [label=<blood_glucose_level &le; 158.5<br/>gini = 0.016<br/>samples = 1143<br/>value = [1134, 9]>, fillcolor="#e5823b"] ;
147 -> 237 ;
238 [label=<gini = 0.0<br/>samples = 437<br/>value = [437, 0]>, fillcolor="#e58139"] ;
237 -> 238 ;
239 [label=<age &le; 18.5<br/>gini = 0.025<br/>samples = 706<br/>value = [697, 9]>, fillcolor="#e5833c"] ;
237 -> 239 ;
240 [label=<bmi &le; 21.125<br/>gini = 0.047<br/>samples = 289<br/>value = [282, 7]>, fillcolor="#e6843e"] ;
239 -> 240 ;
241 [label=<gini = 0.0<br/>samples = 97<br/>value = [97, 0]>, fillcolor="#e58139"] ;
240 -> 241 ;
242 [label=<bmi &le; 21.16<br/>gini = 0.07<br/>samples = 192<br/>value = [185, 7]>, fillcolor="#e68640"] ;
240 -> 242 ;
243 [label=<blood_glucose_level &le; 180.0<br/>gini = 0.5<br/>samples = 2<br/>value = [1, 1]>, fillcolor="#ffffff"] ;
242 -> 243 ;
244 [label=<gini = 0.0<br/>samples = 1<br/>value = [0, 1]>, fillcolor="#399de5"] ;
243 -> 244 ;
245 [label=<gini = 0.0<br/>samples = 1<br/>value = [1, 0]>, fillcolor="#e58139"] ;
243 -> 245 ;
246 [label=<bmi &le; 22.775<br/>gini = 0.061<br/>samples = 190<br/>value = [184, 6]>, fillcolor="#e6853f"] ;
242 -> 246 ;
247 [label=<bmi &le; 22.605<br/>gini = 0.157<br/>samples = 35<br/>value = [32, 3]>, fillcolor="#e78d4c"] ;
246 -> 247 ;
248 [label=<blood_glucose_level &le; 159.5<br/>gini = 0.061<br/>samples = 32<br/>value = [31, 1]>, fillcolor="#e6853f"] ;
247 -> 248 ;
249 [label=<HbA1c_level &le; 6.55<br/>gini = 0.245<br/>samples = 7<br/>value = [6, 1]>, fillcolor="#e9965a"] ;
248 -> 249 ;
250 [label=<gini = 0.0<br/>samples = 6<br/>value = [6, 0]>, fillcolor="#e58139"] ;
249 -> 250 ;
251 [label=<gini = 0.0<br/>samples = 1<br/>value = [0, 1]>, fillcolor="#399de5"] ;
249 -> 251 ;
252 [label=<gini = 0.0<br/>samples = 25<br/>value = [25, 0]>, fillcolor="#e58139"] ;
248 -> 252 ;
253 [label=<HbA1c_level &le; 6.55<br/>gini = 0.444<br/>samples = 3<br/>value = [1, 2]>, fillcolor="#9ccef2"] ;
247 -> 253 ;
254 [label=<gini = 0.0<br/>samples = 2<br/>value = [0, 2]>, fillcolor="#399de5"] ;
253 -> 254 ;
255 [label=<gini = 0.0<br/>samples = 1<br/>value = [1, 0]>, fillcolor="#e58139"] ;
253 -> 255 ;
256 [label=<bmi &le; 27.46<br/>gini = 0.038<br/>samples = 155<br/>value = [152, 3]>, fillcolor="#e6833d"] ;
246 -> 256 ;
257 [label=<bmi &le; 24.265<br/>gini = 0.017<br/>samples = 119<br/>value = [118, 1]>, fillcolor="#e5823b"] ;
256 -> 257 ;
258 [label=<bmi &le; 24.195<br/>gini = 0.08<br/>samples = 24<br/>value = [23, 1]>, fillcolor="#e68642"] ;
257 -> 258 ;
259 [label=<gini = 0.0<br/>samples = 22<br/>value = [22, 0]>, fillcolor="#e58139"] ;
258 -> 259 ;
260 [label=<blood_glucose_level &le; 159.5<br/>gini = 0.5<br/>samples = 2<br/>value = [1, 1]>, fillcolor="#ffffff"] ;
258 -> 260 ;
261 [label=<gini = 0.0<br/>samples = 1<br/>value = [1, 0]>, fillcolor="#e58139"] ;
260 -> 261 ;
262 [label=<gini = 0.0<br/>samples = 1<br/>value = [0, 1]>, fillcolor="#399de5"] ;
260 -> 262 ;
263 [label=<gini = 0.0<br/>samples = 95<br/>value = [95, 0]>, fillcolor="#e58139"] ;
257 -> 263 ;
264 [label=<bmi &le; 27.6<br/>gini = 0.105<br/>samples = 36<br/>value = [34, 2]>, fillcolor="#e78845"] ;
256 -> 264 ;
265 [label=<gini = 0.0<br/>samples = 1<br/>value = [0, 1]>, fillcolor="#399de5"] ;
264 -> 265 ;
266 [label=<bmi &le; 28.605<br/>gini = 0.056<br/>samples = 35<br/>value = [34, 1]>, fillcolor="#e6853f"] ;
264 -> 266 ;
267 [label=<bmi &le; 28.52<br/>gini = 0.245<br/>samples = 7<br/>value = [6, 1]>, fillcolor="#e9965a"] ;
266 -> 267 ;
268 [label=<gini = 0.0<br/>samples = 6<br/>value = [6, 0]>, fillcolor="#e58139"] ;
267 -> 268 ;
269 [label=<gini = 0.0<br/>samples = 1<br/>value = [0, 1]>, fillcolor="#399de5"] ;
267 -> 269 ;
270 [label=<gini = 0.0<br/>samples = 28<br/>value = [28, 0]>, fillcolor="#e58139"] ;
266 -> 270 ;
271 [label=<age &le; 25.5<br/>gini = 0.01<br/>samples = 417<br/>value = [415, 2]>, fillcolor="#e5823a"] ;
239 -> 271 ;
272 [label=<gini = 0.0<br/>samples = 324<br/>value = [324, 0]>, fillcolor="#e58139"] ;
271 -> 272 ;
273 [label=<bmi &le; 31.445<br/>gini = 0.042<br/>samples = 93<br/>value = [91, 2]>, fillcolor="#e6843d"] ;
271 -> 273 ;
274 [label=<Female &le; 0.5<br/>gini = 0.024<br/>samples = 81<br/>value = [80, 1]>, fillcolor="#e5833b"] ;
273 -> 274 ;
275 [label=<HbA1c_level &le; 6.55<br/>gini = 0.064<br/>samples = 30<br/>value = [29, 1]>, fillcolor="#e68540"] ;
274 -> 275 ;
276 [label=<gini = 0.0<br/>samples = 22<br/>value = [22, 0]>, fillcolor="#e58139"] ;
275 -> 276 ;
277 [label=<bmi &le; 26.07<br/>gini = 0.219<br/>samples = 8<br/>value = [7, 1]>, fillcolor="#e99355"] ;
275 -> 277 ;
278 [label=<gini = 0.0<br/>samples = 4<br/>value = [4, 0]>, fillcolor="#e58139"] ;
277 -> 278 ;
279 [label=<bmi &le; 27.41<br/>gini = 0.375<br/>samples = 4<br/>value = [3, 1]>, fillcolor="#eeab7b"] ;
277 -> 279 ;
280 [label=<blood_glucose_level &le; 180.0<br/>gini = 0.444<br/>samples = 3<br/>value = [2, 1]>, fillcolor="#f2c09c"] ;
279 -> 280 ;
281 [label=<gini = 0.5<br/>samples = 2<br/>value = [1, 1]>, fillcolor="#ffffff"] ;
280 -> 281 ;
282 [label=<gini = 0.0<br/>samples = 1<br/>value = [1, 0]>, fillcolor="#e58139"] ;
280 -> 282 ;
283 [label=<gini = 0.0<br/>samples = 1<br/>value = [1, 0]>, fillcolor="#e58139"] ;
279 -> 283 ;
284 [label=<gini = 0.0<br/>samples = 51<br/>value = [51, 0]>, fillcolor="#e58139"] ;
274 -> 284 ;
285 [label=<bmi &le; 31.615<br/>gini = 0.153<br/>samples = 12<br/>value = [11, 1]>, fillcolor="#e78c4b"] ;
273 -> 285 ;
286 [label=<gini = 0.0<br/>samples = 1<br/>value = [0, 1]>, fillcolor="#399de5"] ;
285 -> 286 ;
287 [label=<gini = 0.0<br/>samples = 11<br/>value = [11, 0]>, fillcolor="#e58139"] ;
285 -> 287 ;
288 [label=<bmi &le; 32.21<br/>gini = 0.039<br/>samples = 3511<br/>value = [3442, 69]>, fillcolor="#e6843d"] ;
10 -> 288 ;
289 [label=<blood_glucose_level &le; 142.5<br/>gini = 0.029<br/>samples = 3043<br/>value = [2998, 45]>, fillcolor="#e5833c"] ;
288 -> 289 ;
290 [label=<age &le; 29.5<br/>gini = 0.047<br/>samples = 1005<br/>value = [981, 24]>, fillcolor="#e6843e"] ;
289 -> 290 ;
291 [label=<HbA1c_level &le; 6.35<br/>gini = 0.124<br/>samples = 196<br/>value = [183, 13]>, fillcolor="#e78a47"] ;
290 -> 291 ;
292 [label=<bmi &le; 28.16<br/>gini = 0.172<br/>samples = 137<br/>value = [124, 13]>, fillcolor="#e88e4e"] ;
291 -> 292 ;
293 [label=<bmi &le; 28.045<br/>gini = 0.202<br/>samples = 114<br/>value = [101, 13]>, fillcolor="#e89152"] ;
292 -> 293 ;
294 [label=<HbA1c_level &le; 5.9<br/>gini = 0.19<br/>samples = 113<br/>value = [101, 12]>, fillcolor="#e89051"] ;
293 -> 294 ;
295 [label=<blood_glucose_level &le; 128.0<br/>gini = 0.057<br/>samples = 34<br/>value = [33, 1]>, fillcolor="#e6853f"] ;
294 -> 295 ;
296 [label=<bmi &le; 27.005<br/>gini = 0.198<br/>samples = 9<br/>value = [8, 1]>, fillcolor="#e89152"] ;
295 -> 296 ;
297 [label=<gini = 0.0<br/>samples = 6<br/>value = [6, 0]>, fillcolor="#e58139"] ;
296 -> 297 ;
298 [label=<HbA1c_level &le; 5.75<br/>gini = 0.444<br/>samples = 3<br/>value = [2, 1]>, fillcolor="#f2c09c"] ;
296 -> 298 ;
299 [label=<gini = 0.0<br/>samples = 1<br/>value = [1, 0]>, fillcolor="#e58139"] ;
298 -> 299 ;
300 [label=<gini = 0.5<br/>samples = 2<br/>value = [1, 1]>, fillcolor="#ffffff"] ;
298 -> 300 ;
301 [label=<gini = 0.0<br/>samples = 25<br/>value = [25, 0]>, fillcolor="#e58139"] ;
295 -> 301 ;
302 [label=<bmi &le; 21.08<br/>gini = 0.24<br/>samples = 79<br/>value = [68, 11]>, fillcolor="#e99559"] ;
294 -> 302 ;
303 [label=<gini = 0.0<br/>samples = 9<br/>value = [9, 0]>, fillcolor="#e58139"] ;
302 -> 303 ;
304 [label=<bmi &le; 22.275<br/>gini = 0.265<br/>samples = 70<br/>value = [59, 11]>, fillcolor="#ea985e"] ;
302 -> 304 ;
305 [label=<Female &le; 0.5<br/>gini = 0.375<br/>samples = 4<br/>value = [1, 3]>, fillcolor="#7bbeee"] ;
304 -> 305 ;
306 [label=<bmi &le; 21.9<br/>gini = 0.5<br/>samples = 2<br/>value = [1, 1]>, fillcolor="#ffffff"] ;
305 -> 306 ;
307 [label=<gini = 0.0<br/>samples = 1<br/>value = [1, 0]>, fillcolor="#e58139"] ;
306 -> 307 ;
308 [label=<gini = 0.0<br/>samples = 1<br/>value = [0, 1]>, fillcolor="#399de5"] ;
306 -> 308 ;
309 [label=<gini = 0.0<br/>samples = 2<br/>value = [0, 2]>, fillcolor="#399de5"] ;
305 -> 309 ;
310 [label=<current &le; 0.5<br/>gini = 0.213<br/>samples = 66<br/>value = [58, 8]>, fillcolor="#e99254"] ;
304 -> 310 ;
311 [label=<blood_glucose_level &le; 128.0<br/>gini = 0.171<br/>samples = 53<br/>value = [48, 5]>, fillcolor="#e88e4e"] ;
310 -> 311 ;
312 [label=<age &le; 28.5<br/>gini = 0.32<br/>samples = 15<br/>value = [12, 3]>, fillcolor="#eca06a"] ;
311 -> 312 ;
313 [label=<bmi &le; 26.41<br/>gini = 0.219<br/>samples = 8<br/>value = [7, 1]>, fillcolor="#e99355"] ;
312 -> 313 ;
314 [label=<gini = 0.0<br/>samples = 1<br/>value = [0, 1]>, fillcolor="#399de5"] ;
313 -> 314 ;
315 [label=<gini = 0.0<br/>samples = 7<br/>value = [7, 0]>, fillcolor="#e58139"] ;
313 -> 315 ;
316 [label=<HbA1c_level &le; 6.05<br/>gini = 0.408<br/>samples = 7<br/>value = [5, 2]>, fillcolor="#efb388"] ;
312 -> 316 ;
317 [label=<gini = 0.0<br/>samples = 2<br/>value = [2, 0]>, fillcolor="#e58139"] ;
316 -> 317 ;
318 [label=<bmi &le; 25.52<br/>gini = 0.48<br/>samples = 5<br/>value = [3, 2]>, fillcolor="#f6d5bd"] ;
316 -> 318 ;
319 [label=<gini = 0.0<br/>samples = 1<br/>value = [1, 0]>, fillcolor="#e58139"] ;
318 -> 319 ;
320 [label=<Female &le; 0.5<br/>gini = 0.5<br/>samples = 4<br/>value = [2, 2]>, fillcolor="#ffffff"] ;
318 -> 320 ;
321 [label=<HbA1c_level &le; 6.15<br/>gini = 0.5<br/>samples = 2<br/>value = [1, 1]>, fillcolor="#ffffff"] ;
320 -> 321 ;
322 [label=<gini = 0.0<br/>samples = 1<br/>value = [1, 0]>, fillcolor="#e58139"] ;
321 -> 322 ;
323 [label=<gini = 0.0<br/>samples = 1<br/>value = [0, 1]>, fillcolor="#399de5"] ;
321 -> 323 ;
324 [label=<HbA1c_level &le; 6.15<br/>gini = 0.5<br/>samples = 2<br/>value = [1, 1]>, fillcolor="#ffffff"] ;
320 -> 324 ;
325 [label=<gini = 0.0<br/>samples = 1<br/>value = [0, 1]>, fillcolor="#399de5"] ;
324 -> 325 ;
326 [label=<gini = 0.0<br/>samples = 1<br/>value = [1, 0]>, fillcolor="#e58139"] ;
324 -> 326 ;
327 [label=<age &le; 28.5<br/>gini = 0.1<br/>samples = 38<br/>value = [36, 2]>, fillcolor="#e68844"] ;
311 -> 327 ;
328 [label=<bmi &le; 27.16<br/>gini = 0.278<br/>samples = 12<br/>value = [10, 2]>, fillcolor="#ea9a61"] ;
327 -> 328 ;
329 [label=<gini = 0.0<br/>samples = 5<br/>value = [5, 0]>, fillcolor="#e58139"] ;
328 -> 329 ;
330 [label=<HbA1c_level &le; 6.15<br/>gini = 0.408<br/>samples = 7<br/>value = [5, 2]>, fillcolor="#efb388"] ;
328 -> 330 ;
331 [label=<blood_glucose_level &le; 135.0<br/>gini = 0.48<br/>samples = 5<br/>value = [3, 2]>, fillcolor="#f6d5bd"] ;
330 -> 331 ;
332 [label=<gini = 0.0<br/>samples = 1<br/>value = [1, 0]>, fillcolor="#e58139"] ;
331 -> 332 ;
333 [label=<HbA1c_level &le; 6.05<br/>gini = 0.5<br/>samples = 4<br/>value = [2, 2]>, fillcolor="#ffffff"] ;
331 -> 333 ;
334 [label=<Female &le; 0.5<br/>gini = 0.444<br/>samples = 3<br/>value = [2, 1]>, fillcolor="#f2c09c"] ;
333 -> 334 ;
335 [label=<gini = 0.0<br/>samples = 1<br/>value = [1, 0]>, fillcolor="#e58139"] ;
334 -> 335 ;
336 [label=<gini = 0.5<br/>samples = 2<br/>value = [1, 1]>, fillcolor="#ffffff"] ;
334 -> 336 ;
337 [label=<gini = 0.0<br/>samples = 1<br/>value = [0, 1]>, fillcolor="#399de5"] ;
333 -> 337 ;
338 [label=<gini = 0.0<br/>samples = 2<br/>value = [2, 0]>, fillcolor="#e58139"] ;
330 -> 338 ;
339 [label=<gini = 0.0<br/>samples = 26<br/>value = [26, 0]>, fillcolor="#e58139"] ;
327 -> 339 ;
340 [label=<HbA1c_level &le; 6.05<br/>gini = 0.355<br/>samples = 13<br/>value = [10, 3]>, fillcolor="#eda774"] ;
310 -> 340 ;
341 [label=<bmi &le; 27.17<br/>gini = 0.48<br/>samples = 5<br/>value = [3, 2]>, fillcolor="#f6d5bd"] ;
340 -> 341 ;
342 [label=<gini = 0.0<br/>samples = 2<br/>value = [2, 0]>, fillcolor="#e58139"] ;
341 -> 342 ;
343 [label=<age &le; 28.5<br/>gini = 0.444<br/>samples = 3<br/>value = [1, 2]>, fillcolor="#9ccef2"] ;
341 -> 343 ;
344 [label=<gini = 0.0<br/>samples = 1<br/>value = [0, 1]>, fillcolor="#399de5"] ;
343 -> 344 ;
345 [label=<Female &le; 0.5<br/>gini = 0.5<br/>samples = 2<br/>value = [1, 1]>, fillcolor="#ffffff"] ;
343 -> 345 ;
346 [label=<gini = 0.0<br/>samples = 1<br/>value = [1, 0]>, fillcolor="#e58139"] ;
345 -> 346 ;
347 [label=<gini = 0.0<br/>samples = 1<br/>value = [0, 1]>, fillcolor="#399de5"] ;
345 -> 347 ;
348 [label=<bmi &le; 26.175<br/>gini = 0.219<br/>samples = 8<br/>value = [7, 1]>, fillcolor="#e99355"] ;
340 -> 348 ;
349 [label=<Female &le; 0.5<br/>gini = 0.5<br/>samples = 2<br/>value = [1, 1]>, fillcolor="#ffffff"] ;
348 -> 349 ;
350 [label=<gini = 0.0<br/>samples = 1<br/>value = [0, 1]>, fillcolor="#399de5"] ;
349 -> 350 ;
351 [label=<gini = 0.0<br/>samples = 1<br/>value = [1, 0]>, fillcolor="#e58139"] ;
349 -> 351 ;
352 [label=<gini = 0.0<br/>samples = 6<br/>value = [6, 0]>, fillcolor="#e58139"] ;
348 -> 352 ;
353 [label=<gini = 0.0<br/>samples = 1<br/>value = [0, 1]>, fillcolor="#399de5"] ;
293 -> 353 ;
354 [label=<gini = 0.0<br/>samples = 23<br/>value = [23, 0]>, fillcolor="#e58139"] ;
292 -> 354 ;
355 [label=<gini = 0.0<br/>samples = 59<br/>value = [59, 0]>, fillcolor="#e58139"] ;
291 -> 355 ;
356 [label=<former &le; 0.5<br/>gini = 0.027<br/>samples = 809<br/>value = [798, 11]>, fillcolor="#e5833c"] ;
290 -> 356 ;
357 [label=<bmi &le; 30.785<br/>gini = 0.019<br/>samples = 748<br/>value = [741, 7]>, fillcolor="#e5823b"] ;
356 -> 357 ;
358 [label=<bmi &le; 19.34<br/>gini = 0.014<br/>samples = 714<br/>value = [709, 5]>, fillcolor="#e5823a"] ;
357 -> 358 ;
359 [label=<bmi &le; 19.195<br/>gini = 0.105<br/>samples = 18<br/>value = [17, 1]>, fillcolor="#e78845"] ;
358 -> 359 ;
360 [label=<gini = 0.0<br/>samples = 17<br/>value = [17, 0]>, fillcolor="#e58139"] ;
359 -> 360 ;
361 [label=<gini = 0.0<br/>samples = 1<br/>value = [0, 1]>, fillcolor="#399de5"] ;
359 -> 361 ;
362 [label=<HbA1c_level &le; 6.55<br/>gini = 0.011<br/>samples = 696<br/>value = [692, 4]>, fillcolor="#e5823a"] ;
358 -> 362 ;
363 [label=<bmi &le; 25.07<br/>gini = 0.007<br/>samples = 594<br/>value = [592, 2]>, fillcolor="#e5813a"] ;
362 -> 363 ;
364 [label=<bmi &le; 25.055<br/>gini = 0.023<br/>samples = 169<br/>value = [167, 2]>, fillcolor="#e5833b"] ;
363 -> 364 ;
365 [label=<bmi &le; 24.105<br/>gini = 0.012<br/>samples = 168<br/>value = [167, 1]>, fillcolor="#e5823a"] ;
364 -> 365 ;
366 [label=<gini = 0.0<br/>samples = 139<br/>value = [139, 0]>, fillcolor="#e58139"] ;
365 -> 366 ;
367 [label=<bmi &le; 24.12<br/>gini = 0.067<br/>samples = 29<br/>value = [28, 1]>, fillcolor="#e68640"] ;
365 -> 367 ;
368 [label=<gini = 0.0<br/>samples = 1<br/>value = [0, 1]>, fillcolor="#399de5"] ;
367 -> 368 ;
369 [label=<gini = 0.0<br/>samples = 28<br/>value = [28, 0]>, fillcolor="#e58139"] ;
367 -> 369 ;
370 [label=<gini = 0.0<br/>samples = 1<br/>value = [0, 1]>, fillcolor="#399de5"] ;
364 -> 370 ;
371 [label=<gini = 0.0<br/>samples = 425<br/>value = [425, 0]>, fillcolor="#e58139"] ;
363 -> 371 ;
372 [label=<bmi &le; 29.085<br/>gini = 0.038<br/>samples = 102<br/>value = [100, 2]>, fillcolor="#e6843d"] ;
362 -> 372 ;
373 [label=<current &le; 0.5<br/>gini = 0.02<br/>samples = 98<br/>value = [97, 1]>, fillcolor="#e5823b"] ;
372 -> 373 ;
374 [label=<gini = 0.0<br/>samples = 84<br/>value = [84, 0]>, fillcolor="#e58139"] ;
373 -> 374 ;
375 [label=<blood_glucose_level &le; 128.0<br/>gini = 0.133<br/>samples = 14<br/>value = [13, 1]>, fillcolor="#e78b48"] ;
373 -> 375 ;
376 [label=<Female &le; 0.5<br/>gini = 0.278<br/>samples = 6<br/>value = [5, 1]>, fillcolor="#ea9a61"] ;
375 -> 376 ;
377 [label=<age &le; 31.0<br/>gini = 0.444<br/>samples = 3<br/>value = [2, 1]>, fillcolor="#f2c09c"] ;
376 -> 377 ;
378 [label=<gini = 0.0<br/>samples = 1<br/>value = [1, 0]>, fillcolor="#e58139"] ;
377 -> 378 ;
379 [label=<bmi &le; 25.805<br/>gini = 0.5<br/>samples = 2<br/>value = [1, 1]>, fillcolor="#ffffff"] ;
377 -> 379 ;
380 [label=<gini = 0.0<br/>samples = 1<br/>value = [1, 0]>, fillcolor="#e58139"] ;
379 -> 380 ;
381 [label=<gini = 0.0<br/>samples = 1<br/>value = [0, 1]>, fillcolor="#399de5"] ;
379 -> 381 ;
382 [label=<gini = 0.0<br/>samples = 3<br/>value = [3, 0]>, fillcolor="#e58139"] ;
376 -> 382 ;
383 [label=<gini = 0.0<br/>samples = 8<br/>value = [8, 0]>, fillcolor="#e58139"] ;
375 -> 383 ;
384 [label=<bmi &le; 29.38<br/>gini = 0.375<br/>samples = 4<br/>value = [3, 1]>, fillcolor="#eeab7b"] ;
372 -> 384 ;
385 [label=<gini = 0.0<br/>samples = 1<br/>value = [0, 1]>, fillcolor="#399de5"] ;
384 -> 385 ;
386 [label=<gini = 0.0<br/>samples = 3<br/>value = [3, 0]>, fillcolor="#e58139"] ;
384 -> 386 ;
387 [label=<bmi &le; 30.865<br/>gini = 0.111<br/>samples = 34<br/>value = [32, 2]>, fillcolor="#e78945"] ;
357 -> 387 ;
388 [label=<age &le; 32.0<br/>gini = 0.48<br/>samples = 5<br/>value = [3, 2]>, fillcolor="#f6d5bd"] ;
387 -> 388 ;
389 [label=<gini = 0.0<br/>samples = 2<br/>value = [2, 0]>, fillcolor="#e58139"] ;
388 -> 389 ;
390 [label=<blood_glucose_level &le; 128.0<br/>gini = 0.444<br/>samples = 3<br/>value = [1, 2]>, fillcolor="#9ccef2"] ;
388 -> 390 ;
391 [label=<gini = 0.0<br/>samples = 1<br/>value = [1, 0]>, fillcolor="#e58139"] ;
390 -> 391 ;
392 [label=<gini = 0.0<br/>samples = 2<br/>value = [0, 2]>, fillcolor="#399de5"] ;
390 -> 392 ;
393 [label=<gini = 0.0<br/>samples = 29<br/>value = [29, 0]>, fillcolor="#e58139"] ;
387 -> 393 ;
394 [label=<Female &le; 0.5<br/>gini = 0.123<br/>samples = 61<br/>value = [57, 4]>, fillcolor="#e78a47"] ;
356 -> 394 ;
395 [label=<bmi &le; 25.74<br/>gini = 0.204<br/>samples = 26<br/>value = [23, 3]>, fillcolor="#e89153"] ;
394 -> 395 ;
396 [label=<bmi &le; 25.65<br/>gini = 0.408<br/>samples = 7<br/>value = [5, 2]>, fillcolor="#efb388"] ;
395 -> 396 ;
397 [label=<bmi &le; 24.265<br/>gini = 0.278<br/>samples = 6<br/>value = [5, 1]>, fillcolor="#ea9a61"] ;
396 -> 397 ;
398 [label=<gini = 0.0<br/>samples = 3<br/>value = [3, 0]>, fillcolor="#e58139"] ;
397 -> 398 ;
399 [label=<bmi &le; 24.42<br/>gini = 0.444<br/>samples = 3<br/>value = [2, 1]>, fillcolor="#f2c09c"] ;
397 -> 399 ;
400 [label=<gini = 0.0<br/>samples = 1<br/>value = [0, 1]>, fillcolor="#399de5"] ;
399 -> 400 ;
401 [label=<gini = 0.0<br/>samples = 2<br/>value = [2, 0]>, fillcolor="#e58139"] ;
399 -> 401 ;
402 [label=<gini = 0.0<br/>samples = 1<br/>value = [0, 1]>, fillcolor="#399de5"] ;
396 -> 402 ;
403 [label=<age &le; 31.5<br/>gini = 0.1<br/>samples = 19<br/>value = [18, 1]>, fillcolor="#e68844"] ;
395 -> 403 ;
404 [label=<bmi &le; 30.44<br/>gini = 0.375<br/>samples = 4<br/>value = [3, 1]>, fillcolor="#eeab7b"] ;
403 -> 404 ;
405 [label=<gini = 0.0<br/>samples = 3<br/>value = [3, 0]>, fillcolor="#e58139"] ;
404 -> 405 ;
406 [label=<gini = 0.0<br/>samples = 1<br/>value = [0, 1]>, fillcolor="#399de5"] ;
404 -> 406 ;
407 [label=<gini = 0.0<br/>samples = 15<br/>value = [15, 0]>, fillcolor="#e58139"] ;
403 -> 407 ;
408 [label=<age &le; 37.5<br/>gini = 0.056<br/>samples = 35<br/>value = [34, 1]>, fillcolor="#e6853f"] ;
394 -> 408 ;
409 [label=<gini = 0.0<br/>samples = 29<br/>value = [29, 0]>, fillcolor="#e58139"] ;
408 -> 409 ;
410 [label=<HbA1c_level &le; 6.05<br/>gini = 0.278<br/>samples = 6<br/>value = [5, 1]>, fillcolor="#ea9a61"] ;
408 -> 410 ;
411 [label=<gini = 0.0<br/>samples = 3<br/>value = [3, 0]>, fillcolor="#e58139"] ;
410 -> 411 ;
412 [label=<bmi &le; 24.66<br/>gini = 0.444<br/>samples = 3<br/>value = [2, 1]>, fillcolor="#f2c09c"] ;
410 -> 412 ;
413 [label=<gini = 0.0<br/>samples = 1<br/>value = [1, 0]>, fillcolor="#e58139"] ;
412 -> 413 ;
414 [label=<bmi &le; 29.295<br/>gini = 0.5<br/>samples = 2<br/>value = [1, 1]>, fillcolor="#ffffff"] ;
412 -> 414 ;
415 [label=<gini = 0.0<br/>samples = 1<br/>value = [0, 1]>, fillcolor="#399de5"] ;
414 -> 415 ;
416 [label=<gini = 0.0<br/>samples = 1<br/>value = [1, 0]>, fillcolor="#e58139"] ;
414 -> 416 ;
417 [label=<bmi &le; 27.27<br/>gini = 0.02<br/>samples = 2038<br/>value = [2017, 21]>, fillcolor="#e5823b"] ;
289 -> 417 ;
418 [label=<HbA1c_level &le; 6.15<br/>gini = 0.004<br/>samples = 890<br/>value = [888, 2]>, fillcolor="#e58139"] ;
417 -> 418 ;
419 [label=<gini = 0.0<br/>samples = 530<br/>value = [530, 0]>, fillcolor="#e58139"] ;
418 -> 419 ;
420 [label=<age &le; 32.5<br/>gini = 0.011<br/>samples = 360<br/>value = [358, 2]>, fillcolor="#e5823a"] ;
418 -> 420 ;
421 [label=<gini = 0.0<br/>samples = 178<br/>value = [178, 0]>, fillcolor="#e58139"] ;
420 -> 421 ;
422 [label=<age &le; 33.5<br/>gini = 0.022<br/>samples = 182<br/>value = [180, 2]>, fillcolor="#e5823b"] ;
420 -> 422 ;
423 [label=<Female &le; 0.5<br/>gini = 0.069<br/>samples = 28<br/>value = [27, 1]>, fillcolor="#e68640"] ;
422 -> 423 ;
424 [label=<bmi &le; 23.64<br/>gini = 0.278<br/>samples = 6<br/>value = [5, 1]>, fillcolor="#ea9a61"] ;
423 -> 424 ;
425 [label=<gini = 0.0<br/>samples = 1<br/>value = [0, 1]>, fillcolor="#399de5"] ;
424 -> 425 ;
426 [label=<gini = 0.0<br/>samples = 5<br/>value = [5, 0]>, fillcolor="#e58139"] ;
424 -> 426 ;
427 [label=<gini = 0.0<br/>samples = 22<br/>value = [22, 0]>, fillcolor="#e58139"] ;
423 -> 427 ;
428 [label=<HbA1c_level &le; 6.35<br/>gini = 0.013<br/>samples = 154<br/>value = [153, 1]>, fillcolor="#e5823a"] ;
422 -> 428 ;
429 [label=<bmi &le; 24.54<br/>gini = 0.039<br/>samples = 50<br/>value = [49, 1]>, fillcolor="#e6843d"] ;
428 -> 429 ;
430 [label=<gini = 0.0<br/>samples = 33<br/>value = [33, 0]>, fillcolor="#e58139"] ;
429 -> 430 ;
431 [label=<bmi &le; 24.76<br/>gini = 0.111<br/>samples = 17<br/>value = [16, 1]>, fillcolor="#e78945"] ;
429 -> 431 ;
432 [label=<gini = 0.0<br/>samples = 1<br/>value = [0, 1]>, fillcolor="#399de5"] ;
431 -> 432 ;
433 [label=<gini = 0.0<br/>samples = 16<br/>value = [16, 0]>, fillcolor="#e58139"] ;
431 -> 433 ;
434 [label=<gini = 0.0<br/>samples = 104<br/>value = [104, 0]>, fillcolor="#e58139"] ;
428 -> 434 ;
435 [label=<bmi &le; 27.285<br/>gini = 0.033<br/>samples = 1148<br/>value = [1129, 19]>, fillcolor="#e5833c"] ;
417 -> 435 ;
436 [label=<current &le; 0.5<br/>gini = 0.5<br/>samples = 2<br/>value = [1, 1]>, fillcolor="#ffffff"] ;
435 -> 436 ;
437 [label=<gini = 0.0<br/>samples = 1<br/>value = [0, 1]>, fillcolor="#399de5"] ;
436 -> 437 ;
438 [label=<gini = 0.0<br/>samples = 1<br/>value = [1, 0]>, fillcolor="#e58139"] ;
436 -> 438 ;
439 [label=<age &le; 30.5<br/>gini = 0.031<br/>samples = 1146<br/>value = [1128, 18]>, fillcolor="#e5833c"] ;
435 -> 439 ;
440 [label=<blood_glucose_level &le; 150.0<br/>gini = 0.012<br/>samples = 344<br/>value = [342, 2]>, fillcolor="#e5823a"] ;
439 -> 440 ;
441 [label=<HbA1c_level &le; 5.9<br/>gini = 0.053<br/>samples = 37<br/>value = [36, 1]>, fillcolor="#e6843e"] ;
440 -> 441 ;
442 [label=<HbA1c_level &le; 5.75<br/>gini = 0.142<br/>samples = 13<br/>value = [12, 1]>, fillcolor="#e78c49"] ;
441 -> 442 ;
443 [label=<gini = 0.0<br/>samples = 7<br/>value = [7, 0]>, fillcolor="#e58139"] ;
442 -> 443 ;
444 [label=<Female &le; 0.5<br/>gini = 0.278<br/>samples = 6<br/>value = [5, 1]>, fillcolor="#ea9a61"] ;
442 -> 444 ;
445 [label=<gini = 0.0<br/>samples = 4<br/>value = [4, 0]>, fillcolor="#e58139"] ;
444 -> 445 ;
446 [label=<age &le; 28.5<br/>gini = 0.5<br/>samples = 2<br/>value = [1, 1]>, fillcolor="#ffffff"] ;
444 -> 446 ;
447 [label=<gini = 0.0<br/>samples = 1<br/>value = [0, 1]>, fillcolor="#399de5"] ;
446 -> 447 ;
448 [label=<gini = 0.0<br/>samples = 1<br/>value = [1, 0]>, fillcolor="#e58139"] ;
446 -> 448 ;
449 [label=<gini = 0.0<br/>samples = 24<br/>value = [24, 0]>, fillcolor="#e58139"] ;
441 -> 449 ;
450 [label=<HbA1c_level &le; 6.15<br/>gini = 0.006<br/>samples = 307<br/>value = [306, 1]>, fillcolor="#e5813a"] ;
440 -> 450 ;
451 [label=<gini = 0.0<br/>samples = 187<br/>value = [187, 0]>, fillcolor="#e58139"] ;
450 -> 451 ;
452 [label=<HbA1c_level &le; 6.35<br/>gini = 0.017<br/>samples = 120<br/>value = [119, 1]>, fillcolor="#e5823b"] ;
450 -> 452 ;
453 [label=<Female &le; 0.5<br/>gini = 0.061<br/>samples = 32<br/>value = [31, 1]>, fillcolor="#e6853f"] ;
452 -> 453 ;
454 [label=<blood_glucose_level &le; 159.5<br/>gini = 0.165<br/>samples = 11<br/>value = [10, 1]>, fillcolor="#e88e4d"] ;
453 -> 454 ;
455 [label=<age &le; 29.5<br/>gini = 0.32<br/>samples = 5<br/>value = [4, 1]>, fillcolor="#eca06a"] ;
454 -> 455 ;
456 [label=<gini = 0.0<br/>samples = 1<br/>value = [0, 1]>, fillcolor="#399de5"] ;
455 -> 456 ;
457 [label=<gini = 0.0<br/>samples = 4<br/>value = [4, 0]>, fillcolor="#e58139"] ;
455 -> 457 ;
458 [label=<gini = 0.0<br/>samples = 6<br/>value = [6, 0]>, fillcolor="#e58139"] ;
454 -> 458 ;
459 [label=<gini = 0.0<br/>samples = 21<br/>value = [21, 0]>, fillcolor="#e58139"] ;
453 -> 459 ;
460 [label=<gini = 0.0<br/>samples = 88<br/>value = [88, 0]>, fillcolor="#e58139"] ;
452 -> 460 ;
461 [label=<HbA1c_level &le; 6.35<br/>gini = 0.039<br/>samples = 802<br/>value = [786, 16]>, fillcolor="#e6843d"] ;
439 -> 461 ;
462 [label=<blood_glucose_level &le; 156.5<br/>gini = 0.027<br/>samples = 583<br/>value = [575, 8]>, fillcolor="#e5833c"] ;
461 -> 462 ;
463 [label=<Female &le; 0.5<br/>gini = 0.049<br/>samples = 197<br/>value = [192, 5]>, fillcolor="#e6843e"] ;
462 -> 463 ;
464 [label=<bmi &le; 28.665<br/>gini = 0.081<br/>samples = 95<br/>value = [91, 4]>, fillcolor="#e68742"] ;
463 -> 464 ;
465 [label=<bmi &le; 28.455<br/>gini = 0.108<br/>samples = 70<br/>value = [66, 4]>, fillcolor="#e78945"] ;
464 -> 465 ;
466 [label=<age &le; 32.5<br/>gini = 0.083<br/>samples = 69<br/>value = [66, 3]>, fillcolor="#e68742"] ;
465 -> 466 ;
467 [label=<gini = 0.0<br/>samples = 19<br/>value = [19, 0]>, fillcolor="#e58139"] ;
466 -> 467 ;
468 [label=<HbA1c_level &le; 5.75<br/>gini = 0.113<br/>samples = 50<br/>value = [47, 3]>, fillcolor="#e78946"] ;
466 -> 468 ;
469 [label=<gini = 0.0<br/>samples = 13<br/>value = [13, 0]>, fillcolor="#e58139"] ;
468 -> 469 ;
470 [label=<HbA1c_level &le; 6.15<br/>gini = 0.149<br/>samples = 37<br/>value = [34, 3]>, fillcolor="#e78c4a"] ;
468 -> 470 ;
471 [label=<current &le; 0.5<br/>gini = 0.185<br/>samples = 29<br/>value = [26, 3]>, fillcolor="#e89050"] ;
470 -> 471 ;
472 [label=<age &le; 33.5<br/>gini = 0.204<br/>samples = 26<br/>value = [23, 3]>, fillcolor="#e89153"] ;
471 -> 472 ;
473 [label=<HbA1c_level &le; 6.05<br/>gini = 0.32<br/>samples = 5<br/>value = [4, 1]>, fillcolor="#eca06a"] ;
472 -> 473 ;
474 [label=<gini = 0.5<br/>samples = 2<br/>value = [1, 1]>, fillcolor="#ffffff"] ;
473 -> 474 ;
475 [label=<gini = 0.0<br/>samples = 3<br/>value = [3, 0]>, fillcolor="#e58139"] ;
473 -> 475 ;
476 [label=<age &le; 35.5<br/>gini = 0.172<br/>samples = 21<br/>value = [19, 2]>, fillcolor="#e88e4e"] ;
472 -> 476 ;
477 [label=<gini = 0.0<br/>samples = 5<br/>value = [5, 0]>, fillcolor="#e58139"] ;
476 -> 477 ;
478 [label=<age &le; 36.5<br/>gini = 0.219<br/>samples = 16<br/>value = [14, 2]>, fillcolor="#e99355"] ;
476 -> 478 ;
479 [label=<HbA1c_level &le; 5.9<br/>gini = 0.375<br/>samples = 4<br/>value = [3, 1]>, fillcolor="#eeab7b"] ;
478 -> 479 ;
480 [label=<gini = 0.0<br/>samples = 1<br/>value = [0, 1]>, fillcolor="#399de5"] ;
479 -> 480 ;
481 [label=<gini = 0.0<br/>samples = 3<br/>value = [3, 0]>, fillcolor="#e58139"] ;
479 -> 481 ;
482 [label=<HbA1c_level &le; 6.05<br/>gini = 0.153<br/>samples = 12<br/>value = [11, 1]>, fillcolor="#e78c4b"] ;
478 -> 482 ;
483 [label=<gini = 0.0<br/>samples = 7<br/>value = [7, 0]>, fillcolor="#e58139"] ;
482 -> 483 ;
484 [label=<blood_glucose_level &le; 150.0<br/>gini = 0.32<br/>samples = 5<br/>value = [4, 1]>, fillcolor="#eca06a"] ;
482 -> 484 ;
485 [label=<gini = 0.0<br/>samples = 3<br/>value = [3, 0]>, fillcolor="#e58139"] ;
484 -> 485 ;
486 [label=<gini = 0.5<br/>samples = 2<br/>value = [1, 1]>, fillcolor="#ffffff"] ;
484 -> 486 ;
487 [label=<gini = 0.0<br/>samples = 3<br/>value = [3, 0]>, fillcolor="#e58139"] ;
471 -> 487 ;
488 [label=<gini = 0.0<br/>samples = 8<br/>value = [8, 0]>, fillcolor="#e58139"] ;
470 -> 488 ;
489 [label=<gini = 0.0<br/>samples = 1<br/>value = [0, 1]>, fillcolor="#399de5"] ;
465 -> 489 ;
490 [label=<gini = 0.0<br/>samples = 25<br/>value = [25, 0]>, fillcolor="#e58139"] ;
464 -> 490 ;
491 [label=<age &le; 36.5<br/>gini = 0.019<br/>samples = 102<br/>value = [101, 1]>, fillcolor="#e5823b"] ;
463 -> 491 ;
492 [label=<gini = 0.0<br/>samples = 70<br/>value = [70, 0]>, fillcolor="#e58139"] ;
491 -> 492 ;
493 [label=<age &le; 37.5<br/>gini = 0.061<br/>samples = 32<br/>value = [31, 1]>, fillcolor="#e6853f"] ;
491 -> 493 ;
494 [label=<HbA1c_level &le; 6.05<br/>gini = 0.153<br/>samples = 12<br/>value = [11, 1]>, fillcolor="#e78c4b"] ;
493 -> 494 ;
495 [label=<gini = 0.0<br/>samples = 8<br/>value = [8, 0]>, fillcolor="#e58139"] ;
494 -> 495 ;
496 [label=<former &le; 0.5<br/>gini = 0.375<br/>samples = 4<br/>value = [3, 1]>, fillcolor="#eeab7b"] ;
494 -> 496 ;
497 [label=<HbA1c_level &le; 6.15<br/>gini = 0.444<br/>samples = 3<br/>value = [2, 1]>, fillcolor="#f2c09c"] ;
496 -> 497 ;
498 [label=<gini = 0.5<br/>samples = 2<br/>value = [1, 1]>, fillcolor="#ffffff"] ;
497 -> 498 ;
499 [label=<gini = 0.0<br/>samples = 1<br/>value = [1, 0]>, fillcolor="#e58139"] ;
497 -> 499 ;
500 [label=<gini = 0.0<br/>samples = 1<br/>value = [1, 0]>, fillcolor="#e58139"] ;
496 -> 500 ;
501 [label=<gini = 0.0<br/>samples = 20<br/>value = [20, 0]>, fillcolor="#e58139"] ;
493 -> 501 ;
502 [label=<bmi &le; 29.47<br/>gini = 0.015<br/>samples = 386<br/>value = [383, 3]>, fillcolor="#e5823b"] ;
462 -> 502 ;
503 [label=<current &le; 0.5<br/>gini = 0.006<br/>samples = 312<br/>value = [311, 1]>, fillcolor="#e5813a"] ;
502 -> 503 ;
504 [label=<gini = 0.0<br/>samples = 267<br/>value = [267, 0]>, fillcolor="#e58139"] ;
503 -> 504 ;
505 [label=<age &le; 31.5<br/>gini = 0.043<br/>samples = 45<br/>value = [44, 1]>, fillcolor="#e6843d"] ;
503 -> 505 ;
506 [label=<HbA1c_level &le; 6.15<br/>gini = 0.245<br/>samples = 7<br/>value = [6, 1]>, fillcolor="#e9965a"] ;
505 -> 506 ;
507 [label=<gini = 0.0<br/>samples = 6<br/>value = [6, 0]>, fillcolor="#e58139"] ;
506 -> 507 ;
508 [label=<gini = 0.0<br/>samples = 1<br/>value = [0, 1]>, fillcolor="#399de5"] ;
506 -> 508 ;
509 [label=<gini = 0.0<br/>samples = 38<br/>value = [38, 0]>, fillcolor="#e58139"] ;
505 -> 509 ;
510 [label=<bmi &le; 29.51<br/>gini = 0.053<br/>samples = 74<br/>value = [72, 2]>, fillcolor="#e6843e"] ;
502 -> 510 ;
511 [label=<gini = 0.0<br/>samples = 1<br/>value = [0, 1]>, fillcolor="#399de5"] ;
510 -> 511 ;
512 [label=<blood_glucose_level &le; 180.0<br/>gini = 0.027<br/>samples = 73<br/>value = [72, 1]>, fillcolor="#e5833c"] ;
510 -> 512 ;
513 [label=<gini = 0.0<br/>samples = 53<br/>value = [53, 0]>, fillcolor="#e58139"] ;
512 -> 513 ;
514 [label=<bmi &le; 31.37<br/>gini = 0.095<br/>samples = 20<br/>value = [19, 1]>, fillcolor="#e68843"] ;
512 -> 514 ;
515 [label=<gini = 0.0<br/>samples = 11<br/>value = [11, 0]>, fillcolor="#e58139"] ;
514 -> 515 ;
516 [label=<bmi &le; 31.54<br/>gini = 0.198<br/>samples = 9<br/>value = [8, 1]>, fillcolor="#e89152"] ;
514 -> 516 ;
517 [label=<gini = 0.0<br/>samples = 1<br/>value = [0, 1]>, fillcolor="#399de5"] ;
516 -> 517 ;
518 [label=<gini = 0.0<br/>samples = 8<br/>value = [8, 0]>, fillcolor="#e58139"] ;
516 -> 518 ;
519 [label=<blood_glucose_level &le; 158.5<br/>gini = 0.07<br/>samples = 219<br/>value = [211, 8]>, fillcolor="#e68641"] ;
461 -> 519 ;
520 [label=<age &le; 32.5<br/>gini = 0.019<br/>samples = 107<br/>value = [106, 1]>, fillcolor="#e5823b"] ;
519 -> 520 ;
521 [label=<bmi &le; 28.34<br/>gini = 0.071<br/>samples = 27<br/>value = [26, 1]>, fillcolor="#e68641"] ;
520 -> 521 ;
522 [label=<gini = 0.0<br/>samples = 18<br/>value = [18, 0]>, fillcolor="#e58139"] ;
521 -> 522 ;
523 [label=<bmi &le; 28.945<br/>gini = 0.198<br/>samples = 9<br/>value = [8, 1]>, fillcolor="#e89152"] ;
521 -> 523 ;
524 [label=<gini = 0.0<br/>samples = 1<br/>value = [0, 1]>, fillcolor="#399de5"] ;
523 -> 524 ;
525 [label=<gini = 0.0<br/>samples = 8<br/>value = [8, 0]>, fillcolor="#e58139"] ;
523 -> 525 ;
526 [label=<gini = 0.0<br/>samples = 80<br/>value = [80, 0]>, fillcolor="#e58139"] ;
520 -> 526 ;
527 [label=<Female &le; 0.5<br/>gini = 0.117<br/>samples = 112<br/>value = [105, 7]>, fillcolor="#e78946"] ;
519 -> 527 ;
528 [label=<blood_glucose_level &le; 159.5<br/>gini = 0.214<br/>samples = 41<br/>value = [36, 5]>, fillcolor="#e99254"] ;
527 -> 528 ;
529 [label=<HbA1c_level &le; 6.55<br/>gini = 0.337<br/>samples = 14<br/>value = [11, 3]>, fillcolor="#eca36f"] ;
528 -> 529 ;
530 [label=<age &le; 32.5<br/>gini = 0.198<br/>samples = 9<br/>value = [8, 1]>, fillcolor="#e89152"] ;
529 -> 530 ;
531 [label=<gini = 0.0<br/>samples = 1<br/>value = [0, 1]>, fillcolor="#399de5"] ;
530 -> 531 ;
532 [label=<gini = 0.0<br/>samples = 8<br/>value = [8, 0]>, fillcolor="#e58139"] ;
530 -> 532 ;
533 [label=<age &le; 34.0<br/>gini = 0.48<br/>samples = 5<br/>value = [3, 2]>, fillcolor="#f6d5bd"] ;
529 -> 533 ;
534 [label=<gini = 0.0<br/>samples = 3<br/>value = [3, 0]>, fillcolor="#e58139"] ;
533 -> 534 ;
535 [label=<gini = 0.0<br/>samples = 2<br/>value = [0, 2]>, fillcolor="#399de5"] ;
533 -> 535 ;
536 [label=<age &le; 31.5<br/>gini = 0.137<br/>samples = 27<br/>value = [25, 2]>, fillcolor="#e78b49"] ;
528 -> 536 ;
537 [label=<current &le; 0.5<br/>gini = 0.5<br/>samples = 2<br/>value = [1, 1]>, fillcolor="#ffffff"] ;
536 -> 537 ;
538 [label=<gini = 0.0<br/>samples = 1<br/>value = [0, 1]>, fillcolor="#399de5"] ;
537 -> 538 ;
539 [label=<gini = 0.0<br/>samples = 1<br/>value = [1, 0]>, fillcolor="#e58139"] ;
537 -> 539 ;
540 [label=<bmi &le; 28.06<br/>gini = 0.077<br/>samples = 25<br/>value = [24, 1]>, fillcolor="#e68641"] ;
536 -> 540 ;
541 [label=<gini = 0.0<br/>samples = 17<br/>value = [17, 0]>, fillcolor="#e58139"] ;
540 -> 541 ;
542 [label=<bmi &le; 28.315<br/>gini = 0.219<br/>samples = 8<br/>value = [7, 1]>, fillcolor="#e99355"] ;
540 -> 542 ;
543 [label=<gini = 0.0<br/>samples = 1<br/>value = [0, 1]>, fillcolor="#399de5"] ;
542 -> 543 ;
544 [label=<gini = 0.0<br/>samples = 7<br/>value = [7, 0]>, fillcolor="#e58139"] ;
542 -> 544 ;
545 [label=<age &le; 34.5<br/>gini = 0.055<br/>samples = 71<br/>value = [69, 2]>, fillcolor="#e6853f"] ;
527 -> 545 ;
546 [label=<age &le; 33.5<br/>gini = 0.102<br/>samples = 37<br/>value = [35, 2]>, fillcolor="#e68844"] ;
545 -> 546 ;
547 [label=<gini = 0.0<br/>samples = 27<br/>value = [27, 0]>, fillcolor="#e58139"] ;
546 -> 547 ;
548 [label=<bmi &le; 27.435<br/>gini = 0.32<br/>samples = 10<br/>value = [8, 2]>, fillcolor="#eca06a"] ;
546 -> 548 ;
549 [label=<blood_glucose_level &le; 159.5<br/>gini = 0.48<br/>samples = 5<br/>value = [3, 2]>, fillcolor="#f6d5bd"] ;
548 -> 549 ;
550 [label=<gini = 0.0<br/>samples = 3<br/>value = [3, 0]>, fillcolor="#e58139"] ;
549 -> 550 ;
551 [label=<gini = 0.0<br/>samples = 2<br/>value = [0, 2]>, fillcolor="#399de5"] ;
549 -> 551 ;
552 [label=<gini = 0.0<br/>samples = 5<br/>value = [5, 0]>, fillcolor="#e58139"] ;
548 -> 552 ;
553 [label=<gini = 0.0<br/>samples = 34<br/>value = [34, 0]>, fillcolor="#e58139"] ;
545 -> 553 ;
554 [label=<bmi &le; 32.225<br/>gini = 0.097<br/>samples = 468<br/>value = [444, 24]>, fillcolor="#e68844"] ;
288 -> 554 ;
555 [label=<gini = 0.0<br/>samples = 1<br/>value = [0, 1]>, fillcolor="#399de5"] ;
554 -> 555 ;
556 [label=<blood_glucose_level &le; 142.5<br/>gini = 0.094<br/>samples = 467<br/>value = [444, 23]>, fillcolor="#e68843"] ;
554 -> 556 ;
557 [label=<bmi &le; 33.745<br/>gini = 0.154<br/>samples = 143<br/>value = [131, 12]>, fillcolor="#e78d4b"] ;
556 -> 557 ;
558 [label=<bmi &le; 33.7<br/>gini = 0.245<br/>samples = 56<br/>value = [48, 8]>, fillcolor="#e9965a"] ;
557 -> 558 ;
559 [label=<bmi &le; 32.47<br/>gini = 0.226<br/>samples = 54<br/>value = [47, 7]>, fillcolor="#e99456"] ;
558 -> 559 ;
560 [label=<gini = 0.0<br/>samples = 8<br/>value = [8, 0]>, fillcolor="#e58139"] ;
559 -> 560 ;
561 [label=<bmi &le; 32.525<br/>gini = 0.258<br/>samples = 46<br/>value = [39, 7]>, fillcolor="#ea985d"] ;
559 -> 561 ;
562 [label=<age &le; 37.5<br/>gini = 0.444<br/>samples = 3<br/>value = [1, 2]>, fillcolor="#9ccef2"] ;
561 -> 562 ;
563 [label=<gini = 0.0<br/>samples = 2<br/>value = [0, 2]>, fillcolor="#399de5"] ;
562 -> 563 ;
564 [label=<gini = 0.0<br/>samples = 1<br/>value = [1, 0]>, fillcolor="#e58139"] ;
562 -> 564 ;
565 [label=<age &le; 32.5<br/>gini = 0.206<br/>samples = 43<br/>value = [38, 5]>, fillcolor="#e89253"] ;
561 -> 565 ;
566 [label=<HbA1c_level &le; 6.1<br/>gini = 0.332<br/>samples = 19<br/>value = [15, 4]>, fillcolor="#eca36e"] ;
565 -> 566 ;
567 [label=<Female &le; 0.5<br/>gini = 0.165<br/>samples = 11<br/>value = [10, 1]>, fillcolor="#e88e4d"] ;
566 -> 567 ;
568 [label=<age &le; 31.5<br/>gini = 0.32<br/>samples = 5<br/>value = [4, 1]>, fillcolor="#eca06a"] ;
567 -> 568 ;
569 [label=<gini = 0.0<br/>samples = 3<br/>value = [3, 0]>, fillcolor="#e58139"] ;
568 -> 569 ;
570 [label=<bmi &le; 32.97<br/>gini = 0.5<br/>samples = 2<br/>value = [1, 1]>, fillcolor="#ffffff"] ;
568 -> 570 ;
571 [label=<gini = 0.0<br/>samples = 1<br/>value = [1, 0]>, fillcolor="#e58139"] ;
570 -> 571 ;
572 [label=<gini = 0.0<br/>samples = 1<br/>value = [0, 1]>, fillcolor="#399de5"] ;
570 -> 572 ;
573 [label=<gini = 0.0<br/>samples = 6<br/>value = [6, 0]>, fillcolor="#e58139"] ;
567 -> 573 ;
574 [label=<bmi &le; 32.71<br/>gini = 0.469<br/>samples = 8<br/>value = [5, 3]>, fillcolor="#f5cdb0"] ;
566 -> 574 ;
575 [label=<gini = 0.0<br/>samples = 1<br/>value = [0, 1]>, fillcolor="#399de5"] ;
574 -> 575 ;
576 [label=<bmi &le; 32.815<br/>gini = 0.408<br/>samples = 7<br/>value = [5, 2]>, fillcolor="#efb388"] ;
574 -> 576 ;
577 [label=<gini = 0.0<br/>samples = 2<br/>value = [2, 0]>, fillcolor="#e58139"] ;
576 -> 577 ;
578 [label=<age &le; 28.5<br/>gini = 0.48<br/>samples = 5<br/>value = [3, 2]>, fillcolor="#f6d5bd"] ;
576 -> 578 ;
579 [label=<gini = 0.0<br/>samples = 2<br/>value = [2, 0]>, fillcolor="#e58139"] ;
578 -> 579 ;
580 [label=<current &le; 0.5<br/>gini = 0.444<br/>samples = 3<br/>value = [1, 2]>, fillcolor="#9ccef2"] ;
578 -> 580 ;
581 [label=<gini = 0.0<br/>samples = 2<br/>value = [0, 2]>, fillcolor="#399de5"] ;
580 -> 581 ;
582 [label=<gini = 0.0<br/>samples = 1<br/>value = [1, 0]>, fillcolor="#e58139"] ;
580 -> 582 ;
583 [label=<bmi &le; 33.585<br/>gini = 0.08<br/>samples = 24<br/>value = [23, 1]>, fillcolor="#e68642"] ;
565 -> 583 ;
584 [label=<gini = 0.0<br/>samples = 20<br/>value = [20, 0]>, fillcolor="#e58139"] ;
583 -> 584 ;
585 [label=<bmi &le; 33.625<br/>gini = 0.375<br/>samples = 4<br/>value = [3, 1]>, fillcolor="#eeab7b"] ;
583 -> 585 ;
586 [label=<gini = 0.0<br/>samples = 1<br/>value = [0, 1]>, fillcolor="#399de5"] ;
585 -> 586 ;
587 [label=<gini = 0.0<br/>samples = 3<br/>value = [3, 0]>, fillcolor="#e58139"] ;
585 -> 587 ;
588 [label=<age &le; 35.0<br/>gini = 0.5<br/>samples = 2<br/>value = [1, 1]>, fillcolor="#ffffff"] ;
558 -> 588 ;
589 [label=<gini = 0.0<br/>samples = 1<br/>value = [1, 0]>, fillcolor="#e58139"] ;
588 -> 589 ;
590 [label=<gini = 0.0<br/>samples = 1<br/>value = [0, 1]>, fillcolor="#399de5"] ;
588 -> 590 ;
591 [label=<bmi &le; 38.76<br/>gini = 0.088<br/>samples = 87<br/>value = [83, 4]>, fillcolor="#e68743"] ;
557 -> 591 ;
592 [label=<blood_glucose_level &le; 128.0<br/>gini = 0.07<br/>samples = 83<br/>value = [80, 3]>, fillcolor="#e68640"] ;
591 -> 592 ;
593 [label=<age &le; 33.5<br/>gini = 0.142<br/>samples = 26<br/>value = [24, 2]>, fillcolor="#e78c49"] ;
592 -> 593 ;
594 [label=<gini = 0.0<br/>samples = 12<br/>value = [12, 0]>, fillcolor="#e58139"] ;
593 -> 594 ;
595 [label=<age &le; 35.5<br/>gini = 0.245<br/>samples = 14<br/>value = [12, 2]>, fillcolor="#e9965a"] ;
593 -> 595 ;
596 [label=<bmi &le; 35.15<br/>gini = 0.5<br/>samples = 4<br/>value = [2, 2]>, fillcolor="#ffffff"] ;
595 -> 596 ;
597 [label=<gini = 0.0<br/>samples = 1<br/>value = [1, 0]>, fillcolor="#e58139"] ;
596 -> 597 ;
598 [label=<HbA1c_level &le; 6.1<br/>gini = 0.444<br/>samples = 3<br/>value = [1, 2]>, fillcolor="#9ccef2"] ;
596 -> 598 ;
599 [label=<gini = 0.0<br/>samples = 1<br/>value = [0, 1]>, fillcolor="#399de5"] ;
598 -> 599 ;
600 [label=<bmi &le; 35.89<br/>gini = 0.5<br/>samples = 2<br/>value = [1, 1]>, fillcolor="#ffffff"] ;
598 -> 600 ;
601 [label=<gini = 0.0<br/>samples = 1<br/>value = [0, 1]>, fillcolor="#399de5"] ;
600 -> 601 ;
602 [label=<gini = 0.0<br/>samples = 1<br/>value = [1, 0]>, fillcolor="#e58139"] ;
600 -> 602 ;
603 [label=<gini = 0.0<br/>samples = 10<br/>value = [10, 0]>, fillcolor="#e58139"] ;
595 -> 603 ;
604 [label=<bmi &le; 36.625<br/>gini = 0.034<br/>samples = 57<br/>value = [56, 1]>, fillcolor="#e5833d"] ;
592 -> 604 ;
605 [label=<gini = 0.0<br/>samples = 34<br/>value = [34, 0]>, fillcolor="#e58139"] ;
604 -> 605 ;
606 [label=<bmi &le; 36.765<br/>gini = 0.083<br/>samples = 23<br/>value = [22, 1]>, fillcolor="#e68742"] ;
604 -> 606 ;
607 [label=<gini = 0.0<br/>samples = 1<br/>value = [0, 1]>, fillcolor="#399de5"] ;
606 -> 607 ;
608 [label=<gini = 0.0<br/>samples = 22<br/>value = [22, 0]>, fillcolor="#e58139"] ;
606 -> 608 ;
609 [label=<HbA1c_level &le; 5.9<br/>gini = 0.375<br/>samples = 4<br/>value = [3, 1]>, fillcolor="#eeab7b"] ;
591 -> 609 ;
610 [label=<gini = 0.0<br/>samples = 1<br/>value = [0, 1]>, fillcolor="#399de5"] ;
609 -> 610 ;
611 [label=<gini = 0.0<br/>samples = 3<br/>value = [3, 0]>, fillcolor="#e58139"] ;
609 -> 611 ;
612 [label=<bmi &le; 32.255<br/>gini = 0.066<br/>samples = 324<br/>value = [313, 11]>, fillcolor="#e68540"] ;
556 -> 612 ;
613 [label=<blood_glucose_level &le; 158.5<br/>gini = 0.444<br/>samples = 3<br/>value = [2, 1]>, fillcolor="#f2c09c"] ;
612 -> 613 ;
614 [label=<gini = 0.0<br/>samples = 2<br/>value = [2, 0]>, fillcolor="#e58139"] ;
613 -> 614 ;
615 [label=<gini = 0.0<br/>samples = 1<br/>value = [0, 1]>, fillcolor="#399de5"] ;
613 -> 615 ;
616 [label=<bmi &le; 34.955<br/>gini = 0.06<br/>samples = 321<br/>value = [311, 10]>, fillcolor="#e6853f"] ;
612 -> 616 ;
617 [label=<HbA1c_level &le; 5.9<br/>gini = 0.023<br/>samples = 172<br/>value = [170, 2]>, fillcolor="#e5823b"] ;
616 -> 617 ;
618 [label=<blood_glucose_level &le; 156.5<br/>gini = 0.077<br/>samples = 50<br/>value = [48, 2]>, fillcolor="#e68641"] ;
617 -> 618 ;
619 [label=<bmi &le; 33.37<br/>gini = 0.188<br/>samples = 19<br/>value = [17, 2]>, fillcolor="#e89050"] ;
618 -> 619 ;
620 [label=<gini = 0.0<br/>samples = 8<br/>value = [8, 0]>, fillcolor="#e58139"] ;
619 -> 620 ;
621 [label=<bmi &le; 33.73<br/>gini = 0.298<br/>samples = 11<br/>value = [9, 2]>, fillcolor="#eb9d65"] ;
619 -> 621 ;
622 [label=<current &le; 0.5<br/>gini = 0.444<br/>samples = 3<br/>value = [1, 2]>, fillcolor="#9ccef2"] ;
621 -> 622 ;
623 [label=<gini = 0.0<br/>samples = 2<br/>value = [0, 2]>, fillcolor="#399de5"] ;
622 -> 623 ;
624 [label=<gini = 0.0<br/>samples = 1<br/>value = [1, 0]>, fillcolor="#e58139"] ;
622 -> 624 ;
625 [label=<gini = 0.0<br/>samples = 8<br/>value = [8, 0]>, fillcolor="#e58139"] ;
621 -> 625 ;
626 [label=<gini = 0.0<br/>samples = 31<br/>value = [31, 0]>, fillcolor="#e58139"] ;
618 -> 626 ;
627 [label=<gini = 0.0<br/>samples = 122<br/>value = [122, 0]>, fillcolor="#e58139"] ;
617 -> 627 ;
628 [label=<bmi &le; 34.985<br/>gini = 0.102<br/>samples = 149<br/>value = [141, 8]>, fillcolor="#e68844"] ;
616 -> 628 ;
629 [label=<gini = 0.0<br/>samples = 2<br/>value = [0, 2]>, fillcolor="#399de5"] ;
628 -> 629 ;
630 [label=<bmi &le; 37.34<br/>gini = 0.078<br/>samples = 147<br/>value = [141, 6]>, fillcolor="#e68641"] ;
628 -> 630 ;
631 [label=<bmi &le; 37.305<br/>gini = 0.107<br/>samples = 106<br/>value = [100, 6]>, fillcolor="#e78945"] ;
630 -> 631 ;
632 [label=<bmi &le; 37.17<br/>gini = 0.091<br/>samples = 105<br/>value = [100, 5]>, fillcolor="#e68743"] ;
631 -> 632 ;
633 [label=<blood_glucose_level &le; 156.5<br/>gini = 0.076<br/>samples = 101<br/>value = [97, 4]>, fillcolor="#e68641"] ;
632 -> 633 ;
634 [label=<age &le; 34.5<br/>gini = 0.161<br/>samples = 34<br/>value = [31, 3]>, fillcolor="#e88d4c"] ;
633 -> 634 ;
635 [label=<bmi &le; 35.56<br/>gini = 0.227<br/>samples = 23<br/>value = [20, 3]>, fillcolor="#e99457"] ;
634 -> 635 ;
636 [label=<gini = 0.0<br/>samples = 8<br/>value = [8, 0]>, fillcolor="#e58139"] ;
635 -> 636 ;
637 [label=<bmi &le; 35.7<br/>gini = 0.32<br/>samples = 15<br/>value = [12, 3]>, fillcolor="#eca06a"] ;
635 -> 637 ;
638 [label=<age &le; 33.0<br/>gini = 0.5<br/>samples = 2<br/>value = [1, 1]>, fillcolor="#ffffff"] ;
637 -> 638 ;
639 [label=<gini = 0.0<br/>samples = 1<br/>value = [0, 1]>, fillcolor="#399de5"] ;
638 -> 639 ;
640 [label=<gini = 0.0<br/>samples = 1<br/>value = [1, 0]>, fillcolor="#e58139"] ;
638 -> 640 ;
641 [label=<HbA1c_level &le; 6.15<br/>gini = 0.26<br/>samples = 13<br/>value = [11, 2]>, fillcolor="#ea985d"] ;
637 -> 641 ;
642 [label=<age &le; 32.5<br/>gini = 0.408<br/>samples = 7<br/>value = [5, 2]>, fillcolor="#efb388"] ;
641 -> 642 ;
643 [label=<gini = 0.0<br/>samples = 3<br/>value = [3, 0]>, fillcolor="#e58139"] ;
642 -> 643 ;
644 [label=<blood_glucose_level &le; 150.0<br/>gini = 0.5<br/>samples = 4<br/>value = [2, 2]>, fillcolor="#ffffff"] ;
642 -> 644 ;
645 [label=<gini = 0.0<br/>samples = 1<br/>value = [1, 0]>, fillcolor="#e58139"] ;
644 -> 645 ;
646 [label=<bmi &le; 36.91<br/>gini = 0.444<br/>samples = 3<br/>value = [1, 2]>, fillcolor="#9ccef2"] ;
644 -> 646 ;
647 [label=<gini = 0.0<br/>samples = 2<br/>value = [0, 2]>, fillcolor="#399de5"] ;
646 -> 647 ;
648 [label=<gini = 0.0<br/>samples = 1<br/>value = [1, 0]>, fillcolor="#e58139"] ;
646 -> 648 ;
649 [label=<gini = 0.0<br/>samples = 6<br/>value = [6, 0]>, fillcolor="#e58139"] ;
641 -> 649 ;
650 [label=<gini = 0.0<br/>samples = 11<br/>value = [11, 0]>, fillcolor="#e58139"] ;
634 -> 650 ;
651 [label=<HbA1c_level &le; 6.35<br/>gini = 0.029<br/>samples = 67<br/>value = [66, 1]>, fillcolor="#e5833c"] ;
633 -> 651 ;
652 [label=<gini = 0.0<br/>samples = 44<br/>value = [44, 0]>, fillcolor="#e58139"] ;
651 -> 652 ;
653 [label=<bmi &le; 35.755<br/>gini = 0.083<br/>samples = 23<br/>value = [22, 1]>, fillcolor="#e68742"] ;
651 -> 653 ;
654 [label=<bmi &le; 35.72<br/>gini = 0.245<br/>samples = 7<br/>value = [6, 1]>, fillcolor="#e9965a"] ;
653 -> 654 ;
655 [label=<gini = 0.0<br/>samples = 6<br/>value = [6, 0]>, fillcolor="#e58139"] ;
654 -> 655 ;
656 [label=<gini = 0.0<br/>samples = 1<br/>value = [0, 1]>, fillcolor="#399de5"] ;
654 -> 656 ;
657 [label=<gini = 0.0<br/>samples = 16<br/>value = [16, 0]>, fillcolor="#e58139"] ;
653 -> 657 ;
658 [label=<HbA1c_level &le; 5.9<br/>gini = 0.375<br/>samples = 4<br/>value = [3, 1]>, fillcolor="#eeab7b"] ;
632 -> 658 ;
659 [label=<gini = 0.0<br/>samples = 1<br/>value = [0, 1]>, fillcolor="#399de5"] ;
658 -> 659 ;
660 [label=<gini = 0.0<br/>samples = 3<br/>value = [3, 0]>, fillcolor="#e58139"] ;
658 -> 660 ;
661 [label=<gini = 0.0<br/>samples = 1<br/>value = [0, 1]>, fillcolor="#399de5"] ;
631 -> 661 ;
662 [label=<gini = 0.0<br/>samples = 41<br/>value = [41, 0]>, fillcolor="#e58139"] ;
630 -> 662 ;
663 [label=<blood_glucose_level &le; 113.0<br/>gini = 0.056<br/>samples = 5769<br/>value = [5602, 167]>, fillcolor="#e6853f"] ;
7 -> 663 ;
664 [label=<gini = 0.0<br/>samples = 1766<br/>value = [1766, 0]>, fillcolor="#e58139"] ;
663 -> 664 ;
665 [label=<bmi &le; 28.565<br/>gini = 0.08<br/>samples = 4003<br/>value = [3836, 167]>, fillcolor="#e68642"] ;
663 -> 665 ;
666 [label=<heart_disease &le; 0.5<br/>gini = 0.058<br/>samples = 2792<br/>value = [2708, 84]>, fillcolor="#e6853f"] ;
665 -> 666 ;
667 [label=<blood_glucose_level &le; 156.5<br/>gini = 0.055<br/>samples = 2768<br/>value = [2689, 79]>, fillcolor="#e6853f"] ;
666 -> 667 ;
668 [label=<bmi &le; 23.505<br/>gini = 0.069<br/>samples = 1529<br/>value = [1474, 55]>, fillcolor="#e68640"] ;
667 -> 668 ;
669 [label=<former &le; 0.5<br/>gini = 0.032<br/>samples = 303<br/>value = [298, 5]>, fillcolor="#e5833c"] ;
668 -> 669 ;
670 [label=<Female &le; 0.5<br/>gini = 0.021<br/>samples = 284<br/>value = [281, 3]>, fillcolor="#e5823b"] ;
669 -> 670 ;
671 [label=<blood_glucose_level &le; 128.0<br/>gini = 0.067<br/>samples = 58<br/>value = [56, 2]>, fillcolor="#e68640"] ;
670 -> 671 ;
672 [label=<bmi &le; 20.79<br/>gini = 0.26<br/>samples = 13<br/>value = [11, 2]>, fillcolor="#ea985d"] ;
671 -> 672 ;
673 [label=<gini = 0.0<br/>samples = 1<br/>value = [0, 1]>, fillcolor="#399de5"] ;
672 -> 673 ;
674 [label=<bmi &le; 22.62<br/>gini = 0.153<br/>samples = 12<br/>value = [11, 1]>, fillcolor="#e78c4b"] ;
672 -> 674 ;
675 [label=<gini = 0.0<br/>samples = 10<br/>value = [10, 0]>, fillcolor="#e58139"] ;
674 -> 675 ;
676 [label=<bmi &le; 23.065<br/>gini = 0.5<br/>samples = 2<br/>value = [1, 1]>, fillcolor="#ffffff"] ;
674 -> 676 ;
677 [label=<gini = 0.0<br/>samples = 1<br/>value = [0, 1]>, fillcolor="#399de5"] ;
676 -> 677 ;
678 [label=<gini = 0.0<br/>samples = 1<br/>value = [1, 0]>, fillcolor="#e58139"] ;
676 -> 678 ;
679 [label=<gini = 0.0<br/>samples = 45<br/>value = [45, 0]>, fillcolor="#e58139"] ;
671 -> 679 ;
680 [label=<bmi &le; 20.41<br/>gini = 0.009<br/>samples = 226<br/>value = [225, 1]>, fillcolor="#e5823a"] ;
670 -> 680 ;
681 [label=<bmi &le; 20.38<br/>gini = 0.03<br/>samples = 65<br/>value = [64, 1]>, fillcolor="#e5833c"] ;
680 -> 681 ;
682 [label=<gini = 0.0<br/>samples = 64<br/>value = [64, 0]>, fillcolor="#e58139"] ;
681 -> 682 ;
683 [label=<gini = 0.0<br/>samples = 1<br/>value = [0, 1]>, fillcolor="#399de5"] ;
681 -> 683 ;
684 [label=<gini = 0.0<br/>samples = 161<br/>value = [161, 0]>, fillcolor="#e58139"] ;
680 -> 684 ;
685 [label=<age &le; 42.0<br/>gini = 0.188<br/>samples = 19<br/>value = [17, 2]>, fillcolor="#e89050"] ;
669 -> 685 ;
686 [label=<gini = 0.0<br/>samples = 9<br/>value = [9, 0]>, fillcolor="#e58139"] ;
685 -> 686 ;
687 [label=<age &le; 43.5<br/>gini = 0.32<br/>samples = 10<br/>value = [8, 2]>, fillcolor="#eca06a"] ;
685 -> 687 ;
688 [label=<Female &le; 0.5<br/>gini = 0.5<br/>samples = 2<br/>value = [1, 1]>, fillcolor="#ffffff"] ;
687 -> 688 ;
689 [label=<gini = 0.0<br/>samples = 1<br/>value = [0, 1]>, fillcolor="#399de5"] ;
688 -> 689 ;
690 [label=<gini = 0.0<br/>samples = 1<br/>value = [1, 0]>, fillcolor="#e58139"] ;
688 -> 690 ;
691 [label=<bmi &le; 22.68<br/>gini = 0.219<br/>samples = 8<br/>value = [7, 1]>, fillcolor="#e99355"] ;
687 -> 691 ;
692 [label=<gini = 0.0<br/>samples = 6<br/>value = [6, 0]>, fillcolor="#e58139"] ;
691 -> 692 ;
693 [label=<HbA1c_level &le; 5.9<br/>gini = 0.5<br/>samples = 2<br/>value = [1, 1]>, fillcolor="#ffffff"] ;
691 -> 693 ;
694 [label=<gini = 0.0<br/>samples = 1<br/>value = [0, 1]>, fillcolor="#399de5"] ;
693 -> 694 ;
695 [label=<gini = 0.0<br/>samples = 1<br/>value = [1, 0]>, fillcolor="#e58139"] ;
693 -> 695 ;
696 [label=<bmi &le; 23.515<br/>gini = 0.078<br/>samples = 1226<br/>value = [1176, 50]>, fillcolor="#e68641"] ;
668 -> 696 ;
697 [label=<HbA1c_level &le; 6.1<br/>gini = 0.375<br/>samples = 4<br/>value = [3, 1]>, fillcolor="#eeab7b"] ;
696 -> 697 ;
698 [label=<gini = 0.0<br/>samples = 1<br/>value = [0, 1]>, fillcolor="#399de5"] ;
697 -> 698 ;
699 [label=<gini = 0.0<br/>samples = 3<br/>value = [3, 0]>, fillcolor="#e58139"] ;
697 -> 699 ;
700 [label=<bmi &le; 24.58<br/>gini = 0.077<br/>samples = 1222<br/>value = [1173, 49]>, fillcolor="#e68641"] ;
696 -> 700 ;
701 [label=<bmi &le; 24.295<br/>gini = 0.128<br/>samples = 102<br/>value = [95, 7]>, fillcolor="#e78a48"] ;
700 -> 701 ;
702 [label=<former &le; 0.5<br/>gini = 0.051<br/>samples = 77<br/>value = [75, 2]>, fillcolor="#e6843e"] ;
701 -> 702 ;
703 [label=<blood_glucose_level &le; 150.0<br/>gini = 0.029<br/>samples = 69<br/>value = [68, 1]>, fillcolor="#e5833c"] ;
702 -> 703 ;
704 [label=<gini = 0.0<br/>samples = 52<br/>value = [52, 0]>, fillcolor="#e58139"] ;
703 -> 704 ;
705 [label=<HbA1c_level &le; 5.9<br/>gini = 0.111<br/>samples = 17<br/>value = [16, 1]>, fillcolor="#e78945"] ;
703 -> 705 ;
706 [label=<bmi &le; 23.805<br/>gini = 0.278<br/>samples = 6<br/>value = [5, 1]>, fillcolor="#ea9a61"] ;
705 -> 706 ;
707 [label=<HbA1c_level &le; 5.75<br/>gini = 0.444<br/>samples = 3<br/>value = [2, 1]>, fillcolor="#f2c09c"] ;
706 -> 707 ;
708 [label=<gini = 0.0<br/>samples = 2<br/>value = [2, 0]>, fillcolor="#e58139"] ;
707 -> 708 ;
709 [label=<gini = 0.0<br/>samples = 1<br/>value = [0, 1]>, fillcolor="#399de5"] ;
707 -> 709 ;
710 [label=<gini = 0.0<br/>samples = 3<br/>value = [3, 0]>, fillcolor="#e58139"] ;
706 -> 710 ;
711 [label=<gini = 0.0<br/>samples = 11<br/>value = [11, 0]>, fillcolor="#e58139"] ;
705 -> 711 ;
712 [label=<blood_glucose_level &le; 135.0<br/>gini = 0.219<br/>samples = 8<br/>value = [7, 1]>, fillcolor="#e99355"] ;
702 -> 712 ;
713 [label=<Female &le; 0.5<br/>gini = 0.444<br/>samples = 3<br/>value = [2, 1]>, fillcolor="#f2c09c"] ;
712 -> 713 ;
714 [label=<gini = 0.0<br/>samples = 1<br/>value = [0, 1]>, fillcolor="#399de5"] ;
713 -> 714 ;
715 [label=<gini = 0.0<br/>samples = 2<br/>value = [2, 0]>, fillcolor="#e58139"] ;
713 -> 715 ;
716 [label=<gini = 0.0<br/>samples = 5<br/>value = [5, 0]>, fillcolor="#e58139"] ;
712 -> 716 ;
717 [label=<HbA1c_level &le; 6.35<br/>gini = 0.32<br/>samples = 25<br/>value = [20, 5]>, fillcolor="#eca06a"] ;
701 -> 717 ;
718 [label=<HbA1c_level &le; 5.75<br/>gini = 0.111<br/>samples = 17<br/>value = [16, 1]>, fillcolor="#e78945"] ;
717 -> 718 ;
719 [label=<blood_glucose_level &le; 137.5<br/>gini = 0.5<br/>samples = 2<br/>value = [1, 1]>, fillcolor="#ffffff"] ;
718 -> 719 ;
720 [label=<gini = 0.0<br/>samples = 1<br/>value = [1, 0]>, fillcolor="#e58139"] ;
719 -> 720 ;
721 [label=<gini = 0.0<br/>samples = 1<br/>value = [0, 1]>, fillcolor="#399de5"] ;
719 -> 721 ;
722 [label=<gini = 0.0<br/>samples = 15<br/>value = [15, 0]>, fillcolor="#e58139"] ;
718 -> 722 ;
723 [label=<age &le; 43.5<br/>gini = 0.5<br/>samples = 8<br/>value = [4, 4]>, fillcolor="#ffffff"] ;
717 -> 723 ;
724 [label=<gini = 0.0<br/>samples = 3<br/>value = [3, 0]>, fillcolor="#e58139"] ;
723 -> 724 ;
725 [label=<blood_glucose_level &le; 128.0<br/>gini = 0.32<br/>samples = 5<br/>value = [1, 4]>, fillcolor="#6ab6ec"] ;
723 -> 725 ;
726 [label=<bmi &le; 24.535<br/>gini = 0.5<br/>samples = 2<br/>value = [1, 1]>, fillcolor="#ffffff"] ;
725 -> 726 ;
727 [label=<gini = 0.0<br/>samples = 1<br/>value = [0, 1]>, fillcolor="#399de5"] ;
726 -> 727 ;
728 [label=<gini = 0.0<br/>samples = 1<br/>value = [1, 0]>, fillcolor="#e58139"] ;
726 -> 728 ;
729 [label=<gini = 0.0<br/>samples = 3<br/>value = [0, 3]>, fillcolor="#399de5"] ;
725 -> 729 ;
730 [label=<bmi &le; 27.685<br/>gini = 0.072<br/>samples = 1120<br/>value = [1078, 42]>, fillcolor="#e68641"] ;
700 -> 730 ;
731 [label=<blood_glucose_level &le; 128.0<br/>gini = 0.067<br/>samples = 1015<br/>value = [980, 35]>, fillcolor="#e68640"] ;
730 -> 731 ;
732 [label=<age &le; 42.5<br/>gini = 0.11<br/>samples = 206<br/>value = [194, 12]>, fillcolor="#e78945"] ;
731 -> 732 ;
733 [label=<HbA1c_level &le; 5.9<br/>gini = 0.033<br/>samples = 60<br/>value = [59, 1]>, fillcolor="#e5833c"] ;
732 -> 733 ;
734 [label=<HbA1c_level &le; 5.75<br/>gini = 0.142<br/>samples = 13<br/>value = [12, 1]>, fillcolor="#e78c49"] ;
733 -> 734 ;
735 [label=<gini = 0.0<br/>samples = 7<br/>value = [7, 0]>, fillcolor="#e58139"] ;
734 -> 735 ;
736 [label=<age &le; 40.5<br/>gini = 0.278<br/>samples = 6<br/>value = [5, 1]>, fillcolor="#ea9a61"] ;
734 -> 736 ;
737 [label=<age &le; 39.5<br/>gini = 0.444<br/>samples = 3<br/>value = [2, 1]>, fillcolor="#f2c09c"] ;
736 -> 737 ;
738 [label=<gini = 0.0<br/>samples = 2<br/>value = [2, 0]>, fillcolor="#e58139"] ;
737 -> 738 ;
739 [label=<gini = 0.0<br/>samples = 1<br/>value = [0, 1]>, fillcolor="#399de5"] ;
737 -> 739 ;
740 [label=<gini = 0.0<br/>samples = 3<br/>value = [3, 0]>, fillcolor="#e58139"] ;
736 -> 740 ;
741 [label=<gini = 0.0<br/>samples = 47<br/>value = [47, 0]>, fillcolor="#e58139"] ;
733 -> 741 ;
742 [label=<bmi &le; 25.65<br/>gini = 0.139<br/>samples = 146<br/>value = [135, 11]>, fillcolor="#e78b49"] ;
732 -> 742 ;
743 [label=<gini = 0.0<br/>samples = 21<br/>value = [21, 0]>, fillcolor="#e58139"] ;
742 -> 743 ;
744 [label=<bmi &le; 26.35<br/>gini = 0.161<br/>samples = 125<br/>value = [114, 11]>, fillcolor="#e88d4c"] ;
742 -> 744 ;
745 [label=<age &le; 45.5<br/>gini = 0.49<br/>samples = 7<br/>value = [4, 3]>, fillcolor="#f8e0ce"] ;
744 -> 745 ;
746 [label=<gini = 0.0<br/>samples = 3<br/>value = [3, 0]>, fillcolor="#e58139"] ;
745 -> 746 ;
747 [label=<age &le; 49.5<br/>gini = 0.375<br/>samples = 4<br/>value = [1, 3]>, fillcolor="#7bbeee"] ;
745 -> 747 ;
748 [label=<gini = 0.0<br/>samples = 3<br/>value = [0, 3]>, fillcolor="#399de5"] ;
747 -> 748 ;
749 [label=<gini = 0.0<br/>samples = 1<br/>value = [1, 0]>, fillcolor="#e58139"] ;
747 -> 749 ;
750 [label=<age &le; 44.5<br/>gini = 0.126<br/>samples = 118<br/>value = [110, 8]>, fillcolor="#e78a47"] ;
744 -> 750 ;
751 [label=<HbA1c_level &le; 6.35<br/>gini = 0.231<br/>samples = 30<br/>value = [26, 4]>, fillcolor="#e99457"] ;
750 -> 751 ;
752 [label=<bmi &le; 27.205<br/>gini = 0.332<br/>samples = 19<br/>value = [15, 4]>, fillcolor="#eca36e"] ;
751 -> 752 ;
753 [label=<gini = 0.0<br/>samples = 2<br/>value = [2, 0]>, fillcolor="#e58139"] ;
752 -> 753 ;
754 [label=<bmi &le; 27.325<br/>gini = 0.36<br/>samples = 17<br/>value = [13, 4]>, fillcolor="#eda876"] ;
752 -> 754 ;
755 [label=<current &le; 0.5<br/>gini = 0.391<br/>samples = 15<br/>value = [11, 4]>, fillcolor="#eeaf81"] ;
754 -> 755 ;
756 [label=<Female &le; 0.5<br/>gini = 0.355<br/>samples = 13<br/>value = [10, 3]>, fillcolor="#eda774"] ;
755 -> 756 ;
757 [label=<HbA1c_level &le; 5.75<br/>gini = 0.48<br/>samples = 5<br/>value = [3, 2]>, fillcolor="#f6d5bd"] ;
756 -> 757 ;
758 [label=<gini = 0.0<br/>samples = 1<br/>value = [1, 0]>, fillcolor="#e58139"] ;
757 -> 758 ;
759 [label=<HbA1c_level &le; 5.9<br/>gini = 0.5<br/>samples = 4<br/>value = [2, 2]>, fillcolor="#ffffff"] ;
757 -> 759 ;
760 [label=<gini = 0.0<br/>samples = 1<br/>value = [0, 1]>, fillcolor="#399de5"] ;
759 -> 760 ;
761 [label=<HbA1c_level &le; 6.1<br/>gini = 0.444<br/>samples = 3<br/>value = [2, 1]>, fillcolor="#f2c09c"] ;
759 -> 761 ;
762 [label=<gini = 0.0<br/>samples = 1<br/>value = [1, 0]>, fillcolor="#e58139"] ;
761 -> 762 ;
763 [label=<gini = 0.5<br/>samples = 2<br/>value = [1, 1]>, fillcolor="#ffffff"] ;
761 -> 763 ;
764 [label=<HbA1c_level &le; 5.75<br/>gini = 0.219<br/>samples = 8<br/>value = [7, 1]>, fillcolor="#e99355"] ;
756 -> 764 ;
765 [label=<age &le; 43.5<br/>gini = 0.5<br/>samples = 2<br/>value = [1, 1]>, fillcolor="#ffffff"] ;
764 -> 765 ;
766 [label=<gini = 0.0<br/>samples = 1<br/>value = [1, 0]>, fillcolor="#e58139"] ;
765 -> 766 ;
767 [label=<gini = 0.0<br/>samples = 1<br/>value = [0, 1]>, fillcolor="#399de5"] ;
765 -> 767 ;
768 [label=<gini = 0.0<br/>samples = 6<br/>value = [6, 0]>, fillcolor="#e58139"] ;
764 -> 768 ;
769 [label=<HbA1c_level &le; 5.9<br/>gini = 0.5<br/>samples = 2<br/>value = [1, 1]>, fillcolor="#ffffff"] ;
755 -> 769 ;
770 [label=<gini = 0.0<br/>samples = 1<br/>value = [1, 0]>, fillcolor="#e58139"] ;
769 -> 770 ;
771 [label=<gini = 0.0<br/>samples = 1<br/>value = [0, 1]>, fillcolor="#399de5"] ;
769 -> 771 ;
772 [label=<gini = 0.0<br/>samples = 2<br/>value = [2, 0]>, fillcolor="#e58139"] ;
754 -> 772 ;
773 [label=<gini = 0.0<br/>samples = 11<br/>value = [11, 0]>, fillcolor="#e58139"] ;
751 -> 773 ;
774 [label=<HbA1c_level &le; 5.9<br/>gini = 0.087<br/>samples = 88<br/>value = [84, 4]>, fillcolor="#e68742"] ;
750 -> 774 ;
775 [label=<gini = 0.0<br/>samples = 24<br/>value = [24, 0]>, fillcolor="#e58139"] ;
774 -> 775 ;
776 [label=<HbA1c_level &le; 6.05<br/>gini = 0.117<br/>samples = 64<br/>value = [60, 4]>, fillcolor="#e78946"] ;
774 -> 776 ;
777 [label=<bmi &le; 27.06<br/>gini = 0.298<br/>samples = 11<br/>value = [9, 2]>, fillcolor="#eb9d65"] ;
776 -> 777 ;
778 [label=<gini = 0.0<br/>samples = 1<br/>value = [0, 1]>, fillcolor="#399de5"] ;
777 -> 778 ;
779 [label=<age &le; 45.5<br/>gini = 0.18<br/>samples = 10<br/>value = [9, 1]>, fillcolor="#e88f4f"] ;
777 -> 779 ;
780 [label=<current &le; 0.5<br/>gini = 0.375<br/>samples = 4<br/>value = [3, 1]>, fillcolor="#eeab7b"] ;
779 -> 780 ;
781 [label=<Female &le; 0.5<br/>gini = 0.444<br/>samples = 3<br/>value = [2, 1]>, fillcolor="#f2c09c"] ;
780 -> 781 ;
782 [label=<gini = 0.0<br/>samples = 1<br/>value = [1, 0]>, fillcolor="#e58139"] ;
781 -> 782 ;
783 [label=<gini = 0.5<br/>samples = 2<br/>value = [1, 1]>, fillcolor="#ffffff"] ;
781 -> 783 ;
784 [label=<gini = 0.0<br/>samples = 1<br/>value = [1, 0]>, fillcolor="#e58139"] ;
780 -> 784 ;
785 [label=<gini = 0.0<br/>samples = 6<br/>value = [6, 0]>, fillcolor="#e58139"] ;
779 -> 785 ;
786 [label=<age &le; 49.5<br/>gini = 0.073<br/>samples = 53<br/>value = [51, 2]>, fillcolor="#e68641"] ;
776 -> 786 ;
787 [label=<HbA1c_level &le; 6.55<br/>gini = 0.042<br/>samples = 47<br/>value = [46, 1]>, fillcolor="#e6843d"] ;
786 -> 787 ;
788 [label=<gini = 0.0<br/>samples = 31<br/>value = [31, 0]>, fillcolor="#e58139"] ;
787 -> 788 ;
789 [label=<Female &le; 0.5<br/>gini = 0.117<br/>samples = 16<br/>value = [15, 1]>, fillcolor="#e78946"] ;
787 -> 789 ;
790 [label=<age &le; 46.5<br/>gini = 0.32<br/>samples = 5<br/>value = [4, 1]>, fillcolor="#eca06a"] ;
789 -> 790 ;
791 [label=<gini = 0.5<br/>samples = 2<br/>value = [1, 1]>, fillcolor="#ffffff"] ;
790 -> 791 ;
792 [label=<gini = 0.0<br/>samples = 3<br/>value = [3, 0]>, fillcolor="#e58139"] ;
790 -> 792 ;
793 [label=<gini = 0.0<br/>samples = 11<br/>value = [11, 0]>, fillcolor="#e58139"] ;
789 -> 793 ;
794 [label=<HbA1c_level &le; 6.15<br/>gini = 0.278<br/>samples = 6<br/>value = [5, 1]>, fillcolor="#ea9a61"] ;
786 -> 794 ;
795 [label=<gini = 0.0<br/>samples = 1<br/>value = [0, 1]>, fillcolor="#399de5"] ;
794 -> 795 ;
796 [label=<gini = 0.0<br/>samples = 5<br/>value = [5, 0]>, fillcolor="#e58139"] ;
794 -> 796 ;
797 [label=<current &le; 0.5<br/>gini = 0.055<br/>samples = 809<br/>value = [786, 23]>, fillcolor="#e6853f"] ;
731 -> 797 ;
798 [label=<former &le; 0.5<br/>gini = 0.045<br/>samples = 702<br/>value = [686, 16]>, fillcolor="#e6843e"] ;
797 -> 798 ;
799 [label=<age &le; 49.5<br/>gini = 0.039<br/>samples = 651<br/>value = [638, 13]>, fillcolor="#e6843d"] ;
798 -> 799 ;
800 [label=<HbA1c_level &le; 5.9<br/>gini = 0.043<br/>samples = 592<br/>value = [579, 13]>, fillcolor="#e6843d"] ;
799 -> 800 ;
801 [label=<HbA1c_level &le; 5.75<br/>gini = 0.024<br/>samples = 167<br/>value = [165, 2]>, fillcolor="#e5833b"] ;
800 -> 801 ;
802 [label=<Female &le; 0.5<br/>gini = 0.057<br/>samples = 68<br/>value = [66, 2]>, fillcolor="#e6853f"] ;
801 -> 802 ;
803 [label=<gini = 0.0<br/>samples = 25<br/>value = [25, 0]>, fillcolor="#e58139"] ;
802 -> 803 ;
804 [label=<bmi &le; 26.94<br/>gini = 0.089<br/>samples = 43<br/>value = [41, 2]>, fillcolor="#e68743"] ;
802 -> 804 ;
805 [label=<gini = 0.0<br/>samples = 13<br/>value = [13, 0]>, fillcolor="#e58139"] ;
804 -> 805 ;
806 [label=<age &le; 41.5<br/>gini = 0.124<br/>samples = 30<br/>value = [28, 2]>, fillcolor="#e78a47"] ;
804 -> 806 ;
807 [label=<gini = 0.0<br/>samples = 8<br/>value = [8, 0]>, fillcolor="#e58139"] ;
806 -> 807 ;
808 [label=<age &le; 42.5<br/>gini = 0.165<br/>samples = 22<br/>value = [20, 2]>, fillcolor="#e88e4d"] ;
806 -> 808 ;
809 [label=<blood_glucose_level &le; 137.5<br/>gini = 0.5<br/>samples = 2<br/>value = [1, 1]>, fillcolor="#ffffff"] ;
808 -> 809 ;
810 [label=<gini = 0.0<br/>samples = 1<br/>value = [1, 0]>, fillcolor="#e58139"] ;
809 -> 810 ;
811 [label=<gini = 0.0<br/>samples = 1<br/>value = [0, 1]>, fillcolor="#399de5"] ;
809 -> 811 ;
812 [label=<blood_glucose_level &le; 135.0<br/>gini = 0.095<br/>samples = 20<br/>value = [19, 1]>, fillcolor="#e68843"] ;
808 -> 812 ;
813 [label=<age &le; 46.5<br/>gini = 0.198<br/>samples = 9<br/>value = [8, 1]>, fillcolor="#e89152"] ;
812 -> 813 ;
814 [label=<gini = 0.0<br/>samples = 3<br/>value = [3, 0]>, fillcolor="#e58139"] ;
813 -> 814 ;
815 [label=<age &le; 47.5<br/>gini = 0.278<br/>samples = 6<br/>value = [5, 1]>, fillcolor="#ea9a61"] ;
813 -> 815 ;
816 [label=<gini = 0.375<br/>samples = 4<br/>value = [3, 1]>, fillcolor="#eeab7b"] ;
815 -> 816 ;
817 [label=<gini = 0.0<br/>samples = 2<br/>value = [2, 0]>, fillcolor="#e58139"] ;
815 -> 817 ;
818 [label=<gini = 0.0<br/>samples = 11<br/>value = [11, 0]>, fillcolor="#e58139"] ;
812 -> 818 ;
819 [label=<gini = 0.0<br/>samples = 99<br/>value = [99, 0]>, fillcolor="#e58139"] ;
801 -> 819 ;
820 [label=<bmi &le; 27.15<br/>gini = 0.05<br/>samples = 425<br/>value = [414, 11]>, fillcolor="#e6843e"] ;
800 -> 820 ;
821 [label=<bmi &le; 27.13<br/>gini = 0.084<br/>samples = 114<br/>value = [109, 5]>, fillcolor="#e68742"] ;
820 -> 821 ;
822 [label=<HbA1c_level &le; 6.05<br/>gini = 0.068<br/>samples = 113<br/>value = [109, 4]>, fillcolor="#e68640"] ;
821 -> 822 ;
823 [label=<age &le; 39.5<br/>gini = 0.204<br/>samples = 26<br/>value = [23, 3]>, fillcolor="#e89153"] ;
822 -> 823 ;
824 [label=<gini = 0.0<br/>samples = 1<br/>value = [0, 1]>, fillcolor="#399de5"] ;
823 -> 824 ;
825 [label=<age &le; 42.5<br/>gini = 0.147<br/>samples = 25<br/>value = [23, 2]>, fillcolor="#e78c4a"] ;
823 -> 825 ;
826 [label=<blood_glucose_level &le; 142.5<br/>gini = 0.32<br/>samples = 10<br/>value = [8, 2]>, fillcolor="#eca06a"] ;
825 -> 826 ;
827 [label=<gini = 0.0<br/>samples = 5<br/>value = [5, 0]>, fillcolor="#e58139"] ;
826 -> 827 ;
828 [label=<Female &le; 0.5<br/>gini = 0.48<br/>samples = 5<br/>value = [3, 2]>, fillcolor="#f6d5bd"] ;
826 -> 828 ;
829 [label=<gini = 0.0<br/>samples = 1<br/>value = [0, 1]>, fillcolor="#399de5"] ;
828 -> 829 ;
830 [label=<bmi &le; 26.645<br/>gini = 0.375<br/>samples = 4<br/>value = [3, 1]>, fillcolor="#eeab7b"] ;
828 -> 830 ;
831 [label=<gini = 0.0<br/>samples = 3<br/>value = [3, 0]>, fillcolor="#e58139"] ;
830 -> 831 ;
832 [label=<gini = 0.0<br/>samples = 1<br/>value = [0, 1]>, fillcolor="#399de5"] ;
830 -> 832 ;
833 [label=<gini = 0.0<br/>samples = 15<br/>value = [15, 0]>, fillcolor="#e58139"] ;
825 -> 833 ;
834 [label=<bmi &le; 24.935<br/>gini = 0.023<br/>samples = 87<br/>value = [86, 1]>, fillcolor="#e5823b"] ;
822 -> 834 ;
835 [label=<bmi &le; 24.925<br/>gini = 0.165<br/>samples = 11<br/>value = [10, 1]>, fillcolor="#e88e4d"] ;
834 -> 835 ;
836 [label=<gini = 0.0<br/>samples = 9<br/>value = [9, 0]>, fillcolor="#e58139"] ;
835 -> 836 ;
837 [label=<age &le; 45.5<br/>gini = 0.5<br/>samples = 2<br/>value = [1, 1]>, fillcolor="#ffffff"] ;
835 -> 837 ;
838 [label=<gini = 0.0<br/>samples = 1<br/>value = [1, 0]>, fillcolor="#e58139"] ;
837 -> 838 ;
839 [label=<gini = 0.0<br/>samples = 1<br/>value = [0, 1]>, fillcolor="#399de5"] ;
837 -> 839 ;
840 [label=<gini = 0.0<br/>samples = 76<br/>value = [76, 0]>, fillcolor="#e58139"] ;
834 -> 840 ;
841 [label=<gini = 0.0<br/>samples = 1<br/>value = [0, 1]>, fillcolor="#399de5"] ;
821 -> 841 ;
842 [label=<age &le; 41.5<br/>gini = 0.038<br/>samples = 311<br/>value = [305, 6]>, fillcolor="#e6833d"] ;
820 -> 842 ;
843 [label=<gini = 0.0<br/>samples = 90<br/>value = [90, 0]>, fillcolor="#e58139"] ;
842 -> 843 ;
844 [label=<age &le; 43.5<br/>gini = 0.053<br/>samples = 221<br/>value = [215, 6]>, fillcolor="#e6853f"] ;
842 -> 844 ;
845 [label=<blood_glucose_level &le; 142.5<br/>gini = 0.113<br/>samples = 50<br/>value = [47, 3]>, fillcolor="#e78946"] ;
844 -> 845 ;
846 [label=<HbA1c_level &le; 6.35<br/>gini = 0.191<br/>samples = 28<br/>value = [25, 3]>, fillcolor="#e89051"] ;
845 -> 846 ;
847 [label=<age &le; 42.5<br/>gini = 0.1<br/>samples = 19<br/>value = [18, 1]>, fillcolor="#e68844"] ;
846 -> 847 ;
848 [label=<Female &le; 0.5<br/>gini = 0.198<br/>samples = 9<br/>value = [8, 1]>, fillcolor="#e89152"] ;
847 -> 848 ;
849 [label=<HbA1c_level &le; 6.15<br/>gini = 0.32<br/>samples = 5<br/>value = [4, 1]>, fillcolor="#eca06a"] ;
848 -> 849 ;
850 [label=<gini = 0.5<br/>samples = 2<br/>value = [1, 1]>, fillcolor="#ffffff"] ;
849 -> 850 ;
851 [label=<gini = 0.0<br/>samples = 3<br/>value = [3, 0]>, fillcolor="#e58139"] ;
849 -> 851 ;
852 [label=<gini = 0.0<br/>samples = 4<br/>value = [4, 0]>, fillcolor="#e58139"] ;
848 -> 852 ;
853 [label=<gini = 0.0<br/>samples = 10<br/>value = [10, 0]>, fillcolor="#e58139"] ;
847 -> 853 ;
854 [label=<Female &le; 0.5<br/>gini = 0.346<br/>samples = 9<br/>value = [7, 2]>, fillcolor="#eca572"] ;
846 -> 854 ;
855 [label=<gini = 0.0<br/>samples = 4<br/>value = [4, 0]>, fillcolor="#e58139"] ;
854 -> 855 ;
856 [label=<age &le; 42.5<br/>gini = 0.48<br/>samples = 5<br/>value = [3, 2]>, fillcolor="#f6d5bd"] ;
854 -> 856 ;
857 [label=<HbA1c_level &le; 6.55<br/>gini = 0.444<br/>samples = 3<br/>value = [2, 1]>, fillcolor="#f2c09c"] ;
856 -> 857 ;
858 [label=<gini = 0.0<br/>samples = 1<br/>value = [0, 1]>, fillcolor="#399de5"] ;
857 -> 858 ;
859 [label=<gini = 0.0<br/>samples = 2<br/>value = [2, 0]>, fillcolor="#e58139"] ;
857 -> 859 ;
860 [label=<HbA1c_level &le; 6.55<br/>gini = 0.5<br/>samples = 2<br/>value = [1, 1]>, fillcolor="#ffffff"] ;
856 -> 860 ;
861 [label=<gini = 0.0<br/>samples = 1<br/>value = [1, 0]>, fillcolor="#e58139"] ;
860 -> 861 ;
862 [label=<gini = 0.0<br/>samples = 1<br/>value = [0, 1]>, fillcolor="#399de5"] ;
860 -> 862 ;
863 [label=<gini = 0.0<br/>samples = 22<br/>value = [22, 0]>, fillcolor="#e58139"] ;
845 -> 863 ;
864 [label=<blood_glucose_level &le; 142.5<br/>gini = 0.034<br/>samples = 171<br/>value = [168, 3]>, fillcolor="#e5833d"] ;
844 -> 864 ;
865 [label=<gini = 0.0<br/>samples = 89<br/>value = [89, 0]>, fillcolor="#e58139"] ;
864 -> 865 ;
866 [label=<age &le; 46.5<br/>gini = 0.07<br/>samples = 82<br/>value = [79, 3]>, fillcolor="#e68641"] ;
864 -> 866 ;
867 [label=<gini = 0.0<br/>samples = 39<br/>value = [39, 0]>, fillcolor="#e58139"] ;
866 -> 867 ;
868 [label=<Female &le; 0.5<br/>gini = 0.13<br/>samples = 43<br/>value = [40, 3]>, fillcolor="#e78a48"] ;
866 -> 868 ;
869 [label=<age &le; 47.5<br/>gini = 0.208<br/>samples = 17<br/>value = [15, 2]>, fillcolor="#e89253"] ;
868 -> 869 ;
870 [label=<gini = 0.0<br/>samples = 5<br/>value = [5, 0]>, fillcolor="#e58139"] ;
869 -> 870 ;
871 [label=<HbA1c_level &le; 6.05<br/>gini = 0.278<br/>samples = 12<br/>value = [10, 2]>, fillcolor="#ea9a61"] ;
869 -> 871 ;
872 [label=<gini = 0.0<br/>samples = 2<br/>value = [2, 0]>, fillcolor="#e58139"] ;
871 -> 872 ;
873 [label=<HbA1c_level &le; 6.55<br/>gini = 0.32<br/>samples = 10<br/>value = [8, 2]>, fillcolor="#eca06a"] ;
871 -> 873 ;
874 [label=<HbA1c_level &le; 6.15<br/>gini = 0.375<br/>samples = 8<br/>value = [6, 2]>, fillcolor="#eeab7b"] ;
873 -> 874 ;
875 [label=<age &le; 48.5<br/>gini = 0.444<br/>samples = 3<br/>value = [2, 1]>, fillcolor="#f2c09c"] ;
874 -> 875 ;
876 [label=<gini = 0.0<br/>samples = 2<br/>value = [2, 0]>, fillcolor="#e58139"] ;
875 -> 876 ;
877 [label=<gini = 0.0<br/>samples = 1<br/>value = [0, 1]>, fillcolor="#399de5"] ;
875 -> 877 ;
878 [label=<blood_glucose_level &le; 150.0<br/>gini = 0.32<br/>samples = 5<br/>value = [4, 1]>, fillcolor="#eca06a"] ;
874 -> 878 ;
879 [label=<gini = 0.0<br/>samples = 3<br/>value = [3, 0]>, fillcolor="#e58139"] ;
878 -> 879 ;
880 [label=<age &le; 48.5<br/>gini = 0.5<br/>samples = 2<br/>value = [1, 1]>, fillcolor="#ffffff"] ;
878 -> 880 ;
881 [label=<gini = 0.0<br/>samples = 1<br/>value = [0, 1]>, fillcolor="#399de5"] ;
880 -> 881 ;
882 [label=<gini = 0.0<br/>samples = 1<br/>value = [1, 0]>, fillcolor="#e58139"] ;
880 -> 882 ;
883 [label=<gini = 0.0<br/>samples = 2<br/>value = [2, 0]>, fillcolor="#e58139"] ;
873 -> 883 ;
884 [label=<age &le; 47.5<br/>gini = 0.074<br/>samples = 26<br/>value = [25, 1]>, fillcolor="#e68641"] ;
868 -> 884 ;
885 [label=<HbA1c_level &le; 6.05<br/>gini = 0.245<br/>samples = 7<br/>value = [6, 1]>, fillcolor="#e9965a"] ;
884 -> 885 ;
886 [label=<gini = 0.444<br/>samples = 3<br/>value = [2, 1]>, fillcolor="#f2c09c"] ;
885 -> 886 ;
887 [label=<gini = 0.0<br/>samples = 4<br/>value = [4, 0]>, fillcolor="#e58139"] ;
885 -> 887 ;
888 [label=<gini = 0.0<br/>samples = 19<br/>value = [19, 0]>, fillcolor="#e58139"] ;
884 -> 888 ;
889 [label=<gini = 0.0<br/>samples = 59<br/>value = [59, 0]>, fillcolor="#e58139"] ;
799 -> 889 ;
890 [label=<bmi &le; 25.32<br/>gini = 0.111<br/>samples = 51<br/>value = [48, 3]>, fillcolor="#e78945"] ;
798 -> 890 ;
891 [label=<blood_glucose_level &le; 147.5<br/>gini = 0.5<br/>samples = 2<br/>value = [1, 1]>, fillcolor="#ffffff"] ;
890 -> 891 ;
892 [label=<gini = 0.0<br/>samples = 1<br/>value = [1, 0]>, fillcolor="#e58139"] ;
891 -> 892 ;
893 [label=<gini = 0.0<br/>samples = 1<br/>value = [0, 1]>, fillcolor="#399de5"] ;
891 -> 893 ;
894 [label=<HbA1c_level &le; 6.55<br/>gini = 0.078<br/>samples = 49<br/>value = [47, 2]>, fillcolor="#e68641"] ;
890 -> 894 ;
895 [label=<blood_glucose_level &le; 135.0<br/>gini = 0.043<br/>samples = 45<br/>value = [44, 1]>, fillcolor="#e6843d"] ;
894 -> 895 ;
896 [label=<age &le; 46.5<br/>gini = 0.142<br/>samples = 13<br/>value = [12, 1]>, fillcolor="#e78c49"] ;
895 -> 896 ;
897 [label=<age &le; 45.0<br/>gini = 0.278<br/>samples = 6<br/>value = [5, 1]>, fillcolor="#ea9a61"] ;
896 -> 897 ;
898 [label=<gini = 0.0<br/>samples = 4<br/>value = [4, 0]>, fillcolor="#e58139"] ;
897 -> 898 ;
899 [label=<HbA1c_level &le; 6.25<br/>gini = 0.5<br/>samples = 2<br/>value = [1, 1]>, fillcolor="#ffffff"] ;
897 -> 899 ;
900 [label=<gini = 0.0<br/>samples = 1<br/>value = [0, 1]>, fillcolor="#399de5"] ;
899 -> 900 ;
901 [label=<gini = 0.0<br/>samples = 1<br/>value = [1, 0]>, fillcolor="#e58139"] ;
899 -> 901 ;
902 [label=<gini = 0.0<br/>samples = 7<br/>value = [7, 0]>, fillcolor="#e58139"] ;
896 -> 902 ;
903 [label=<gini = 0.0<br/>samples = 32<br/>value = [32, 0]>, fillcolor="#e58139"] ;
895 -> 903 ;
904 [label=<age &le; 47.0<br/>gini = 0.375<br/>samples = 4<br/>value = [3, 1]>, fillcolor="#eeab7b"] ;
894 -> 904 ;
905 [label=<age &le; 44.5<br/>gini = 0.5<br/>samples = 2<br/>value = [1, 1]>, fillcolor="#ffffff"] ;
904 -> 905 ;
906 [label=<gini = 0.0<br/>samples = 1<br/>value = [1, 0]>, fillcolor="#e58139"] ;
905 -> 906 ;
907 [label=<gini = 0.0<br/>samples = 1<br/>value = [0, 1]>, fillcolor="#399de5"] ;
905 -> 907 ;
908 [label=<gini = 0.0<br/>samples = 2<br/>value = [2, 0]>, fillcolor="#e58139"] ;
904 -> 908 ;
909 [label=<HbA1c_level &le; 6.15<br/>gini = 0.122<br/>samples = 107<br/>value = [100, 7]>, fillcolor="#e78a47"] ;
797 -> 909 ;
910 [label=<Female &le; 0.5<br/>gini = 0.063<br/>samples = 61<br/>value = [59, 2]>, fillcolor="#e68540"] ;
909 -> 910 ;
911 [label=<HbA1c_level &le; 5.9<br/>gini = 0.147<br/>samples = 25<br/>value = [23, 2]>, fillcolor="#e78c4a"] ;
910 -> 911 ;
912 [label=<age &le; 43.5<br/>gini = 0.278<br/>samples = 12<br/>value = [10, 2]>, fillcolor="#ea9a61"] ;
