digraph Tree {
node [shape=box, style="filled, rounded", color="black", fontname="helvetica"] ;
edge [fontname="helvetica"] ;
0 [label=<HbA1c_level &le; 6.7<br/>gini = 0.154<br/>samples = 66987<br/>value = [61352, 5635]>, fillcolor="#e78d4b"] ;
1 [label=<blood_glucose_level &le; 210.0<br/>gini = 0.09<br/>samples = 64379<br/>value = [61352, 3027]>, fillcolor="#e68743"] ;
0 -> 1 [labeldistance=2.5, labelangle=45, headlabel="True"] ;
2 [label=<age &le; 50.5<br/>gini = 0.057<br/>samples = 63217<br/>value = [61352, 1865]>, fillcolor="#e6853f"] ;
1 -> 2 ;
3 [label=<bmi &le; 39.205<br/>gini = 0.021<br/>samples = 40470<br/>value = [40040, 430]>, fillcolor="#e5823b"] ;
2 -> 3 ;
4 [label=<hypertension &le; 0.5<br/>gini = 0.017<br/>samples = 38603<br/>value = [38276, 327]>, fillcolor="#e5823b"] ;
3 -> 4 ;
5 [label=<HbA1c_level &le; 5.35<br/>gini = 0.015<br/>samples = 37812<br/>value = [37533, 279]>, fillcolor="#e5823a"] ;
4 -> 5 ;
6 [label=<gini = 0.0<br/>samples = 15561<br/>value = [15561, 0]>, fillcolor="#e58139"] ;
5 -> 6 ;
7 [label=<age &le; 38.5<br/>gini = 0.025<br/>samples = 22251<br/>value = [21972, 279]>, fillcolor="#e5833c"] ;
5 -> 7 ;
8 [label=<blood_glucose_level &le; 113.0<br/>gini = 0.013<br/>samples = 16482<br/>value = [16370, 112]>, fillcolor="#e5823a"] ;
7 -> 8 ;
9 [label=<gini = 0.0<br/>samples = 5046<br/>value = [5046, 0]>, fillcolor="#e58139"] ;
8 -> 9 ;
10 [label=<age &le; 27.5<br/>gini = 0.019<br/>samples = 11436<br/>value = [11324, 112]>, fillcolor="#e5823b"] ;
8 -> 10 ;
11 [label=<age &le; 11.5<br/>gini = 0.011<br/>samples = 7925<br/>value = [7882, 43]>, fillcolor="#e5823a"] ;
10 -> 11 ;
12 [label=<blood_glucose_level &le; 180.0<br/>gini = 0.003<br/>samples = 3141<br/>value = [3137, 4]>, fillcolor="#e58139"] ;
11 -> 12 ;
13 [label=<bmi &le; 15.385<br/>gini = 0.001<br/>samples = 2804<br/>value = [2803, 1]>, fillcolor="#e58139"] ;
12 -> 13 ;
14 [label=<bmi &le; 15.375<br/>gini = 0.004<br/>samples = 472<br/>value = [471, 1]>, fillcolor="#e58139"] ;
13 -> 14 ;
15 [label=<gini = 0.0<br/>samples = 470<br/>value = [470, 0]>, fillcolor="#e58139"] ;
14 -> 15 ;
16 [label=<HbA1c_level &le; 6.3<br/>gini = 0.5<br/>samples = 2<br/>value = [1, 1]>, fillcolor="#ffffff"] ;
14 -> 16 ;
17 [label=<gini = 0.0<br/>samples = 1<br/>value = [0, 1]>, fillcolor="#399de5"] ;
16 -> 17 ;
18 [label=<gini = 0.0<br/>samples = 1<br/>value = [1, 0]>, fillcolor="#e58139"] ;
16 -> 18 ;
19 [label=<gini = 0.0<br/>samples = 2332<br/>value = [2332, 0]>, fillcolor="#e58139"] ;
13 -> 19 ;
20 [label=<HbA1c_level &le; 6.15<br/>gini = 0.018<br/>samples = 337<br/>value = [334, 3]>, fillcolor="#e5823b"] ;
12 -> 20 ;
21 [label=<bmi &le; 15.96<br/>gini = 0.031<br/>samples = 190<br/>value = [187, 3]>, fillcolor="#e5833c"] ;
20 -> 21 ;
22 [label=<gini = 0.0<br/>samples = 49<br/>value = [49, 0]>, fillcolor="#e58139"] ;
21 -> 22 ;
23 [label=<bmi &le; 16.045<br/>gini = 0.042<br/>samples = 141<br/>value = [138, 3]>, fillcolor="#e6843d"] ;
21 -> 23 ;
24 [label=<gini = 0.0<br/>samples = 1<br/>value = [0, 1]>, fillcolor="#399de5"] ;
23 -> 24 ;
25 [label=<age &le; 4.5<br/>gini = 0.028<br/>samples = 140<br/>value = [138, 2]>, fillcolor="#e5833c"] ;
23 -> 25 ;
26 [label=<age &le; 2.5<br/>gini = 0.074<br/>samples = 52<br/>value = [50, 2]>, fillcolor="#e68641"] ;
25 -> 26 ;
27 [label=<gini = 0.0<br/>samples = 33<br/>value = [33, 0]>, fillcolor="#e58139"] ;
26 -> 27 ;
28 [label=<bmi &le; 17.245<br/>gini = 0.188<br/>samples = 19<br/>value = [17, 2]>, fillcolor="#e89050"] ;
26 -> 28 ;
29 [label=<HbA1c_level &le; 5.9<br/>gini = 0.5<br/>samples = 2<br/>value = [1, 1]>, fillcolor="#ffffff"] ;
28 -> 29 ;
30 [label=<gini = 0.0<br/>samples = 1<br/>value = [0, 1]>, fillcolor="#399de5"] ;
29 -> 30 ;
31 [label=<gini = 0.0<br/>samples = 1<br/>value = [1, 0]>, fillcolor="#e58139"] ;
29 -> 31 ;
32 [label=<bmi &le; 24.215<br/>gini = 0.111<br/>samples = 17<br/>value = [16, 1]>, fillcolor="#e78945"] ;
28 -> 32 ;
33 [label=<gini = 0.0<br/>samples = 13<br/>value = [13, 0]>, fillcolor="#e58139"] ;
32 -> 33 ;
34 [label=<Female &le; 0.5<br/>gini = 0.375<br/>samples = 4<br/>value = [3, 1]>, fillcolor="#eeab7b"] ;
32 -> 34 ;
35 [label=<HbA1c_level &le; 5.75<br/>gini = 0.5<br/>samples = 2<br/>value = [1, 1]>, fillcolor="#ffffff"] ;
34 -> 35 ;
36 [label=<gini = 0.0<br/>samples = 1<br/>value = [0, 1]>, fillcolor="#399de5"] ;
35 -> 36 ;
37 [label=<gini = 0.0<br/>samples = 1<br/>value = [1, 0]>, fillcolor="#e58139"] ;
35 -> 37 ;
38 [label=<gini = 0.0<br/>samples = 2<br/>value = [2, 0]>, fillcolor="#e58139"] ;
34 -> 38 ;
39 [label=<gini = 0.0<br/>samples = 88<br/>value = [88, 0]>, fillcolor="#e58139"] ;
25 -> 39 ;
40 [label=<gini = 0.0<br/>samples = 147<br/>value = [147, 0]>, fillcolor="#e58139"] ;
20 -> 40 ;
41 [label=<HbA1c_level &le; 6.15<br/>gini = 0.016<br/>samples = 4784<br/>value = [4745, 39]>, fillcolor="#e5823b"] ;
11 -> 41 ;
42 [label=<blood_glucose_level &le; 159.5<br/>gini = 0.011<br/>samples = 2702<br/>value = [2687.0, 15.0]>, fillcolor="#e5823a"] ;
41 -> 42 ;
43 [label=<blood_glucose_level &le; 135.0<br/>gini = 0.008<br/>samples = 2097<br/>value = [2089, 8]>, fillcolor="#e5813a"] ;
42 -> 43 ;
44 [label=<former &le; 0.5<br/>gini = 0.017<br/>samples = 592<br/>value = [587, 5]>, fillcolor="#e5823b"] ;
43 -> 44 ;
45 [label=<HbA1c_level &le; 6.05<br/>gini = 0.014<br/>samples = 574<br/>value = [570, 4]>, fillcolor="#e5823a"] ;
44 -> 45 ;
46 [label=<bmi &le; 21.405<br/>gini = 0.005<br/>samples = 440<br/>value = [439, 1]>, fillcolor="#e58139"] ;
45 -> 46 ;
47 [label=<bmi &le; 21.3<br/>gini = 0.022<br/>samples = 91<br/>value = [90, 1]>, fillcolor="#e5823b"] ;
46 -> 47 ;
48 [label=<gini = 0.0<br/>samples = 88<br/>value = [88, 0]>, fillcolor="#e58139"] ;
47 -> 48 ;
49 [label=<age &le; 17.0<br/>gini = 0.444<br/>samples = 3<br/>value = [2, 1]>, fillcolor="#f2c09c"] ;
47 -> 49 ;
50 [label=<gini = 0.0<br/>samples = 1<br/>value = [1, 0]>, fillcolor="#e58139"] ;
49 -> 50 ;
51 [label=<age &le; 20.5<br/>gini = 0.5<br/>samples = 2<br/>value = [1, 1]>, fillcolor="#ffffff"] ;
49 -> 51 ;
52 [label=<gini = 0.0<br/>samples = 1<br/>value = [0, 1]>, fillcolor="#399de5"] ;
51 -> 52 ;
53 [label=<gini = 0.0<br/>samples = 1<br/>value = [1, 0]>, fillcolor="#e58139"] ;
51 -> 53 ;
54 [label=<gini = 0.0<br/>samples = 349<br/>value = [349, 0]>, fillcolor="#e58139"] ;
46 -> 54 ;
55 [label=<age &le; 17.5<br/>gini = 0.044<br/>samples = 134<br/>value = [131, 3]>, fillcolor="#e6843e"] ;
45 -> 55 ;
56 [label=<bmi &le; 20.805<br/>gini = 0.109<br/>samples = 52<br/>value = [49, 3]>, fillcolor="#e78945"] ;
55 -> 56 ;
57 [label=<gini = 0.0<br/>samples = 19<br/>value = [19, 0]>, fillcolor="#e58139"] ;
56 -> 57 ;
58 [label=<bmi &le; 21.045<br/>gini = 0.165<br/>samples = 33<br/>value = [30, 3]>, fillcolor="#e88e4d"] ;
56 -> 58 ;
59 [label=<gini = 0.0<br/>samples = 1<br/>value = [0, 1]>, fillcolor="#399de5"] ;
58 -> 59 ;
60 [label=<bmi &le; 26.16<br/>gini = 0.117<br/>samples = 32<br/>value = [30, 2]>, fillcolor="#e78946"] ;
58 -> 60 ;
61 [label=<bmi &le; 24.7<br/>gini = 0.188<br/>samples = 19<br/>value = [17, 2]>, fillcolor="#e89050"] ;
60 -> 61 ;
62 [label=<age &le; 16.5<br/>gini = 0.105<br/>samples = 18<br/>value = [17, 1]>, fillcolor="#e78845"] ;
61 -> 62 ;
63 [label=<gini = 0.0<br/>samples = 14<br/>value = [14, 0]>, fillcolor="#e58139"] ;
62 -> 63 ;
64 [label=<blood_glucose_level &le; 128.0<br/>gini = 0.375<br/>samples = 4<br/>value = [3, 1]>, fillcolor="#eeab7b"] ;
62 -> 64 ;
65 [label=<gini = 0.0<br/>samples = 2<br/>value = [2, 0]>, fillcolor="#e58139"] ;
64 -> 65 ;
66 [label=<bmi &le; 23.65<br/>gini = 0.5<br/>samples = 2<br/>value = [1, 1]>, fillcolor="#ffffff"] ;
64 -> 66 ;
67 [label=<gini = 0.0<br/>samples = 1<br/>value = [0, 1]>, fillcolor="#399de5"] ;
66 -> 67 ;
68 [label=<gini = 0.0<br/>samples = 1<br/>value = [1, 0]>, fillcolor="#e58139"] ;
66 -> 68 ;
69 [label=<gini = 0.0<br/>samples = 1<br/>value = [0, 1]>, fillcolor="#399de5"] ;
61 -> 69 ;
70 [label=<gini = 0.0<br/>samples = 13<br/>value = [13, 0]>, fillcolor="#e58139"] ;
60 -> 70 ;
71 [label=<gini = 0.0<br/>samples = 82<br/>value = [82, 0]>, fillcolor="#e58139"] ;
55 -> 71 ;
72 [label=<age &le; 25.5<br/>gini = 0.105<br/>samples = 18<br/>value = [17, 1]>, fillcolor="#e78845"] ;
44 -> 72 ;
73 [label=<gini = 0.0<br/>samples = 14<br/>value = [14, 0]>, fillcolor="#e58139"] ;
72 -> 73 ;
74 [label=<HbA1c_level &le; 5.9<br/>gini = 0.375<br/>samples = 4<br/>value = [3, 1]>, fillcolor="#eeab7b"] ;
72 -> 74 ;
75 [label=<Female &le; 0.5<br/>gini = 0.5<br/>samples = 2<br/>value = [1, 1]>, fillcolor="#ffffff"] ;
74 -> 75 ;
76 [label=<gini = 0.0<br/>samples = 1<br/>value = [0, 1]>, fillcolor="#399de5"] ;
75 -> 76 ;
77 [label=<gini = 0.0<br/>samples = 1<br/>value = [1, 0]>, fillcolor="#e58139"] ;
75 -> 77 ;
78 [label=<gini = 0.0<br/>samples = 2<br/>value = [2, 0]>, fillcolor="#e58139"] ;
74 -> 78 ;
79 [label=<age &le; 12.5<br/>gini = 0.004<br/>samples = 1505<br/>value = [1502.0, 3.0]>, fillcolor="#e58139"] ;
43 -> 79 ;
80 [label=<blood_glucose_level &le; 142.5<br/>gini = 0.028<br/>samples = 71<br/>value = [70, 1]>, fillcolor="#e5833c"] ;
79 -> 80 ;
81 [label=<bmi &le; 20.275<br/>gini = 0.124<br/>samples = 15<br/>value = [14, 1]>, fillcolor="#e78a47"] ;
80 -> 81 ;
82 [label=<bmi &le; 19.395<br/>gini = 0.32<br/>samples = 5<br/>value = [4, 1]>, fillcolor="#eca06a"] ;
81 -> 82 ;
83 [label=<gini = 0.0<br/>samples = 4<br/>value = [4, 0]>, fillcolor="#e58139"] ;
82 -> 83 ;
84 [label=<gini = 0.0<br/>samples = 1<br/>value = [0, 1]>, fillcolor="#399de5"] ;
82 -> 84 ;
85 [label=<gini = 0.0<br/>samples = 10<br/>value = [10, 0]>, fillcolor="#e58139"] ;
81 -> 85 ;
86 [label=<gini = 0.0<br/>samples = 56<br/>value = [56, 0]>, fillcolor="#e58139"] ;
80 -> 86 ;
87 [label=<bmi &le; 24.45<br/>gini = 0.003<br/>samples = 1434<br/>value = [1432, 2]>, fillcolor="#e58139"] ;
79 -> 87 ;
88 [label=<gini = 0.0<br/>samples = 579<br/>value = [579, 0]>, fillcolor="#e58139"] ;
87 -> 88 ;
89 [label=<bmi &le; 24.48<br/>gini = 0.005<br/>samples = 855<br/>value = [853, 2]>, fillcolor="#e58139"] ;
87 -> 89 ;
90 [label=<former &le; 0.5<br/>gini = 0.5<br/>samples = 2<br/>value = [1, 1]>, fillcolor="#ffffff"] ;
89 -> 90 ;
91 [label=<gini = 0.0<br/>samples = 1<br/>value = [0, 1]>, fillcolor="#399de5"] ;
90 -> 91 ;
92 [label=<gini = 0.0<br/>samples = 1<br/>value = [1, 0]>, fillcolor="#e58139"] ;
90 -> 92 ;
93 [label=<HbA1c_level &le; 5.75<br/>gini = 0.002<br/>samples = 853<br/>value = [852.0, 1.0]>, fillcolor="#e58139"] ;
89 -> 93 ;
94 [label=<blood_glucose_level &le; 150.0<br/>gini = 0.01<br/>samples = 200<br/>value = [199, 1]>, fillcolor="#e5823a"] ;
93 -> 94 ;
95 [label=<age &le; 22.5<br/>gini = 0.027<br/>samples = 73<br/>value = [72, 1]>, fillcolor="#e5833c"] ;
94 -> 95 ;
96 [label=<gini = 0.0<br/>samples = 42<br/>value = [42, 0]>, fillcolor="#e58139"] ;
95 -> 96 ;
97 [label=<age &le; 23.5<br/>gini = 0.062<br/>samples = 31<br/>value = [30, 1]>, fillcolor="#e68540"] ;
95 -> 97 ;
98 [label=<blood_glucose_level &le; 142.5<br/>gini = 0.32<br/>samples = 5<br/>value = [4, 1]>, fillcolor="#eca06a"] ;
97 -> 98 ;
99 [label=<gini = 0.0<br/>samples = 3<br/>value = [3, 0]>, fillcolor="#e58139"] ;
98 -> 99 ;
100 [label=<Female &le; 0.5<br/>gini = 0.5<br/>samples = 2<br/>value = [1, 1]>, fillcolor="#ffffff"] ;
98 -> 100 ;
101 [label=<gini = 0.0<br/>samples = 1<br/>value = [0, 1]>, fillcolor="#399de5"] ;
100 -> 101 ;
102 [label=<gini = 0.0<br/>samples = 1<br/>value = [1, 0]>, fillcolor="#e58139"] ;
100 -> 102 ;
103 [label=<gini = 0.0<br/>samples = 26<br/>value = [26, 0]>, fillcolor="#e58139"] ;
97 -> 103 ;
104 [label=<gini = 0.0<br/>samples = 127<br/>value = [127, 0]>, fillcolor="#e58139"] ;
94 -> 104 ;
105 [label=<gini = 0.0<br/>samples = 653<br/>value = [653, 0]>, fillcolor="#e58139"] ;
93 -> 105 ;
106 [label=<age &le; 16.5<br/>gini = 0.023<br/>samples = 605<br/>value = [598, 7]>, fillcolor="#e5823b"] ;
42 -> 106 ;
107 [label=<age &le; 15.5<br/>gini = 0.051<br/>samples = 154<br/>value = [150, 4]>, fillcolor="#e6843e"] ;
106 -> 107 ;
108 [label=<bmi &le; 27.25<br/>gini = 0.017<br/>samples = 115<br/>value = [114, 1]>, fillcolor="#e5823b"] ;
107 -> 108 ;
109 [label=<gini = 0.0<br/>samples = 78<br/>value = [78, 0]>, fillcolor="#e58139"] ;
108 -> 109 ;
110 [label=<HbA1c_level &le; 5.9<br/>gini = 0.053<br/>samples = 37<br/>value = [36, 1]>, fillcolor="#e6843e"] ;
108 -> 110 ;
111 [label=<HbA1c_level &le; 5.75<br/>gini = 0.124<br/>samples = 15<br/>value = [14, 1]>, fillcolor="#e78a47"] ;
110 -> 111 ;
112 [label=<gini = 0.0<br/>samples = 7<br/>value = [7, 0]>, fillcolor="#e58139"] ;
111 -> 112 ;
113 [label=<blood_glucose_level &le; 180.0<br/>gini = 0.219<br/>samples = 8<br/>value = [7, 1]>, fillcolor="#e99355"] ;
111 -> 113 ;
114 [label=<age &le; 13.5<br/>gini = 0.32<br/>samples = 5<br/>value = [4, 1]>, fillcolor="#eca06a"] ;
113 -> 114 ;
115 [label=<gini = 0.0<br/>samples = 2<br/>value = [2, 0]>, fillcolor="#e58139"] ;
114 -> 115 ;
116 [label=<Female &le; 0.5<br/>gini = 0.444<br/>samples = 3<br/>value = [2, 1]>, fillcolor="#f2c09c"] ;
114 -> 116 ;
117 [label=<gini = 0.0<br/>samples = 1<br/>value = [1, 0]>, fillcolor="#e58139"] ;
116 -> 117 ;
118 [label=<gini = 0.5<br/>samples = 2<br/>value = [1, 1]>, fillcolor="#ffffff"] ;
116 -> 118 ;
119 [label=<gini = 0.0<br/>samples = 3<br/>value = [3, 0]>, fillcolor="#e58139"] ;
113 -> 119 ;
120 [label=<gini = 0.0<br/>samples = 22<br/>value = [22, 0]>, fillcolor="#e58139"] ;
110 -> 120 ;
121 [label=<bmi &le; 23.61<br/>gini = 0.142<br/>samples = 39<br/>value = [36, 3]>, fillcolor="#e78c49"] ;
107 -> 121 ;
122 [label=<bmi &le; 21.195<br/>gini = 0.255<br/>samples = 20<br/>value = [17, 3]>, fillcolor="#ea975c"] ;
121 -> 122 ;
123 [label=<gini = 0.0<br/>samples = 14<br/>value = [14, 0]>, fillcolor="#e58139"] ;
122 -> 123 ;
124 [label=<bmi &le; 21.665<br/>gini = 0.5<br/>samples = 6<br/>value = [3, 3]>, fillcolor="#ffffff"] ;
122 -> 124 ;
125 [label=<gini = 0.0<br/>samples = 2<br/>value = [0, 2]>, fillcolor="#399de5"] ;
124 -> 125 ;
126 [label=<bmi &le; 23.06<br/>gini = 0.375<br/>samples = 4<br/>value = [3, 1]>, fillcolor="#eeab7b"] ;
124 -> 126 ;
127 [label=<gini = 0.0<br/>samples = 3<br/>value = [3, 0]>, fillcolor="#e58139"] ;
126 -> 127 ;
128 [label=<gini = 0.0<br/>samples = 1<br/>value = [0, 1]>, fillcolor="#399de5"] ;
126 -> 128 ;
129 [label=<gini = 0.0<br/>samples = 19<br/>value = [19, 0]>, fillcolor="#e58139"] ;
121 -> 129 ;
130 [label=<bmi &le; 26.59<br/>gini = 0.013<br/>samples = 451<br/>value = [448, 3]>, fillcolor="#e5823a"] ;
106 -> 130 ;
131 [label=<gini = 0.0<br/>samples = 200<br/>value = [200, 0]>, fillcolor="#e58139"] ;
130 -> 131 ;
132 [label=<bmi &le; 26.67<br/>gini = 0.024<br/>samples = 251<br/>value = [248, 3]>, fillcolor="#e5833b"] ;
130 -> 132 ;
133 [label=<age &le; 23.0<br/>gini = 0.5<br/>samples = 2<br/>value = [1, 1]>, fillcolor="#ffffff"] ;
132 -> 133 ;
134 [label=<gini = 0.0<br/>samples = 1<br/>value = [1, 0]>, fillcolor="#e58139"] ;
133 -> 134 ;
135 [label=<gini = 0.0<br/>samples = 1<br/>value = [0, 1]>, fillcolor="#399de5"] ;
133 -> 135 ;
136 [label=<current &le; 0.5<br/>gini = 0.016<br/>samples = 249<br/>value = [247.0, 2.0]>, fillcolor="#e5823b"] ;
132 -> 136 ;
137 [label=<bmi &le; 28.585<br/>gini = 0.009<br/>samples = 219<br/>value = [218, 1]>, fillcolor="#e5823a"] ;
136 -> 137 ;
138 [label=<gini = 0.0<br/>samples = 158<br/>value = [158, 0]>, fillcolor="#e58139"] ;
137 -> 138 ;
139 [label=<bmi &le; 28.61<br/>gini = 0.032<br/>samples = 61<br/>value = [60, 1]>, fillcolor="#e5833c"] ;
137 -> 139 ;
140 [label=<gini = 0.0<br/>samples = 1<br/>value = [0, 1]>, fillcolor="#399de5"] ;
139 -> 140 ;
141 [label=<gini = 0.0<br/>samples = 60<br/>value = [60, 0]>, fillcolor="#e58139"] ;
139 -> 141 ;
142 [label=<HbA1c_level &le; 5.9<br/>gini = 0.064<br/>samples = 30<br/>value = [29, 1]>, fillcolor="#e68540"] ;
136 -> 142 ;
143 [label=<gini = 0.0<br/>samples = 17<br/>value = [17, 0]>, fillcolor="#e58139"] ;
142 -> 143 ;
144 [label=<HbA1c_level &le; 6.05<br/>gini = 0.142<br/>samples = 13<br/>value = [12, 1]>, fillcolor="#e78c49"] ;
142 -> 144 ;
145 [label=<blood_glucose_level &le; 180.0<br/>gini = 0.444<br/>samples = 3<br/>value = [2, 1]>, fillcolor="#f2c09c"] ;
144 -> 145 ;
146 [label=<gini = 0.0<br/>samples = 1<br/>value = [0, 1]>, fillcolor="#399de5"] ;
145 -> 146 ;
147 [label=<gini = 0.0<br/>samples = 2<br/>value = [2, 0]>, fillcolor="#e58139"] ;
145 -> 147 ;
148 [label=<gini = 0.0<br/>samples = 10<br/>value = [10, 0]>, fillcolor="#e58139"] ;
144 -> 148 ;
149 [label=<blood_glucose_level &le; 150.0<br/>gini = 0.023<br/>samples = 2082<br/>value = [2058, 24]>, fillcolor="#e5823b"] ;
41 -> 149 ;
150 [label=<bmi &le; 29.945<br/>gini = 0.031<br/>samples = 939<br/>value = [924, 15]>, fillcolor="#e5833c"] ;
149 -> 150 ;
151 [label=<bmi &le; 24.28<br/>gini = 0.026<br/>samples = 821<br/>value = [810, 11]>, fillcolor="#e5833c"] ;
150 -> 151 ;
152 [label=<bmi &le; 24.25<br/>gini = 0.041<br/>samples = 384<br/>value = [376, 8]>, fillcolor="#e6843d"] ;
151 -> 152 ;
153 [label=<bmi &le; 21.78<br/>gini = 0.036<br/>samples = 380<br/>value = [373.0, 7.0]>, fillcolor="#e5833d"] ;
152 -> 153 ;
154 [label=<bmi &le; 17.345<br/>gini = 0.018<br/>samples = 223<br/>value = [221, 2]>, fillcolor="#e5823b"] ;
153 -> 154 ;
155 [label=<bmi &le; 17.31<br/>gini = 0.074<br/>samples = 26<br/>value = [25, 1]>, fillcolor="#e68641"] ;
154 -> 155 ;
156 [label=<gini = 0.0<br/>samples = 25<br/>value = [25, 0]>, fillcolor="#e58139"] ;
155 -> 156 ;
157 [label=<gini = 0.0<br/>samples = 1<br/>value = [0, 1]>, fillcolor="#399de5"] ;
155 -> 157 ;
158 [label=<age &le; 23.5<br/>gini = 0.01<br/>samples = 197<br/>value = [196.0, 1.0]>, fillcolor="#e5823a"] ;
154 -> 158 ;
159 [label=<gini = 0.0<br/>samples = 163<br/>value = [163, 0]>, fillcolor="#e58139"] ;
158 -> 159 ;
160 [label=<blood_glucose_level &le; 142.5<br/>gini = 0.057<br/>samples = 34<br/>value = [33, 1]>, fillcolor="#e6853f"] ;
158 -> 160 ;
161 [label=<gini = 0.0<br/>samples = 27<br/>value = [27, 0]>, fillcolor="#e58139"] ;
160 -> 161 ;
162 [label=<Female &le; 0.5<br/>gini = 0.245<br/>samples = 7<br/>value = [6, 1]>, fillcolor="#e9965a"] ;
160 -> 162 ;
163 [label=<bmi &le; 21.065<br/>gini = 0.5<br/>samples = 2<br/>value = [1, 1]>, fillcolor="#ffffff"] ;
162 -> 163 ;
164 [label=<gini = 0.0<br/>samples = 1<br/>value = [0, 1]>, fillcolor="#399de5"] ;
163 -> 164 ;
165 [label=<gini = 0.0<br/>samples = 1<br/>value = [1, 0]>, fillcolor="#e58139"] ;
163 -> 165 ;
166 [label=<gini = 0.0<br/>samples = 5<br/>value = [5, 0]>, fillcolor="#e58139"] ;
162 -> 166 ;
167 [label=<bmi &le; 21.795<br/>gini = 0.062<br/>samples = 157<br/>value = [152, 5]>, fillcolor="#e68540"] ;
153 -> 167 ;
168 [label=<blood_glucose_level &le; 133.0<br/>gini = 0.444<br/>samples = 3<br/>value = [2, 1]>, fillcolor="#f2c09c"] ;
167 -> 168 ;
169 [label=<gini = 0.0<br/>samples = 1<br/>value = [0, 1]>, fillcolor="#399de5"] ;
168 -> 169 ;
170 [label=<gini = 0.0<br/>samples = 2<br/>value = [2, 0]>, fillcolor="#e58139"] ;
168 -> 170 ;
171 [label=<bmi &le; 22.465<br/>gini = 0.051<br/>samples = 154<br/>value = [150, 4]>, fillcolor="#e6843e"] ;
167 -> 171 ;
172 [label=<bmi &le; 22.445<br/>gini = 0.133<br/>samples = 42<br/>value = [39, 3]>, fillcolor="#e78b48"] ;
171 -> 172 ;
173 [label=<age &le; 18.5<br/>gini = 0.095<br/>samples = 40<br/>value = [38, 2]>, fillcolor="#e68843"] ;
172 -> 173 ;
174 [label=<gini = 0.0<br/>samples = 15<br/>value = [15, 0]>, fillcolor="#e58139"] ;
173 -> 174 ;
175 [label=<age &le; 19.5<br/>gini = 0.147<br/>samples = 25<br/>value = [23, 2]>, fillcolor="#e78c4a"] ;
173 -> 175 ;
176 [label=<bmi &le; 22.22<br/>gini = 0.444<br/>samples = 3<br/>value = [2, 1]>, fillcolor="#f2c09c"] ;
175 -> 176 ;
177 [label=<gini = 0.0<br/>samples = 1<br/>value = [0, 1]>, fillcolor="#399de5"] ;
176 -> 177 ;
178 [label=<gini = 0.0<br/>samples = 2<br/>value = [2, 0]>, fillcolor="#e58139"] ;
176 -> 178 ;
179 [label=<HbA1c_level &le; 6.35<br/>gini = 0.087<br/>samples = 22<br/>value = [21, 1]>, fillcolor="#e68742"] ;
175 -> 179 ;
180 [label=<blood_glucose_level &le; 137.5<br/>gini = 0.198<br/>samples = 9<br/>value = [8, 1]>, fillcolor="#e89152"] ;
179 -> 180 ;
181 [label=<age &le; 23.5<br/>gini = 0.375<br/>samples = 4<br/>value = [3, 1]>, fillcolor="#eeab7b"] ;
180 -> 181 ;
182 [label=<gini = 0.0<br/>samples = 1<br/>value = [0, 1]>, fillcolor="#399de5"] ;
181 -> 182 ;
183 [label=<gini = 0.0<br/>samples = 3<br/>value = [3, 0]>, fillcolor="#e58139"] ;
181 -> 183 ;
184 [label=<gini = 0.0<br/>samples = 5<br/>value = [5, 0]>, fillcolor="#e58139"] ;
180 -> 184 ;
185 [label=<gini = 0.0<br/>samples = 13<br/>value = [13, 0]>, fillcolor="#e58139"] ;
179 -> 185 ;
186 [label=<Female &le; 0.5<br/>gini = 0.5<br/>samples = 2<br/>value = [1, 1]>, fillcolor="#ffffff"] ;
172 -> 186 ;
187 [label=<gini = 0.0<br/>samples = 1<br/>value = [0, 1]>, fillcolor="#399de5"] ;
186 -> 187 ;
188 [label=<gini = 0.0<br/>samples = 1<br/>value = [1, 0]>, fillcolor="#e58139"] ;
186 -> 188 ;
189 [label=<HbA1c_level &le; 6.55<br/>gini = 0.018<br/>samples = 112<br/>value = [111, 1]>, fillcolor="#e5823b"] ;
171 -> 189 ;
190 [label=<gini = 0.0<br/>samples = 84<br/>value = [84, 0]>, fillcolor="#e58139"] ;
189 -> 190 ;
191 [label=<blood_glucose_level &le; 128.0<br/>gini = 0.069<br/>samples = 28<br/>value = [27, 1]>, fillcolor="#e68640"] ;
189 -> 191 ;
192 [label=<bmi &le; 23.465<br/>gini = 0.219<br/>samples = 8<br/>value = [7, 1]>, fillcolor="#e99355"] ;
191 -> 192 ;
193 [label=<gini = 0.0<br/>samples = 6<br/>value = [6, 0]>, fillcolor="#e58139"] ;
192 -> 193 ;
194 [label=<age &le; 21.5<br/>gini = 0.5<br/>samples = 2<br/>value = [1, 1]>, fillcolor="#ffffff"] ;
192 -> 194 ;
195 [label=<gini = 0.0<br/>samples = 1<br/>value = [0, 1]>, fillcolor="#399de5"] ;
194 -> 195 ;
196 [label=<gini = 0.0<br/>samples = 1<br/>value = [1, 0]>, fillcolor="#e58139"] ;
194 -> 196 ;
197 [label=<gini = 0.0<br/>samples = 20<br/>value = [20, 0]>, fillcolor="#e58139"] ;
191 -> 197 ;
198 [label=<blood_glucose_level &le; 137.5<br/>gini = 0.375<br/>samples = 4<br/>value = [3, 1]>, fillcolor="#eeab7b"] ;
152 -> 198 ;
199 [label=<gini = 0.0<br/>samples = 3<br/>value = [3, 0]>, fillcolor="#e58139"] ;
198 -> 199 ;
200 [label=<gini = 0.0<br/>samples = 1<br/>value = [0, 1]>, fillcolor="#399de5"] ;
198 -> 200 ;
201 [label=<HbA1c_level &le; 6.55<br/>gini = 0.014<br/>samples = 437<br/>value = [434, 3]>, fillcolor="#e5823a"] ;
151 -> 201 ;
202 [label=<gini = 0.0<br/>samples = 286<br/>value = [286, 0]>, fillcolor="#e58139"] ;
201 -> 202 ;
203 [label=<age &le; 26.5<br/>gini = 0.039<br/>samples = 151<br/>value = [148, 3]>, fillcolor="#e6843d"] ;
201 -> 203 ;
204 [label=<age &le; 18.5<br/>gini = 0.028<br/>samples = 141<br/>value = [139, 2]>, fillcolor="#e5833c"] ;
203 -> 204 ;
205 [label=<gini = 0.0<br/>samples = 58<br/>value = [58, 0]>, fillcolor="#e58139"] ;
204 -> 205 ;
206 [label=<age &le; 19.5<br/>gini = 0.047<br/>samples = 83<br/>value = [81, 2]>, fillcolor="#e6843e"] ;
204 -> 206 ;
207 [label=<blood_glucose_level &le; 128.0<br/>gini = 0.278<br/>samples = 6<br/>value = [5, 1]>, fillcolor="#ea9a61"] ;
206 -> 207 ;
208 [label=<gini = 0.5<br/>samples = 2<br/>value = [1, 1]>, fillcolor="#ffffff"] ;
207 -> 208 ;
209 [label=<gini = 0.0<br/>samples = 4<br/>value = [4, 0]>, fillcolor="#e58139"] ;
207 -> 209 ;
210 [label=<age &le; 23.5<br/>gini = 0.026<br/>samples = 77<br/>value = [76, 1]>, fillcolor="#e5833c"] ;
206 -> 210 ;
211 [label=<gini = 0.0<br/>samples = 48<br/>value = [48, 0]>, fillcolor="#e58139"] ;
210 -> 211 ;
212 [label=<age &le; 24.5<br/>gini = 0.067<br/>samples = 29<br/>value = [28, 1]>, fillcolor="#e68640"] ;
210 -> 212 ;
213 [label=<blood_glucose_level &le; 135.0<br/>gini = 0.198<br/>samples = 9<br/>value = [8, 1]>, fillcolor="#e89152"] ;
212 -> 213 ;
214 [label=<gini = 0.0<br/>samples = 6<br/>value = [6, 0]>, fillcolor="#e58139"] ;
213 -> 214 ;
215 [label=<blood_glucose_level &le; 142.5<br/>gini = 0.444<br/>samples = 3<br/>value = [2, 1]>, fillcolor="#f2c09c"] ;
213 -> 215 ;
216 [label=<gini = 0.0<br/>samples = 1<br/>value = [0, 1]>, fillcolor="#399de5"] ;
215 -> 216 ;
217 [label=<gini = 0.0<br/>samples = 2<br/>value = [2, 0]>, fillcolor="#e58139"] ;
215 -> 217 ;
218 [label=<gini = 0.0<br/>samples = 20<br/>value = [20, 0]>, fillcolor="#e58139"] ;
212 -> 218 ;
219 [label=<blood_glucose_level &le; 142.5<br/>gini = 0.18<br/>samples = 10<br/>value = [9, 1]>, fillcolor="#e88f4f"] ;
203 -> 219 ;
220 [label=<gini = 0.0<br/>samples = 8<br/>value = [8, 0]>, fillcolor="#e58139"] ;
219 -> 220 ;
221 [label=<bmi &le; 25.985<br/>gini = 0.5<br/>samples = 2<br/>value = [1, 1]>, fillcolor="#ffffff"] ;
219 -> 221 ;
222 [label=<gini = 0.0<br/>samples = 1<br/>value = [1, 0]>, fillcolor="#e58139"] ;
221 -> 222 ;
223 [label=<gini = 0.0<br/>samples = 1<br/>value = [0, 1]>, fillcolor="#399de5"] ;
221 -> 223 ;
224 [label=<bmi &le; 29.965<br/>gini = 0.065<br/>samples = 118<br/>value = [114, 4]>, fillcolor="#e68540"] ;
150 -> 224 ;
225 [label=<gini = 0.0<br/>samples = 1<br/>value = [0, 1]>, fillcolor="#399de5"] ;
224 -> 225 ;
226 [label=<HbA1c_level &le; 6.35<br/>gini = 0.05<br/>samples = 117<br/>value = [114, 3]>, fillcolor="#e6843e"] ;
224 -> 226 ;
227 [label=<age &le; 21.5<br/>gini = 0.145<br/>samples = 38<br/>value = [35, 3]>, fillcolor="#e78c4a"] ;
226 -> 227 ;
228 [label=<gini = 0.0<br/>samples = 16<br/>value = [16, 0]>, fillcolor="#e58139"] ;
227 -> 228 ;
229 [label=<Female &le; 0.5<br/>gini = 0.236<br/>samples = 22<br/>value = [19, 3]>, fillcolor="#e99558"] ;
227 -> 229 ;
230 [label=<age &le; 24.0<br/>gini = 0.5<br/>samples = 4<br/>value = [2, 2]>, fillcolor="#ffffff"] ;
229 -> 230 ;
231 [label=<gini = 0.0<br/>samples = 2<br/>value = [0, 2]>, fillcolor="#399de5"] ;
230 -> 231 ;
232 [label=<gini = 0.0<br/>samples = 2<br/>value = [2, 0]>, fillcolor="#e58139"] ;
230 -> 232 ;
233 [label=<age &le; 26.5<br/>gini = 0.105<br/>samples = 18<br/>value = [17, 1]>, fillcolor="#e78845"] ;
229 -> 233 ;
234 [label=<gini = 0.0<br/>samples = 14<br/>value = [14, 0]>, fillcolor="#e58139"] ;
233 -> 234 ;
235 [label=<blood_glucose_level &le; 135.0<br/>gini = 0.375<br/>samples = 4<br/>value = [3, 1]>, fillcolor="#eeab7b"] ;
233 -> 235 ;
236 [label=<bmi &le; 36.115<br/>gini = 0.5<br/>samples = 2<br/>value = [1, 1]>, fillcolor="#ffffff"] ;
235 -> 236 ;
237 [label=<gini = 0.0<br/>samples = 1<br/>value = [0, 1]>, fillcolor="#399de5"] ;
236 -> 237 ;
238 [label=<gini = 0.0<br/>samples = 1<br/>value = [1, 0]>, fillcolor="#e58139"] ;
236 -> 238 ;
239 [label=<gini = 0.0<br/>samples = 2<br/>value = [2, 0]>, fillcolor="#e58139"] ;
235 -> 239 ;
240 [label=<gini = 0.0<br/>samples = 79<br/>value = [79, 0]>, fillcolor="#e58139"] ;
226 -> 240 ;
241 [label=<blood_glucose_level &le; 158.5<br/>gini = 0.016<br/>samples = 1143<br/>value = [1134, 9]>, fillcolor="#e5823b"] ;
149 -> 241 ;
242 [label=<gini = 0.0<br/>samples = 437<br/>value = [437, 0]>, fillcolor="#e58139"] ;
241 -> 242 ;
243 [label=<age &le; 18.5<br/>gini = 0.025<br/>samples = 706<br/>value = [697, 9]>, fillcolor="#e5833c"] ;
241 -> 243 ;
244 [label=<bmi &le; 21.125<br/>gini = 0.047<br/>samples = 289<br/>value = [282, 7]>, fillcolor="#e6843e"] ;
243 -> 244 ;
245 [label=<gini = 0.0<br/>samples = 97<br/>value = [97, 0]>, fillcolor="#e58139"] ;
244 -> 245 ;
246 [label=<bmi &le; 21.16<br/>gini = 0.07<br/>samples = 192<br/>value = [185, 7]>, fillcolor="#e68640"] ;
244 -> 246 ;
247 [label=<HbA1c_level &le; 6.35<br/>gini = 0.5<br/>samples = 2<br/>value = [1, 1]>, fillcolor="#ffffff"] ;
246 -> 247 ;
248 [label=<gini = 0.0<br/>samples = 1<br/>value = [1, 0]>, fillcolor="#e58139"] ;
247 -> 248 ;
249 [label=<gini = 0.0<br/>samples = 1<br/>value = [0, 1]>, fillcolor="#399de5"] ;
247 -> 249 ;
250 [label=<bmi &le; 22.775<br/>gini = 0.061<br/>samples = 190<br/>value = [184, 6]>, fillcolor="#e6853f"] ;
246 -> 250 ;
251 [label=<bmi &le; 22.605<br/>gini = 0.157<br/>samples = 35<br/>value = [32, 3]>, fillcolor="#e78d4c"] ;
250 -> 251 ;
252 [label=<blood_glucose_level &le; 159.5<br/>gini = 0.061<br/>samples = 32<br/>value = [31, 1]>, fillcolor="#e6853f"] ;
251 -> 252 ;
253 [label=<HbA1c_level &le; 6.55<br/>gini = 0.245<br/>samples = 7<br/>value = [6, 1]>, fillcolor="#e9965a"] ;
252 -> 253 ;
254 [label=<gini = 0.0<br/>samples = 6<br/>value = [6, 0]>, fillcolor="#e58139"] ;
253 -> 254 ;
255 [label=<gini = 0.0<br/>samples = 1<br/>value = [0, 1]>, fillcolor="#399de5"] ;
253 -> 255 ;
256 [label=<gini = 0.0<br/>samples = 25<br/>value = [25, 0]>, fillcolor="#e58139"] ;
252 -> 256 ;
257 [label=<age &le; 14.5<br/>gini = 0.444<br/>samples = 3<br/>value = [1, 2]>, fillcolor="#9ccef2"] ;
251 -> 257 ;
258 [label=<gini = 0.0<br/>samples = 1<br/>value = [1, 0]>, fillcolor="#e58139"] ;
257 -> 258 ;
259 [label=<gini = 0.0<br/>samples = 2<br/>value = [0, 2]>, fillcolor="#399de5"] ;
257 -> 259 ;
260 [label=<bmi &le; 27.46<br/>gini = 0.038<br/>samples = 155<br/>value = [152, 3]>, fillcolor="#e6833d"] ;
250 -> 260 ;
261 [label=<bmi &le; 24.265<br/>gini = 0.017<br/>samples = 119<br/>value = [118, 1]>, fillcolor="#e5823b"] ;
260 -> 261 ;
262 [label=<bmi &le; 24.195<br/>gini = 0.08<br/>samples = 24<br/>value = [23, 1]>, fillcolor="#e68642"] ;
261 -> 262 ;
263 [label=<gini = 0.0<br/>samples = 22<br/>value = [22, 0]>, fillcolor="#e58139"] ;
262 -> 263 ;
264 [label=<age &le; 16.0<br/>gini = 0.5<br/>samples = 2<br/>value = [1, 1]>, fillcolor="#ffffff"] ;
262 -> 264 ;
265 [label=<gini = 0.0<br/>samples = 1<br/>value = [0, 1]>, fillcolor="#399de5"] ;
264 -> 265 ;
266 [label=<gini = 0.0<br/>samples = 1<br/>value = [1, 0]>, fillcolor="#e58139"] ;
264 -> 266 ;
267 [label=<gini = 0.0<br/>samples = 95<br/>value = [95, 0]>, fillcolor="#e58139"] ;
261 -> 267 ;
268 [label=<bmi &le; 27.6<br/>gini = 0.105<br/>samples = 36<br/>value = [34, 2]>, fillcolor="#e78845"] ;
260 -> 268 ;
269 [label=<gini = 0.0<br/>samples = 1<br/>value = [0, 1]>, fillcolor="#399de5"] ;
268 -> 269 ;
270 [label=<bmi &le; 28.605<br/>gini = 0.056<br/>samples = 35<br/>value = [34, 1]>, fillcolor="#e6853f"] ;
268 -> 270 ;
271 [label=<age &le; 17.5<br/>gini = 0.245<br/>samples = 7<br/>value = [6, 1]>, fillcolor="#e9965a"] ;
270 -> 271 ;
272 [label=<gini = 0.0<br/>samples = 6<br/>value = [6, 0]>, fillcolor="#e58139"] ;
271 -> 272 ;
273 [label=<gini = 0.0<br/>samples = 1<br/>value = [0, 1]>, fillcolor="#399de5"] ;
271 -> 273 ;
274 [label=<gini = 0.0<br/>samples = 28<br/>value = [28, 0]>, fillcolor="#e58139"] ;
270 -> 274 ;
275 [label=<age &le; 25.5<br/>gini = 0.01<br/>samples = 417<br/>value = [415.0, 2.0]>, fillcolor="#e5823a"] ;
243 -> 275 ;
276 [label=<gini = 0.0<br/>samples = 324<br/>value = [324, 0]>, fillcolor="#e58139"] ;
275 -> 276 ;
277 [label=<bmi &le; 31.445<br/>gini = 0.042<br/>samples = 93<br/>value = [91, 2]>, fillcolor="#e6843d"] ;
275 -> 277 ;
278 [label=<Female &le; 0.5<br/>gini = 0.024<br/>samples = 81<br/>value = [80, 1]>, fillcolor="#e5833b"] ;
277 -> 278 ;
279 [label=<HbA1c_level &le; 6.55<br/>gini = 0.064<br/>samples = 30<br/>value = [29, 1]>, fillcolor="#e68540"] ;
278 -> 279 ;
280 [label=<gini = 0.0<br/>samples = 22<br/>value = [22, 0]>, fillcolor="#e58139"] ;
279 -> 280 ;
281 [label=<bmi &le; 26.07<br/>gini = 0.219<br/>samples = 8<br/>value = [7, 1]>, fillcolor="#e99355"] ;
279 -> 281 ;
282 [label=<gini = 0.0<br/>samples = 4<br/>value = [4, 0]>, fillcolor="#e58139"] ;
281 -> 282 ;
283 [label=<bmi &le; 27.41<br/>gini = 0.375<br/>samples = 4<br/>value = [3, 1]>, fillcolor="#eeab7b"] ;
281 -> 283 ;
284 [label=<blood_glucose_level &le; 180.0<br/>gini = 0.444<br/>samples = 3<br/>value = [2, 1]>, fillcolor="#f2c09c"] ;
283 -> 284 ;
285 [label=<gini = 0.5<br/>samples = 2<br/>value = [1, 1]>, fillcolor="#ffffff"] ;
284 -> 285 ;
286 [label=<gini = 0.0<br/>samples = 1<br/>value = [1, 0]>, fillcolor="#e58139"] ;
284 -> 286 ;
287 [label=<gini = 0.0<br/>samples = 1<br/>value = [1, 0]>, fillcolor="#e58139"] ;
283 -> 287 ;
288 [label=<gini = 0.0<br/>samples = 51<br/>value = [51, 0]>, fillcolor="#e58139"] ;
278 -> 288 ;
289 [label=<bmi &le; 31.615<br/>gini = 0.153<br/>samples = 12<br/>value = [11, 1]>, fillcolor="#e78c4b"] ;
277 -> 289 ;
290 [label=<gini = 0.0<br/>samples = 1<br/>value = [0, 1]>, fillcolor="#399de5"] ;
289 -> 290 ;
291 [label=<gini = 0.0<br/>samples = 11<br/>value = [11, 0]>, fillcolor="#e58139"] ;
289 -> 291 ;
292 [label=<bmi &le; 32.21<br/>gini = 0.039<br/>samples = 3511<br/>value = [3442, 69]>, fillcolor="#e6843d"] ;
10 -> 292 ;
293 [label=<blood_glucose_level &le; 142.5<br/>gini = 0.029<br/>samples = 3043<br/>value = [2998, 45]>, fillcolor="#e5833c"] ;
292 -> 293 ;
294 [label=<age &le; 29.5<br/>gini = 0.047<br/>samples = 1005<br/>value = [981, 24]>, fillcolor="#e6843e"] ;
293 -> 294 ;
295 [label=<HbA1c_level &le; 6.35<br/>gini = 0.124<br/>samples = 196<br/>value = [183, 13]>, fillcolor="#e78a47"] ;
294 -> 295 ;
296 [label=<bmi &le; 28.16<br/>gini = 0.172<br/>samples = 137<br/>value = [124, 13]>, fillcolor="#e88e4e"] ;
295 -> 296 ;
297 [label=<bmi &le; 28.045<br/>gini = 0.202<br/>samples = 114<br/>value = [101, 13]>, fillcolor="#e89152"] ;
296 -> 297 ;
298 [label=<HbA1c_level &le; 5.9<br/>gini = 0.19<br/>samples = 113<br/>value = [101, 12]>, fillcolor="#e89051"] ;
297 -> 298 ;
299 [label=<blood_glucose_level &le; 128.0<br/>gini = 0.057<br/>samples = 34<br/>value = [33, 1]>, fillcolor="#e6853f"] ;
298 -> 299 ;
300 [label=<age &le; 28.5<br/>gini = 0.198<br/>samples = 9<br/>value = [8, 1]>, fillcolor="#e89152"] ;
299 -> 300 ;
301 [label=<gini = 0.0<br/>samples = 6<br/>value = [6, 0]>, fillcolor="#e58139"] ;
300 -> 301 ;
302 [label=<HbA1c_level &le; 5.75<br/>gini = 0.444<br/>samples = 3<br/>value = [2, 1]>, fillcolor="#f2c09c"] ;
300 -> 302 ;
303 [label=<gini = 0.0<br/>samples = 1<br/>value = [1, 0]>, fillcolor="#e58139"] ;
302 -> 303 ;
304 [label=<gini = 0.5<br/>samples = 2<br/>value = [1, 1]>, fillcolor="#ffffff"] ;
302 -> 304 ;
305 [label=<gini = 0.0<br/>samples = 25<br/>value = [25, 0]>, fillcolor="#e58139"] ;
299 -> 305 ;
306 [label=<bmi &le; 21.08<br/>gini = 0.24<br/>samples = 79<br/>value = [68, 11]>, fillcolor="#e99559"] ;
298 -> 306 ;
307 [label=<gini = 0.0<br/>samples = 9<br/>value = [9, 0]>, fillcolor="#e58139"] ;
306 -> 307 ;
308 [label=<bmi &le; 22.275<br/>gini = 0.265<br/>samples = 70<br/>value = [59, 11]>, fillcolor="#ea985e"] ;
306 -> 308 ;
309 [label=<blood_glucose_level &le; 128.0<br/>gini = 0.375<br/>samples = 4<br/>value = [1, 3]>, fillcolor="#7bbeee"] ;
308 -> 309 ;
310 [label=<bmi &le; 21.52<br/>gini = 0.5<br/>samples = 2<br/>value = [1, 1]>, fillcolor="#ffffff"] ;
309 -> 310 ;
311 [label=<gini = 0.0<br/>samples = 1<br/>value = [0, 1]>, fillcolor="#399de5"] ;
310 -> 311 ;
312 [label=<gini = 0.0<br/>samples = 1<br/>value = [1, 0]>, fillcolor="#e58139"] ;
310 -> 312 ;
313 [label=<gini = 0.0<br/>samples = 2<br/>value = [0, 2]>, fillcolor="#399de5"] ;
309 -> 313 ;
314 [label=<current &le; 0.5<br/>gini = 0.213<br/>samples = 66<br/>value = [58, 8]>, fillcolor="#e99254"] ;
308 -> 314 ;
315 [label=<blood_glucose_level &le; 128.0<br/>gini = 0.171<br/>samples = 53<br/>value = [48, 5]>, fillcolor="#e88e4e"] ;
314 -> 315 ;
316 [label=<age &le; 28.5<br/>gini = 0.32<br/>samples = 15<br/>value = [12, 3]>, fillcolor="#eca06a"] ;
315 -> 316 ;
317 [label=<bmi &le; 26.41<br/>gini = 0.219<br/>samples = 8<br/>value = [7, 1]>, fillcolor="#e99355"] ;
316 -> 317 ;
318 [label=<gini = 0.0<br/>samples = 1<br/>value = [0, 1]>, fillcolor="#399de5"] ;
317 -> 318 ;
319 [label=<gini = 0.0<br/>samples = 7<br/>value = [7, 0]>, fillcolor="#e58139"] ;
317 -> 319 ;
320 [label=<bmi &le; 26.28<br/>gini = 0.408<br/>samples = 7<br/>value = [5, 2]>, fillcolor="#efb388"] ;
316 -> 320 ;
321 [label=<gini = 0.0<br/>samples = 2<br/>value = [2, 0]>, fillcolor="#e58139"] ;
320 -> 321 ;
322 [label=<HbA1c_level &le; 6.05<br/>gini = 0.48<br/>samples = 5<br/>value = [3, 2]>, fillcolor="#f6d5bd"] ;
320 -> 322 ;
323 [label=<gini = 0.0<br/>samples = 1<br/>value = [1, 0]>, fillcolor="#e58139"] ;
322 -> 323 ;
324 [label=<Female &le; 0.5<br/>gini = 0.5<br/>samples = 4<br/>value = [2, 2]>, fillcolor="#ffffff"] ;
322 -> 324 ;
325 [label=<HbA1c_level &le; 6.15<br/>gini = 0.5<br/>samples = 2<br/>value = [1, 1]>, fillcolor="#ffffff"] ;
324 -> 325 ;
326 [label=<gini = 0.0<br/>samples = 1<br/>value = [1, 0]>, fillcolor="#e58139"] ;
325 -> 326 ;
327 [label=<gini = 0.0<br/>samples = 1<br/>value = [0, 1]>, fillcolor="#399de5"] ;
325 -> 327 ;
328 [label=<HbA1c_level &le; 6.15<br/>gini = 0.5<br/>samples = 2<br/>value = [1, 1]>, fillcolor="#ffffff"] ;
324 -> 328 ;
329 [label=<gini = 0.0<br/>samples = 1<br/>value = [0, 1]>, fillcolor="#399de5"] ;
328 -> 329 ;
330 [label=<gini = 0.0<br/>samples = 1<br/>value = [1, 0]>, fillcolor="#e58139"] ;
328 -> 330 ;
331 [label=<age &le; 28.5<br/>gini = 0.1<br/>samples = 38<br/>value = [36, 2]>, fillcolor="#e68844"] ;
315 -> 331 ;
332 [label=<bmi &le; 27.16<br/>gini = 0.278<br/>samples = 12<br/>value = [10, 2]>, fillcolor="#ea9a61"] ;
331 -> 332 ;
333 [label=<gini = 0.0<br/>samples = 5<br/>value = [5, 0]>, fillcolor="#e58139"] ;
332 -> 333 ;
334 [label=<HbA1c_level &le; 6.15<br/>gini = 0.408<br/>samples = 7<br/>value = [5, 2]>, fillcolor="#efb388"] ;
332 -> 334 ;
335 [label=<bmi &le; 27.495<br/>gini = 0.48<br/>samples = 5<br/>value = [3, 2]>, fillcolor="#f6d5bd"] ;
334 -> 335 ;
336 [label=<Female &le; 0.5<br/>gini = 0.5<br/>samples = 4<br/>value = [2, 2]>, fillcolor="#ffffff"] ;
335 -> 336 ;
337 [label=<gini = 0.0<br/>samples = 1<br/>value = [0, 1]>, fillcolor="#399de5"] ;
336 -> 337 ;
338 [label=<HbA1c_level &le; 6.05<br/>gini = 0.444<br/>samples = 3<br/>value = [2, 1]>, fillcolor="#f2c09c"] ;
336 -> 338 ;
339 [label=<gini = 0.5<br/>samples = 2<br/>value = [1, 1]>, fillcolor="#ffffff"] ;
338 -> 339 ;
340 [label=<gini = 0.0<br/>samples = 1<br/>value = [1, 0]>, fillcolor="#e58139"] ;
338 -> 340 ;
341 [label=<gini = 0.0<br/>samples = 1<br/>value = [1, 0]>, fillcolor="#e58139"] ;
335 -> 341 ;
342 [label=<gini = 0.0<br/>samples = 2<br/>value = [2, 0]>, fillcolor="#e58139"] ;
334 -> 342 ;
343 [label=<gini = 0.0<br/>samples = 26<br/>value = [26, 0]>, fillcolor="#e58139"] ;
331 -> 343 ;
344 [label=<HbA1c_level &le; 6.05<br/>gini = 0.355<br/>samples = 13<br/>value = [10, 3]>, fillcolor="#eda774"] ;
314 -> 344 ;
345 [label=<bmi &le; 27.17<br/>gini = 0.48<br/>samples = 5<br/>value = [3, 2]>, fillcolor="#f6d5bd"] ;
344 -> 345 ;
346 [label=<gini = 0.0<br/>samples = 2<br/>value = [2, 0]>, fillcolor="#e58139"] ;
345 -> 346 ;
347 [label=<age &le; 28.5<br/>gini = 0.444<br/>samples = 3<br/>value = [1, 2]>, fillcolor="#9ccef2"] ;
345 -> 347 ;
348 [label=<gini = 0.0<br/>samples = 1<br/>value = [0, 1]>, fillcolor="#399de5"] ;
347 -> 348 ;
349 [label=<Female &le; 0.5<br/>gini = 0.5<br/>samples = 2<br/>value = [1, 1]>, fillcolor="#ffffff"] ;
347 -> 349 ;
350 [label=<gini = 0.0<br/>samples = 1<br/>value = [1, 0]>, fillcolor="#e58139"] ;
349 -> 350 ;
351 [label=<gini = 0.0<br/>samples = 1<br/>value = [0, 1]>, fillcolor="#399de5"] ;
349 -> 351 ;
352 [label=<bmi &le; 26.175<br/>gini = 0.219<br/>samples = 8<br/>value = [7, 1]>, fillcolor="#e99355"] ;
344 -> 352 ;
353 [label=<bmi &le; 24.42<br/>gini = 0.5<br/>samples = 2<br/>value = [1, 1]>, fillcolor="#ffffff"] ;
352 -> 353 ;
354 [label=<gini = 0.0<br/>samples = 1<br/>value = [1, 0]>, fillcolor="#e58139"] ;
353 -> 354 ;
355 [label=<gini = 0.0<br/>samples = 1<br/>value = [0, 1]>, fillcolor="#399de5"] ;
353 -> 355 ;
356 [label=<gini = 0.0<br/>samples = 6<br/>value = [6, 0]>, fillcolor="#e58139"] ;
352 -> 356 ;
357 [label=<gini = 0.0<br/>samples = 1<br/>value = [0, 1]>, fillcolor="#399de5"] ;
297 -> 357 ;
358 [label=<gini = 0.0<br/>samples = 23<br/>value = [23, 0]>, fillcolor="#e58139"] ;
296 -> 358 ;
359 [label=<gini = 0.0<br/>samples = 59<br/>value = [59, 0]>, fillcolor="#e58139"] ;
295 -> 359 ;
360 [label=<former &le; 0.5<br/>gini = 0.027<br/>samples = 809<br/>value = [798, 11]>, fillcolor="#e5833c"] ;
294 -> 360 ;
361 [label=<bmi &le; 30.785<br/>gini = 0.019<br/>samples = 748<br/>value = [741.0, 7.0]>, fillcolor="#e5823b"] ;
360 -> 361 ;
362 [label=<bmi &le; 19.34<br/>gini = 0.014<br/>samples = 714<br/>value = [709, 5]>, fillcolor="#e5823a"] ;
361 -> 362 ;
363 [label=<bmi &le; 19.195<br/>gini = 0.105<br/>samples = 18<br/>value = [17, 1]>, fillcolor="#e78845"] ;
362 -> 363 ;
364 [label=<gini = 0.0<br/>samples = 17<br/>value = [17, 0]>, fillcolor="#e58139"] ;
363 -> 364 ;
365 [label=<gini = 0.0<br/>samples = 1<br/>value = [0, 1]>, fillcolor="#399de5"] ;
363 -> 365 ;
366 [label=<HbA1c_level &le; 6.55<br/>gini = 0.011<br/>samples = 696<br/>value = [692, 4]>, fillcolor="#e5823a"] ;
362 -> 366 ;
367 [label=<bmi &le; 25.07<br/>gini = 0.007<br/>samples = 594<br/>value = [592, 2]>, fillcolor="#e5813a"] ;
366 -> 367 ;
368 [label=<bmi &le; 25.055<br/>gini = 0.023<br/>samples = 169<br/>value = [167, 2]>, fillcolor="#e5833b"] ;
367 -> 368 ;
369 [label=<bmi &le; 24.105<br/>gini = 0.012<br/>samples = 168<br/>value = [167, 1]>, fillcolor="#e5823a"] ;
368 -> 369 ;
370 [label=<gini = 0.0<br/>samples = 139<br/>value = [139, 0]>, fillcolor="#e58139"] ;
369 -> 370 ;
371 [label=<bmi &le; 24.12<br/>gini = 0.067<br/>samples = 29<br/>value = [28, 1]>, fillcolor="#e68640"] ;
369 -> 371 ;
372 [label=<gini = 0.0<br/>samples = 1<br/>value = [0, 1]>, fillcolor="#399de5"] ;
371 -> 372 ;
373 [label=<gini = 0.0<br/>samples = 28<br/>value = [28, 0]>, fillcolor="#e58139"] ;
371 -> 373 ;
374 [label=<gini = 0.0<br/>samples = 1<br/>value = [0, 1]>, fillcolor="#399de5"] ;
368 -> 374 ;
375 [label=<gini = 0.0<br/>samples = 425<br/>value = [425, 0]>, fillcolor="#e58139"] ;
367 -> 375 ;
376 [label=<bmi &le; 29.085<br/>gini = 0.038<br/>samples = 102<br/>value = [100, 2]>, fillcolor="#e6843d"] ;
366 -> 376 ;
377 [label=<current &le; 0.5<br/>gini = 0.02<br/>samples = 98<br/>value = [97.0, 1.0]>, fillcolor="#e5823b"] ;
376 -> 377 ;
378 [label=<gini = 0.0<br/>samples = 84<br/>value = [84, 0]>, fillcolor="#e58139"] ;
377 -> 378 ;
379 [label=<bmi &le; 27.055<br/>gini = 0.133<br/>samples = 14<br/>value = [13, 1]>, fillcolor="#e78b48"] ;
377 -> 379 ;
380 [label=<gini = 0.0<br/>samples = 8<br/>value = [8, 0]>, fillcolor="#e58139"] ;
379 -> 380 ;
381 [label=<age &le; 33.5<br/>gini = 0.278<br/>samples = 6<br/>value = [5, 1]>, fillcolor="#ea9a61"] ;
379 -> 381 ;
382 [label=<age &le; 31.0<br/>gini = 0.444<br/>samples = 3<br/>value = [2, 1]>, fillcolor="#f2c09c"] ;
381 -> 382 ;
383 [label=<gini = 0.0<br/>samples = 1<br/>value = [1, 0]>, fillcolor="#e58139"] ;
382 -> 383 ;
384 [label=<bmi &le; 28.005<br/>gini = 0.5<br/>samples = 2<br/>value = [1, 1]>, fillcolor="#ffffff"] ;
382 -> 384 ;
385 [label=<gini = 0.0<br/>samples = 1<br/>value = [0, 1]>, fillcolor="#399de5"] ;
384 -> 385 ;
386 [label=<gini = 0.0<br/>samples = 1<br/>value = [1, 0]>, fillcolor="#e58139"] ;
384 -> 386 ;
387 [label=<gini = 0.0<br/>samples = 3<br/>value = [3, 0]>, fillcolor="#e58139"] ;
381 -> 387 ;
388 [label=<bmi &le; 29.38<br/>gini = 0.375<br/>samples = 4<br/>value = [3, 1]>, fillcolor="#eeab7b"] ;
376 -> 388 ;
389 [label=<gini = 0.0<br/>samples = 1<br/>value = [0, 1]>, fillcolor="#399de5"] ;
388 -> 389 ;
390 [label=<gini = 0.0<br/>samples = 3<br/>value = [3, 0]>, fillcolor="#e58139"] ;
388 -> 390 ;
391 [label=<bmi &le; 30.865<br/>gini = 0.111<br/>samples = 34<br/>value = [32, 2]>, fillcolor="#e78945"] ;
361 -> 391 ;
392 [label=<age &le; 32.0<br/>gini = 0.48<br/>samples = 5<br/>value = [3, 2]>, fillcolor="#f6d5bd"] ;
391 -> 392 ;
393 [label=<gini = 0.0<br/>samples = 2<br/>value = [2, 0]>, fillcolor="#e58139"] ;
392 -> 393 ;
394 [label=<blood_glucose_level &le; 128.0<br/>gini = 0.444<br/>samples = 3<br/>value = [1, 2]>, fillcolor="#9ccef2"] ;
392 -> 394 ;
395 [label=<gini = 0.0<br/>samples = 1<br/>value = [1, 0]>, fillcolor="#e58139"] ;
394 -> 395 ;
396 [label=<gini = 0.0<br/>samples = 2<br/>value = [0, 2]>, fillcolor="#399de5"] ;
394 -> 396 ;
397 [label=<gini = 0.0<br/>samples = 29<br/>value = [29, 0]>, fillcolor="#e58139"] ;
391 -> 397 ;
398 [label=<Female &le; 0.5<br/>gini = 0.123<br/>samples = 61<br/>value = [57, 4]>, fillcolor="#e78a47"] ;
360 -> 398 ;
399 [label=<bmi &le; 25.74<br/>gini = 0.204<br/>samples = 26<br/>value = [23, 3]>, fillcolor="#e89153"] ;
398 -> 399 ;
400 [label=<bmi &le; 25.65<br/>gini = 0.408<br/>samples = 7<br/>value = [5, 2]>, fillcolor="#efb388"] ;
399 -> 400 ;
401 [label=<bmi &le; 24.265<br/>gini = 0.278<br/>samples = 6<br/>value = [5, 1]>, fillcolor="#ea9a61"] ;
400 -> 401 ;
402 [label=<gini = 0.0<br/>samples = 3<br/>value = [3, 0]>, fillcolor="#e58139"] ;
401 -> 402 ;
403 [label=<bmi &le; 24.42<br/>gini = 0.444<br/>samples = 3<br/>value = [2, 1]>, fillcolor="#f2c09c"] ;
401 -> 403 ;
404 [label=<gini = 0.0<br/>samples = 1<br/>value = [0, 1]>, fillcolor="#399de5"] ;
403 -> 404 ;
405 [label=<gini = 0.0<br/>samples = 2<br/>value = [2, 0]>, fillcolor="#e58139"] ;
403 -> 405 ;
406 [label=<gini = 0.0<br/>samples = 1<br/>value = [0, 1]>, fillcolor="#399de5"] ;
400 -> 406 ;
407 [label=<age &le; 31.5<br/>gini = 0.1<br/>samples = 19<br/>value = [18, 1]>, fillcolor="#e68844"] ;
399 -> 407 ;
408 [label=<bmi &le; 30.44<br/>gini = 0.375<br/>samples = 4<br/>value = [3, 1]>, fillcolor="#eeab7b"] ;
407 -> 408 ;
409 [label=<gini = 0.0<br/>samples = 3<br/>value = [3, 0]>, fillcolor="#e58139"] ;
408 -> 409 ;
410 [label=<gini = 0.0<br/>samples = 1<br/>value = [0, 1]>, fillcolor="#399de5"] ;
408 -> 410 ;
411 [label=<gini = 0.0<br/>samples = 15<br/>value = [15, 0]>, fillcolor="#e58139"] ;
407 -> 411 ;
412 [label=<age &le; 37.5<br/>gini = 0.056<br/>samples = 35<br/>value = [34, 1]>, fillcolor="#e6853f"] ;
398 -> 412 ;
413 [label=<gini = 0.0<br/>samples = 29<br/>value = [29, 0]>, fillcolor="#e58139"] ;
412 -> 413 ;
414 [label=<HbA1c_level &le; 6.05<br/>gini = 0.278<br/>samples = 6<br/>value = [5, 1]>, fillcolor="#ea9a61"] ;
412 -> 414 ;
415 [label=<gini = 0.0<br/>samples = 3<br/>value = [3, 0]>, fillcolor="#e58139"] ;
414 -> 415 ;
416 [label=<blood_glucose_level &le; 128.0<br/>gini = 0.444<br/>samples = 3<br/>value = [2, 1]>, fillcolor="#f2c09c"] ;
414 -> 416 ;
417 [label=<bmi &le; 29.295<br/>gini = 0.5<br/>samples = 2<br/>value = [1, 1]>, fillcolor="#ffffff"] ;
416 -> 417 ;
418 [label=<gini = 0.0<br/>samples = 1<br/>value = [0, 1]>, fillcolor="#399de5"] ;
417 -> 418 ;
419 [label=<gini = 0.0<br/>samples = 1<br/>value = [1, 0]>, fillcolor="#e58139"] ;
417 -> 419 ;
420 [label=<gini = 0.0<br/>samples = 1<br/>value = [1, 0]>, fillcolor="#e58139"] ;
416 -> 420 ;
421 [label=<bmi &le; 27.27<br/>gini = 0.02<br/>samples = 2038<br/>value = [2017, 21]>, fillcolor="#e5823b"] ;
293 -> 421 ;
422 [label=<HbA1c_level &le; 6.15<br/>gini = 0.004<br/>samples = 890<br/>value = [888, 2]>, fillcolor="#e58139"] ;
421 -> 422 ;
423 [label=<gini = 0.0<br/>samples = 530<br/>value = [530, 0]>, fillcolor="#e58139"] ;
422 -> 423 ;
424 [label=<age &le; 32.5<br/>gini = 0.011<br/>samples = 360<br/>value = [358, 2]>, fillcolor="#e5823a"] ;
422 -> 424 ;
425 [label=<gini = 0.0<br/>samples = 178<br/>value = [178, 0]>, fillcolor="#e58139"] ;
424 -> 425 ;
426 [label=<age &le; 33.5<br/>gini = 0.022<br/>samples = 182<br/>value = [180, 2]>, fillcolor="#e5823b"] ;
424 -> 426 ;
427 [label=<Female &le; 0.5<br/>gini = 0.069<br/>samples = 28<br/>value = [27, 1]>, fillcolor="#e68640"] ;
426 -> 427 ;
428 [label=<bmi &le; 23.64<br/>gini = 0.278<br/>samples = 6<br/>value = [5, 1]>, fillcolor="#ea9a61"] ;
427 -> 428 ;
429 [label=<gini = 0.0<br/>samples = 1<br/>value = [0, 1]>, fillcolor="#399de5"] ;
428 -> 429 ;
430 [label=<gini = 0.0<br/>samples = 5<br/>value = [5, 0]>, fillcolor="#e58139"] ;
428 -> 430 ;
431 [label=<gini = 0.0<br/>samples = 22<br/>value = [22, 0]>, fillcolor="#e58139"] ;
427 -> 431 ;
432 [label=<HbA1c_level &le; 6.35<br/>gini = 0.013<br/>samples = 154<br/>value = [153, 1]>, fillcolor="#e5823a"] ;
426 -> 432 ;
433 [label=<bmi &le; 24.54<br/>gini = 0.039<br/>samples = 50<br/>value = [49, 1]>, fillcolor="#e6843d"] ;
432 -> 433 ;
434 [label=<gini = 0.0<br/>samples = 33<br/>value = [33, 0]>, fillcolor="#e58139"] ;
433 -> 434 ;
435 [label=<bmi &le; 24.76<br/>gini = 0.111<br/>samples = 17<br/>value = [16, 1]>, fillcolor="#e78945"] ;
433 -> 435 ;
436 [label=<gini = 0.0<br/>samples = 1<br/>value = [0, 1]>, fillcolor="#399de5"] ;
435 -> 436 ;
437 [label=<gini = 0.0<br/>samples = 16<br/>value = [16, 0]>, fillcolor="#e58139"] ;
435 -> 437 ;
438 [label=<gini = 0.0<br/>samples = 104<br/>value = [104, 0]>, fillcolor="#e58139"] ;
432 -> 438 ;
439 [label=<bmi &le; 27.285<br/>gini = 0.033<br/>samples = 1148<br/>value = [1129, 19]>, fillcolor="#e5833c"] ;
421 -> 439 ;
440 [label=<age &le; 33.0<br/>gini = 0.5<br/>samples = 2<br/>value = [1, 1]>, fillcolor="#ffffff"] ;
439 -> 440 ;
441 [label=<gini = 0.0<br/>samples = 1<br/>value = [1, 0]>, fillcolor="#e58139"] ;
440 -> 441 ;
442 [label=<gini = 0.0<br/>samples = 1<br/>value = [0, 1]>, fillcolor="#399de5"] ;
440 -> 442 ;
443 [label=<age &le; 30.5<br/>gini = 0.031<br/>samples = 1146<br/>value = [1128, 18]>, fillcolor="#e5833c"] ;
439 -> 443 ;
444 [label=<blood_glucose_level &le; 150.0<br/>gini = 0.012<br/>samples = 344<br/>value = [342, 2]>, fillcolor="#e5823a"] ;
443 -> 444 ;
445 [label=<HbA1c_level &le; 5.9<br/>gini = 0.053<br/>samples = 37<br/>value = [36, 1]>, fillcolor="#e6843e"] ;
444 -> 445 ;
446 [label=<HbA1c_level &le; 5.75<br/>gini = 0.142<br/>samples = 13<br/>value = [12, 1]>, fillcolor="#e78c49"] ;
445 -> 446 ;
447 [label=<gini = 0.0<br/>samples = 7<br/>value = [7, 0]>, fillcolor="#e58139"] ;
446 -> 447 ;
448 [label=<Female &le; 0.5<br/>gini = 0.278<br/>samples = 6<br/>value = [5, 1]>, fillcolor="#ea9a61"] ;
446 -> 448 ;
449 [label=<gini = 0.0<br/>samples = 4<br/>value = [4, 0]>, fillcolor="#e58139"] ;
448 -> 449 ;
450 [label=<age &le; 28.5<br/>gini = 0.5<br/>samples = 2<br/>value = [1, 1]>, fillcolor="#ffffff"] ;
448 -> 450 ;
451 [label=<gini = 0.0<br/>samples = 1<br/>value = [0, 1]>, fillcolor="#399de5"] ;
450 -> 451 ;
452 [label=<gini = 0.0<br/>samples = 1<br/>value = [1, 0]>, fillcolor="#e58139"] ;
450 -> 452 ;
453 [label=<gini = 0.0<br/>samples = 24<br/>value = [24, 0]>, fillcolor="#e58139"] ;
445 -> 453 ;
454 [label=<HbA1c_level &le; 6.15<br/>gini = 0.006<br/>samples = 307<br/>value = [306, 1]>, fillcolor="#e5813a"] ;
444 -> 454 ;
455 [label=<gini = 0.0<br/>samples = 187<br/>value = [187, 0]>, fillcolor="#e58139"] ;
454 -> 455 ;
456 [label=<HbA1c_level &le; 6.35<br/>gini = 0.017<br/>samples = 120<br/>value = [119, 1]>, fillcolor="#e5823b"] ;
454 -> 456 ;
457 [label=<Female &le; 0.5<br/>gini = 0.061<br/>samples = 32<br/>value = [31, 1]>, fillcolor="#e6853f"] ;
456 -> 457 ;
458 [label=<blood_glucose_level &le; 159.5<br/>gini = 0.165<br/>samples = 11<br/>value = [10, 1]>, fillcolor="#e88e4d"] ;
457 -> 458 ;
459 [label=<age &le; 29.5<br/>gini = 0.32<br/>samples = 5<br/>value = [4, 1]>, fillcolor="#eca06a"] ;
458 -> 459 ;
460 [label=<gini = 0.0<br/>samples = 1<br/>value = [0, 1]>, fillcolor="#399de5"] ;
459 -> 460 ;
461 [label=<gini = 0.0<br/>samples = 4<br/>value = [4, 0]>, fillcolor="#e58139"] ;
459 -> 461 ;
462 [label=<gini = 0.0<br/>samples = 6<br/>value = [6, 0]>, fillcolor="#e58139"] ;
458 -> 462 ;
463 [label=<gini = 0.0<br/>samples = 21<br/>value = [21, 0]>, fillcolor="#e58139"] ;
457 -> 463 ;
464 [label=<gini = 0.0<br/>samples = 88<br/>value = [88, 0]>, fillcolor="#e58139"] ;
456 -> 464 ;
465 [label=<HbA1c_level &le; 6.35<br/>gini = 0.039<br/>samples = 802<br/>value = [786, 16]>, fillcolor="#e6843d"] ;
443 -> 465 ;
466 [label=<blood_glucose_level &le; 156.5<br/>gini = 0.027<br/>samples = 583<br/>value = [575, 8]>, fillcolor="#e5833c"] ;
465 -> 466 ;
467 [label=<Female &le; 0.5<br/>gini = 0.049<br/>samples = 197<br/>value = [192, 5]>, fillcolor="#e6843e"] ;
466 -> 467 ;
468 [label=<bmi &le; 28.665<br/>gini = 0.081<br/>samples = 95<br/>value = [91, 4]>, fillcolor="#e68742"] ;
467 -> 468 ;
469 [label=<bmi &le; 28.455<br/>gini = 0.108<br/>samples = 70<br/>value = [66, 4]>, fillcolor="#e78945"] ;
468 -> 469 ;
470 [label=<age &le; 32.5<br/>gini = 0.083<br/>samples = 69<br/>value = [66, 3]>, fillcolor="#e68742"] ;
469 -> 470 ;
471 [label=<gini = 0.0<br/>samples = 19<br/>value = [19, 0]>, fillcolor="#e58139"] ;
470 -> 471 ;
472 [label=<HbA1c_level &le; 5.75<br/>gini = 0.113<br/>samples = 50<br/>value = [47, 3]>, fillcolor="#e78946"] ;
470 -> 472 ;
473 [label=<gini = 0.0<br/>samples = 13<br/>value = [13, 0]>, fillcolor="#e58139"] ;
472 -> 473 ;
474 [label=<HbA1c_level &le; 6.15<br/>gini = 0.149<br/>samples = 37<br/>value = [34, 3]>, fillcolor="#e78c4a"] ;
472 -> 474 ;
475 [label=<current &le; 0.5<br/>gini = 0.185<br/>samples = 29<br/>value = [26, 3]>, fillcolor="#e89050"] ;
474 -> 475 ;
476 [label=<age &le; 33.5<br/>gini = 0.204<br/>samples = 26<br/>value = [23, 3]>, fillcolor="#e89153"] ;
475 -> 476 ;
477 [label=<HbA1c_level &le; 6.05<br/>gini = 0.32<br/>samples = 5<br/>value = [4, 1]>, fillcolor="#eca06a"] ;
476 -> 477 ;
478 [label=<gini = 0.5<br/>samples = 2<br/>value = [1, 1]>, fillcolor="#ffffff"] ;
477 -> 478 ;
479 [label=<gini = 0.0<br/>samples = 3<br/>value = [3, 0]>, fillcolor="#e58139"] ;
477 -> 479 ;
480 [label=<age &le; 35.5<br/>gini = 0.172<br/>samples = 21<br/>value = [19, 2]>, fillcolor="#e88e4e"] ;
476 -> 480 ;
481 [label=<gini = 0.0<br/>samples = 5<br/>value = [5, 0]>, fillcolor="#e58139"] ;
480 -> 481 ;
482 [label=<age &le; 36.5<br/>gini = 0.219<br/>samples = 16<br/>value = [14, 2]>, fillcolor="#e99355"] ;
480 -> 482 ;
483 [label=<HbA1c_level &le; 5.9<br/>gini = 0.375<br/>samples = 4<br/>value = [3, 1]>, fillcolor="#eeab7b"] ;
482 -> 483 ;
484 [label=<gini = 0.0<br/>samples = 1<br/>value = [0, 1]>, fillcolor="#399de5"] ;
483 -> 484 ;
485 [label=<gini = 0.0<br/>samples = 3<br/>value = [3, 0]>, fillcolor="#e58139"] ;
483 -> 485 ;
486 [label=<blood_glucose_level &le; 150.0<br/>gini = 0.153<br/>samples = 12<br/>value = [11, 1]>, fillcolor="#e78c4b"] ;
482 -> 486 ;
487 [label=<gini = 0.0<br/>samples = 7<br/>value = [7, 0]>, fillcolor="#e58139"] ;
486 -> 487 ;
488 [label=<HbA1c_level &le; 5.95<br/>gini = 0.32<br/>samples = 5<br/>value = [4, 1]>, fillcolor="#eca06a"] ;
486 -> 488 ;
489 [label=<gini = 0.0<br/>samples = 3<br/>value = [3, 0]>, fillcolor="#e58139"] ;
488 -> 489 ;
490 [label=<gini = 0.5<br/>samples = 2<br/>value = [1, 1]>, fillcolor="#ffffff"] ;
488 -> 490 ;
491 [label=<gini = 0.0<br/>samples = 3<br/>value = [3, 0]>, fillcolor="#e58139"] ;
475 -> 491 ;
492 [label=<gini = 0.0<br/>samples = 8<br/>value = [8, 0]>, fillcolor="#e58139"] ;
474 -> 492 ;
493 [label=<gini = 0.0<br/>samples = 1<br/>value = [0, 1]>, fillcolor="#399de5"] ;
469 -> 493 ;
494 [label=<gini = 0.0<br/>samples = 25<br/>value = [25, 0]>, fillcolor="#e58139"] ;
468 -> 494 ;
495 [label=<age &le; 36.5<br/>gini = 0.019<br/>samples = 102<br/>value = [101, 1]>, fillcolor="#e5823b"] ;
467 -> 495 ;
496 [label=<gini = 0.0<br/>samples = 70<br/>value = [70, 0]>, fillcolor="#e58139"] ;
495 -> 496 ;
497 [label=<age &le; 37.5<br/>gini = 0.061<br/>samples = 32<br/>value = [31, 1]>, fillcolor="#e6853f"] ;
495 -> 497 ;
498 [label=<HbA1c_level &le; 6.05<br/>gini = 0.153<br/>samples = 12<br/>value = [11, 1]>, fillcolor="#e78c4b"] ;
497 -> 498 ;
499 [label=<gini = 0.0<br/>samples = 8<br/>value = [8, 0]>, fillcolor="#e58139"] ;
498 -> 499 ;
500 [label=<bmi &le; 29.35<br/>gini = 0.375<br/>samples = 4<br/>value = [3, 1]>, fillcolor="#eeab7b"] ;
498 -> 500 ;
501 [label=<HbA1c_level &le; 6.15<br/>gini = 0.444<br/>samples = 3<br/>value = [2, 1]>, fillcolor="#f2c09c"] ;
500 -> 501 ;
502 [label=<gini = 0.5<br/>samples = 2<br/>value = [1, 1]>, fillcolor="#ffffff"] ;
501 -> 502 ;
503 [label=<gini = 0.0<br/>samples = 1<br/>value = [1, 0]>, fillcolor="#e58139"] ;
501 -> 503 ;
504 [label=<gini = 0.0<br/>samples = 1<br/>value = [1, 0]>, fillcolor="#e58139"] ;
500 -> 504 ;
505 [label=<gini = 0.0<br/>samples = 20<br/>value = [20, 0]>, fillcolor="#e58139"] ;
497 -> 505 ;
506 [label=<bmi &le; 29.47<br/>gini = 0.015<br/>samples = 386<br/>value = [383, 3]>, fillcolor="#e5823b"] ;
466 -> 506 ;
507 [label=<current &le; 0.5<br/>gini = 0.006<br/>samples = 312<br/>value = [311, 1]>, fillcolor="#e5813a"] ;
506 -> 507 ;
508 [label=<gini = 0.0<br/>samples = 267<br/>value = [267, 0]>, fillcolor="#e58139"] ;
507 -> 508 ;
509 [label=<age &le; 31.5<br/>gini = 0.043<br/>samples = 45<br/>value = [44, 1]>, fillcolor="#e6843d"] ;
507 -> 509 ;
510 [label=<HbA1c_level &le; 6.15<br/>gini = 0.245<br/>samples = 7<br/>value = [6, 1]>, fillcolor="#e9965a"] ;
509 -> 510 ;
511 [label=<gini = 0.0<br/>samples = 6<br/>value = [6, 0]>, fillcolor="#e58139"] ;
510 -> 511 ;
512 [label=<gini = 0.0<br/>samples = 1<br/>value = [0, 1]>, fillcolor="#399de5"] ;
510 -> 512 ;
513 [label=<gini = 0.0<br/>samples = 38<br/>value = [38, 0]>, fillcolor="#e58139"] ;
509 -> 513 ;
514 [label=<bmi &le; 29.51<br/>gini = 0.053<br/>samples = 74<br/>value = [72, 2]>, fillcolor="#e6843e"] ;
506 -> 514 ;
515 [label=<gini = 0.0<br/>samples = 1<br/>value = [0, 1]>, fillcolor="#399de5"] ;
514 -> 515 ;
516 [label=<blood_glucose_level &le; 180.0<br/>gini = 0.027<br/>samples = 73<br/>value = [72, 1]>, fillcolor="#e5833c"] ;
514 -> 516 ;
517 [label=<gini = 0.0<br/>samples = 53<br/>value = [53, 0]>, fillcolor="#e58139"] ;
516 -> 517 ;
518 [label=<bmi &le; 31.37<br/>gini = 0.095<br/>samples = 20<br/>value = [19, 1]>, fillcolor="#e68843"] ;
516 -> 518 ;
519 [label=<gini = 0.0<br/>samples = 11<br/>value = [11, 0]>, fillcolor="#e58139"] ;
518 -> 519 ;
520 [label=<bmi &le; 31.54<br/>gini = 0.198<br/>samples = 9<br/>value = [8, 1]>, fillcolor="#e89152"] ;
518 -> 520 ;
521 [label=<gini = 0.0<br/>samples = 1<br/>value = [0, 1]>, fillcolor="#399de5"] ;
520 -> 521 ;
522 [label=<gini = 0.0<br/>samples = 8<br/>value = [8, 0]>, fillcolor="#e58139"] ;
520 -> 522 ;
523 [label=<blood_glucose_level &le; 158.5<br/>gini = 0.07<br/>samples = 219<br/>value = [211, 8]>, fillcolor="#e68641"] ;
465 -> 523 ;
524 [label=<age &le; 32.5<br/>gini = 0.019<br/>samples = 107<br/>value = [106.0, 1.0]>, fillcolor="#e5823b"] ;
523 -> 524 ;
525 [label=<bmi &le; 28.34<br/>gini = 0.071<br/>samples = 27<br/>value = [26, 1]>, fillcolor="#e68641"] ;
524 -> 525 ;
526 [label=<gini = 0.0<br/>samples = 18<br/>value = [18, 0]>, fillcolor="#e58139"] ;
525 -> 526 ;
527 [label=<bmi &le; 28.945<br/>gini = 0.198<br/>samples = 9<br/>value = [8, 1]>, fillcolor="#e89152"] ;
525 -> 527 ;
528 [label=<gini = 0.0<br/>samples = 1<br/>value = [0, 1]>, fillcolor="#399de5"] ;
527 -> 528 ;
529 [label=<gini = 0.0<br/>samples = 8<br/>value = [8, 0]>, fillcolor="#e58139"] ;
527 -> 529 ;
530 [label=<gini = 0.0<br/>samples = 80<br/>value = [80, 0]>, fillcolor="#e58139"] ;
524 -> 530 ;
531 [label=<Female &le; 0.5<br/>gini = 0.117<br/>samples = 112<br/>value = [105, 7]>, fillcolor="#e78946"] ;
523 -> 531 ;
532 [label=<blood_glucose_level &le; 159.5<br/>gini = 0.214<br/>samples = 41<br/>value = [36, 5]>, fillcolor="#e99254"] ;
531 -> 532 ;
533 [label=<HbA1c_level &le; 6.55<br/>gini = 0.337<br/>samples = 14<br/>value = [11, 3]>, fillcolor="#eca36f"] ;
532 -> 533 ;
534 [label=<age &le; 32.5<br/>gini = 0.198<br/>samples = 9<br/>value = [8, 1]>, fillcolor="#e89152"] ;
533 -> 534 ;
535 [label=<gini = 0.0<br/>samples = 1<br/>value = [0, 1]>, fillcolor="#399de5"] ;
534 -> 535 ;
536 [label=<gini = 0.0<br/>samples = 8<br/>value = [8, 0]>, fillcolor="#e58139"] ;
534 -> 536 ;
537 [label=<age &le; 34.0<br/>gini = 0.48<br/>samples = 5<br/>value = [3, 2]>, fillcolor="#f6d5bd"] ;
533 -> 537 ;
538 [label=<gini = 0.0<br/>samples = 3<br/>value = [3, 0]>, fillcolor="#e58139"] ;
537 -> 538 ;
539 [label=<gini = 0.0<br/>samples = 2<br/>value = [0, 2]>, fillcolor="#399de5"] ;
537 -> 539 ;
540 [label=<age &le; 31.5<br/>gini = 0.137<br/>samples = 27<br/>value = [25, 2]>, fillcolor="#e78b49"] ;
532 -> 540 ;
541 [label=<current &le; 0.5<br/>gini = 0.5<br/>samples = 2<br/>value = [1, 1]>, fillcolor="#ffffff"] ;
540 -> 541 ;
542 [label=<gini = 0.0<br/>samples = 1<br/>value = [0, 1]>, fillcolor="#399de5"] ;
541 -> 542 ;
543 [label=<gini = 0.0<br/>samples = 1<br/>value = [1, 0]>, fillcolor="#e58139"] ;
541 -> 543 ;
544 [label=<bmi &le; 28.06<br/>gini = 0.077<br/>samples = 25<br/>value = [24, 1]>, fillcolor="#e68641"] ;
540 -> 544 ;
545 [label=<gini = 0.0<br/>samples = 17<br/>value = [17, 0]>, fillcolor="#e58139"] ;
544 -> 545 ;
546 [label=<bmi &le; 28.315<br/>gini = 0.219<br/>samples = 8<br/>value = [7, 1]>, fillcolor="#e99355"] ;
544 -> 546 ;
547 [label=<gini = 0.0<br/>samples = 1<br/>value = [0, 1]>, fillcolor="#399de5"] ;
546 -> 547 ;
548 [label=<gini = 0.0<br/>samples = 7<br/>value = [7, 0]>, fillcolor="#e58139"] ;
546 -> 548 ;
549 [label=<age &le; 34.5<br/>gini = 0.055<br/>samples = 71<br/>value = [69, 2]>, fillcolor="#e6853f"] ;
531 -> 549 ;
550 [label=<age &le; 33.5<br/>gini = 0.102<br/>samples = 37<br/>value = [35, 2]>, fillcolor="#e68844"] ;
549 -> 550 ;
551 [label=<gini = 0.0<br/>samples = 27<br/>value = [27, 0]>, fillcolor="#e58139"] ;
550 -> 551 ;
552 [label=<blood_glucose_level &le; 159.5<br/>gini = 0.32<br/>samples = 10<br/>value = [8, 2]>, fillcolor="#eca06a"] ;
550 -> 552 ;
553 [label=<gini = 0.0<br/>samples = 5<br/>value = [5, 0]>, fillcolor="#e58139"] ;
552 -> 553 ;
554 [label=<blood_glucose_level &le; 180.0<br/>gini = 0.48<br/>samples = 5<br/>value = [3, 2]>, fillcolor="#f6d5bd"] ;
552 -> 554 ;
555 [label=<gini = 0.0<br/>samples = 2<br/>value = [0, 2]>, fillcolor="#399de5"] ;
554 -> 555 ;
556 [label=<gini = 0.0<br/>samples = 3<br/>value = [3, 0]>, fillcolor="#e58139"] ;
554 -> 556 ;
557 [label=<gini = 0.0<br/>samples = 34<br/>value = [34, 0]>, fillcolor="#e58139"] ;
549 -> 557 ;
558 [label=<bmi &le; 32.225<br/>gini = 0.097<br/>samples = 468<br/>value = [444, 24]>, fillcolor="#e68844"] ;
292 -> 558 ;
559 [label=<gini = 0.0<br/>samples = 1<br/>value = [0, 1]>, fillcolor="#399de5"] ;
558 -> 559 ;
560 [label=<blood_glucose_level &le; 142.5<br/>gini = 0.094<br/>samples = 467<br/>value = [444, 23]>, fillcolor="#e68843"] ;
558 -> 560 ;
561 [label=<bmi &le; 33.745<br/>gini = 0.154<br/>samples = 143<br/>value = [131, 12]>, fillcolor="#e78d4b"] ;
560 -> 561 ;
562 [label=<bmi &le; 33.7<br/>gini = 0.245<br/>samples = 56<br/>value = [48, 8]>, fillcolor="#e9965a"] ;
561 -> 562 ;
563 [label=<bmi &le; 32.47<br/>gini = 0.226<br/>samples = 54<br/>value = [47, 7]>, fillcolor="#e99456"] ;
562 -> 563 ;
564 [label=<gini = 0.0<br/>samples = 8<br/>value = [8, 0]>, fillcolor="#e58139"] ;
563 -> 564 ;
565 [label=<bmi &le; 32.525<br/>gini = 0.258<br/>samples = 46<br/>value = [39, 7]>, fillcolor="#ea985d"] ;
563 -> 565 ;
566 [label=<age &le; 37.5<br/>gini = 0.444<br/>samples = 3<br/>value = [1, 2]>, fillcolor="#9ccef2"] ;
565 -> 566 ;
567 [label=<gini = 0.0<br/>samples = 2<br/>value = [0, 2]>, fillcolor="#399de5"] ;
566 -> 567 ;
568 [label=<gini = 0.0<br/>samples = 1<br/>value = [1, 0]>, fillcolor="#e58139"] ;
566 -> 568 ;
569 [label=<age &le; 32.5<br/>gini = 0.206<br/>samples = 43<br/>value = [38, 5]>, fillcolor="#e89253"] ;
565 -> 569 ;
570 [label=<HbA1c_level &le; 6.1<br/>gini = 0.332<br/>samples = 19<br/>value = [15, 4]>, fillcolor="#eca36e"] ;
569 -> 570 ;
571 [label=<bmi &le; 33.27<br/>gini = 0.165<br/>samples = 11<br/>value = [10, 1]>, fillcolor="#e88e4d"] ;
570 -> 571 ;
572 [label=<gini = 0.0<br/>samples = 6<br/>value = [6, 0]>, fillcolor="#e58139"] ;
571 -> 572 ;
573 [label=<bmi &le; 33.355<br/>gini = 0.32<br/>samples = 5<br/>value = [4, 1]>, fillcolor="#eca06a"] ;
571 -> 573 ;
574 [label=<gini = 0.0<br/>samples = 1<br/>value = [0, 1]>, fillcolor="#399de5"] ;
573 -> 574 ;
575 [label=<gini = 0.0<br/>samples = 4<br/>value = [4, 0]>, fillcolor="#e58139"] ;
573 -> 575 ;
576 [label=<bmi &le; 32.71<br/>gini = 0.469<br/>samples = 8<br/>value = [5, 3]>, fillcolor="#f5cdb0"] ;
570 -> 576 ;
577 [label=<gini = 0.0<br/>samples = 1<br/>value = [0, 1]>, fillcolor="#399de5"] ;
576 -> 577 ;
578 [label=<bmi &le; 32.815<br/>gini = 0.408<br/>samples = 7<br/>value = [5, 2]>, fillcolor="#efb388"] ;
576 -> 578 ;
579 [label=<gini = 0.0<br/>samples = 2<br/>value = [2, 0]>, fillcolor="#e58139"] ;
578 -> 579 ;
580 [label=<age &le; 28.5<br/>gini = 0.48<br/>samples = 5<br/>value = [3, 2]>, fillcolor="#f6d5bd"] ;
578 -> 580 ;
581 [label=<gini = 0.0<br/>samples = 2<br/>value = [2, 0]>, fillcolor="#e58139"] ;
580 -> 581 ;
582 [label=<current &le; 0.5<br/>gini = 0.444<br/>samples = 3<br/>value = [1, 2]>, fillcolor="#9ccef2"] ;
580 -> 582 ;
583 [label=<gini = 0.0<br/>samples = 2<br/>value = [0, 2]>, fillcolor="#399de5"] ;
582 -> 583 ;
584 [label=<gini = 0.0<br/>samples = 1<br/>value = [1, 0]>, fillcolor="#e58139"] ;
582 -> 584 ;
585 [label=<bmi &le; 33.585<br/>gini = 0.08<br/>samples = 24<br/>value = [23, 1]>, fillcolor="#e68642"] ;
569 -> 585 ;
586 [label=<gini = 0.0<br/>samples = 20<br/>value = [20, 0]>, fillcolor="#e58139"] ;
585 -> 586 ;
587 [label=<bmi &le; 33.625<br/>gini = 0.375<br/>samples = 4<br/>value = [3, 1]>, fillcolor="#eeab7b"] ;
585 -> 587 ;
588 [label=<gini = 0.0<br/>samples = 1<br/>value = [0, 1]>, fillcolor="#399de5"] ;
587 -> 588 ;
589 [label=<gini = 0.0<br/>samples = 3<br/>value = [3, 0]>, fillcolor="#e58139"] ;
587 -> 589 ;
590 [label=<age &le; 35.0<br/>gini = 0.5<br/>samples = 2<br/>value = [1, 1]>, fillcolor="#ffffff"] ;
562 -> 590 ;
591 [label=<gini = 0.0<br/>samples = 1<br/>value = [1, 0]>, fillcolor="#e58139"] ;
590 -> 591 ;
592 [label=<gini = 0.0<br/>samples = 1<br/>value = [0, 1]>, fillcolor="#399de5"] ;
590 -> 592 ;
593 [label=<bmi &le; 38.76<br/>gini = 0.088<br/>samples = 87<br/>value = [83, 4]>, fillcolor="#e68743"] ;
561 -> 593 ;
594 [label=<blood_glucose_level &le; 128.0<br/>gini = 0.07<br/>samples = 83<br/>value = [80, 3]>, fillcolor="#e68640"] ;
593 -> 594 ;
595 [label=<age &le; 33.5<br/>gini = 0.142<br/>samples = 26<br/>value = [24, 2]>, fillcolor="#e78c49"] ;
594 -> 595 ;
596 [label=<gini = 0.0<br/>samples = 12<br/>value = [12, 0]>, fillcolor="#e58139"] ;
595 -> 596 ;
597 [label=<age &le; 35.5<br/>gini = 0.245<br/>samples = 14<br/>value = [12, 2]>, fillcolor="#e9965a"] ;
595 -> 597 ;
598 [label=<HbA1c_level &le; 5.75<br/>gini = 0.5<br/>samples = 4<br/>value = [2, 2]>, fillcolor="#ffffff"] ;
597 -> 598 ;
599 [label=<gini = 0.0<br/>samples = 1<br/>value = [0, 1]>, fillcolor="#399de5"] ;
598 -> 599 ;
600 [label=<bmi &le; 35.15<br/>gini = 0.444<br/>samples = 3<br/>value = [2, 1]>, fillcolor="#f2c09c"] ;
598 -> 600 ;
601 [label=<gini = 0.0<br/>samples = 1<br/>value = [1, 0]>, fillcolor="#e58139"] ;
600 -> 601 ;
602 [label=<bmi &le; 35.89<br/>gini = 0.5<br/>samples = 2<br/>value = [1, 1]>, fillcolor="#ffffff"] ;
600 -> 602 ;
603 [label=<gini = 0.0<br/>samples = 1<br/>value = [0, 1]>, fillcolor="#399de5"] ;
602 -> 603 ;
604 [label=<gini = 0.0<br/>samples = 1<br/>value = [1, 0]>, fillcolor="#e58139"] ;
602 -> 604 ;
605 [label=<gini = 0.0<br/>samples = 10<br/>value = [10, 0]>, fillcolor="#e58139"] ;
597 -> 605 ;
606 [label=<bmi &le; 36.625<br/>gini = 0.034<br/>samples = 57<br/>value = [56, 1]>, fillcolor="#e5833d"] ;
594 -> 606 ;
607 [label=<gini = 0.0<br/>samples = 34<br/>value = [34, 0]>, fillcolor="#e58139"] ;
606 -> 607 ;
608 [label=<bmi &le; 36.765<br/>gini = 0.083<br/>samples = 23<br/>value = [22, 1]>, fillcolor="#e68742"] ;
606 -> 608 ;
609 [label=<gini = 0.0<br/>samples = 1<br/>value = [0, 1]>, fillcolor="#399de5"] ;
608 -> 609 ;
610 [label=<gini = 0.0<br/>samples = 22<br/>value = [22, 0]>, fillcolor="#e58139"] ;
608 -> 610 ;
611 [label=<bmi &le; 38.815<br/>gini = 0.375<br/>samples = 4<br/>value = [3, 1]>, fillcolor="#eeab7b"] ;
593 -> 611 ;
612 [label=<gini = 0.0<br/>samples = 1<br/>value = [0, 1]>, fillcolor="#399de5"] ;
611 -> 612 ;
613 [label=<gini = 0.0<br/>samples = 3<br/>value = [3, 0]>, fillcolor="#e58139"] ;
611 -> 613 ;
614 [label=<bmi &le; 32.255<br/>gini = 0.066<br/>samples = 324<br/>value = [313, 11]>, fillcolor="#e68540"] ;
560 -> 614 ;
615 [label=<HbA1c_level &le; 6.05<br/>gini = 0.444<br/>samples = 3<br/>value = [2, 1]>, fillcolor="#f2c09c"] ;
614 -> 615 ;
616 [label=<gini = 0.0<br/>samples = 2<br/>value = [2, 0]>, fillcolor="#e58139"] ;
615 -> 616 ;
617 [label=<gini = 0.0<br/>samples = 1<br/>value = [0, 1]>, fillcolor="#399de5"] ;
615 -> 617 ;
618 [label=<bmi &le; 34.955<br/>gini = 0.06<br/>samples = 321<br/>value = [311, 10]>, fillcolor="#e6853f"] ;
614 -> 618 ;
619 [label=<HbA1c_level &le; 5.9<br/>gini = 0.023<br/>samples = 172<br/>value = [170, 2]>, fillcolor="#e5823b"] ;
618 -> 619 ;
620 [label=<blood_glucose_level &le; 156.5<br/>gini = 0.077<br/>samples = 50<br/>value = [48, 2]>, fillcolor="#e68641"] ;
619 -> 620 ;
621 [label=<bmi &le; 33.37<br/>gini = 0.188<br/>samples = 19<br/>value = [17, 2]>, fillcolor="#e89050"] ;
620 -> 621 ;
622 [label=<gini = 0.0<br/>samples = 8<br/>value = [8, 0]>, fillcolor="#e58139"] ;
621 -> 622 ;
623 [label=<bmi &le; 33.73<br/>gini = 0.298<br/>samples = 11<br/>value = [9, 2]>, fillcolor="#eb9d65"] ;
621 -> 623 ;
624 [label=<current &le; 0.5<br/>gini = 0.444<br/>samples = 3<br/>value = [1, 2]>, fillcolor="#9ccef2"] ;
623 -> 624 ;
625 [label=<gini = 0.0<br/>samples = 2<br/>value = [0, 2]>, fillcolor="#399de5"] ;
624 -> 625 ;
626 [label=<gini = 0.0<br/>samples = 1<br/>value = [1, 0]>, fillcolor="#e58139"] ;
624 -> 626 ;
627 [label=<gini = 0.0<br/>samples = 8<br/>value = [8, 0]>, fillcolor="#e58139"] ;
623 -> 627 ;
628 [label=<gini = 0.0<br/>samples = 31<br/>value = [31, 0]>, fillcolor="#e58139"] ;
620 -> 628 ;
629 [label=<gini = 0.0<br/>samples = 122<br/>value = [122, 0]>, fillcolor="#e58139"] ;
619 -> 629 ;
630 [label=<bmi &le; 34.985<br/>gini = 0.102<br/>samples = 149<br/>value = [141, 8]>, fillcolor="#e68844"] ;
618 -> 630 ;
631 [label=<gini = 0.0<br/>samples = 2<br/>value = [0, 2]>, fillcolor="#399de5"] ;
630 -> 631 ;
632 [label=<bmi &le; 37.34<br/>gini = 0.078<br/>samples = 147<br/>value = [141.0, 6.0]>, fillcolor="#e68641"] ;
630 -> 632 ;
633 [label=<bmi &le; 37.305<br/>gini = 0.107<br/>samples = 106<br/>value = [100, 6]>, fillcolor="#e78945"] ;
632 -> 633 ;
634 [label=<bmi &le; 37.17<br/>gini = 0.091<br/>samples = 105<br/>value = [100, 5]>, fillcolor="#e68743"] ;
633 -> 634 ;
635 [label=<blood_glucose_level &le; 156.5<br/>gini = 0.076<br/>samples = 101<br/>value = [97, 4]>, fillcolor="#e68641"] ;
634 -> 635 ;
636 [label=<age &le; 34.5<br/>gini = 0.161<br/>samples = 34<br/>value = [31, 3]>, fillcolor="#e88d4c"] ;
635 -> 636 ;
637 [label=<bmi &le; 35.56<br/>gini = 0.227<br/>samples = 23<br/>value = [20, 3]>, fillcolor="#e99457"] ;
636 -> 637 ;
638 [label=<gini = 0.0<br/>samples = 8<br/>value = [8, 0]>, fillcolor="#e58139"] ;
637 -> 638 ;
639 [label=<bmi &le; 35.7<br/>gini = 0.32<br/>samples = 15<br/>value = [12, 3]>, fillcolor="#eca06a"] ;
637 -> 639 ;
640 [label=<age &le; 33.0<br/>gini = 0.5<br/>samples = 2<br/>value = [1, 1]>, fillcolor="#ffffff"] ;
639 -> 640 ;
641 [label=<gini = 0.0<br/>samples = 1<br/>value = [0, 1]>, fillcolor="#399de5"] ;
640 -> 641 ;
642 [label=<gini = 0.0<br/>samples = 1<br/>value = [1, 0]>, fillcolor="#e58139"] ;
640 -> 642 ;
643 [label=<blood_glucose_level &le; 150.0<br/>gini = 0.26<br/>samples = 13<br/>value = [11, 2]>, fillcolor="#ea985d"] ;
639 -> 643 ;
644 [label=<gini = 0.0<br/>samples = 6<br/>value = [6, 0]>, fillcolor="#e58139"] ;
643 -> 644 ;
645 [label=<HbA1c_level &le; 6.15<br/>gini = 0.408<br/>samples = 7<br/>value = [5, 2]>, fillcolor="#efb388"] ;
643 -> 645 ;
646 [label=<bmi &le; 35.945<br/>gini = 0.5<br/>samples = 4<br/>value = [2, 2]>, fillcolor="#ffffff"] ;
645 -> 646 ;
647 [label=<gini = 0.0<br/>samples = 1<br/>value = [1, 0]>, fillcolor="#e58139"] ;
646 -> 647 ;
648 [label=<bmi &le; 36.91<br/>gini = 0.444<br/>samples = 3<br/>value = [1, 2]>, fillcolor="#9ccef2"] ;
646 -> 648 ;
649 [label=<gini = 0.0<br/>samples = 2<br/>value = [0, 2]>, fillcolor="#399de5"] ;
648 -> 649 ;
650 [label=<gini = 0.0<br/>samples = 1<br/>value = [1, 0]>, fillcolor="#e58139"] ;
648 -> 650 ;
651 [label=<gini = 0.0<br/>samples = 3<br/>value = [3, 0]>, fillcolor="#e58139"] ;
645 -> 651 ;
652 [label=<gini = 0.0<br/>samples = 11<br/>value = [11, 0]>, fillcolor="#e58139"] ;
636 -> 652 ;
653 [label=<HbA1c_level &le; 6.35<br/>gini = 0.029<br/>samples = 67<br/>value = [66, 1]>, fillcolor="#e5833c"] ;
635 -> 653 ;
654 [label=<gini = 0.0<br/>samples = 44<br/>value = [44, 0]>, fillcolor="#e58139"] ;
653 -> 654 ;
655 [label=<bmi &le; 35.755<br/>gini = 0.083<br/>samples = 23<br/>value = [22, 1]>, fillcolor="#e68742"] ;
653 -> 655 ;
656 [label=<bmi &le; 35.72<br/>gini = 0.245<br/>samples = 7<br/>value = [6, 1]>, fillcolor="#e9965a"] ;
655 -> 656 ;
657 [label=<gini = 0.0<br/>samples = 6<br/>value = [6, 0]>, fillcolor="#e58139"] ;
656 -> 657 ;
658 [label=<gini = 0.0<br/>samples = 1<br/>value = [0, 1]>, fillcolor="#399de5"] ;
656 -> 658 ;
659 [label=<gini = 0.0<br/>samples = 16<br/>value = [16, 0]>, fillcolor="#e58139"] ;
655 -> 659 ;
660 [label=<bmi &le; 37.19<br/>gini = 0.375<br/>samples = 4<br/>value = [3, 1]>, fillcolor="#eeab7b"] ;
634 -> 660 ;
661 [label=<gini = 0.0<br/>samples = 1<br/>value = [0, 1]>, fillcolor="#399de5"] ;
660 -> 661 ;
662 [label=<gini = 0.0<br/>samples = 3<br/>value = [3, 0]>, fillcolor="#e58139"] ;
660 -> 662 ;
663 [label=<gini = 0.0<br/>samples = 1<br/>value = [0, 1]>, fillcolor="#399de5"] ;
633 -> 663 ;
664 [label=<gini = 0.0<br/>samples = 41<br/>value = [41, 0]>, fillcolor="#e58139"] ;
632 -> 664 ;
665 [label=<blood_glucose_level &le; 113.0<br/>gini = 0.056<br/>samples = 5769<br/>value = [5602, 167]>, fillcolor="#e6853f"] ;
7 -> 665 ;
666 [label=<gini = 0.0<br/>samples = 1766<br/>value = [1766, 0]>, fillcolor="#e58139"] ;
665 -> 666 ;
667 [label=<bmi &le; 28.565<br/>gini = 0.08<br/>samples = 4003<br/>value = [3836, 167]>, fillcolor="#e68642"] ;
665 -> 667 ;
668 [label=<heart_disease &le; 0.5<br/>gini = 0.058<br/>samples = 2792<br/>value = [2708, 84]>, fillcolor="#e6853f"] ;
667 -> 668 ;
669 [label=<blood_glucose_level &le; 156.5<br/>gini = 0.055<br/>samples = 2768<br/>value = [2689, 79]>, fillcolor="#e6853f"] ;
668 -> 669 ;
670 [label=<bmi &le; 23.505<br/>gini = 0.069<br/>samples = 1529<br/>value = [1474, 55]>, fillcolor="#e68640"] ;
669 -> 670 ;
671 [label=<former &le; 0.5<br/>gini = 0.032<br/>samples = 303<br/>value = [298.0, 5.0]>, fillcolor="#e5833c"] ;
670 -> 671 ;
672 [label=<Female &le; 0.5<br/>gini = 0.021<br/>samples = 284<br/>value = [281, 3]>, fillcolor="#e5823b"] ;
671 -> 672 ;
673 [label=<blood_glucose_level &le; 128.0<br/>gini = 0.067<br/>samples = 58<br/>value = [56, 2]>, fillcolor="#e68640"] ;
672 -> 673 ;
674 [label=<bmi &le; 20.79<br/>gini = 0.26<br/>samples = 13<br/>value = [11, 2]>, fillcolor="#ea985d"] ;
673 -> 674 ;
675 [label=<gini = 0.0<br/>samples = 1<br/>value = [0, 1]>, fillcolor="#399de5"] ;
674 -> 675 ;
676 [label=<bmi &le; 22.62<br/>gini = 0.153<br/>samples = 12<br/>value = [11, 1]>, fillcolor="#e78c4b"] ;
674 -> 676 ;
677 [label=<gini = 0.0<br/>samples = 10<br/>value = [10, 0]>, fillcolor="#e58139"] ;
676 -> 677 ;
678 [label=<HbA1c_level &le; 5.9<br/>gini = 0.5<br/>samples = 2<br/>value = [1, 1]>, fillcolor="#ffffff"] ;
676 -> 678 ;
679 [label=<gini = 0.0<br/>samples = 1<br/>value = [0, 1]>, fillcolor="#399de5"] ;
678 -> 679 ;
680 [label=<gini = 0.0<br/>samples = 1<br/>value = [1, 0]>, fillcolor="#e58139"] ;
678 -> 680 ;
681 [label=<gini = 0.0<br/>samples = 45<br/>value = [45, 0]>, fillcolor="#e58139"] ;
673 -> 681 ;
682 [label=<bmi &le; 20.41<br/>gini = 0.009<br/>samples = 226<br/>value = [225, 1]>, fillcolor="#e5823a"] ;
672 -> 682 ;
683 [label=<bmi &le; 20.38<br/>gini = 0.03<br/>samples = 65<br/>value = [64, 1]>, fillcolor="#e5833c"] ;
682 -> 683 ;
684 [label=<gini = 0.0<br/>samples = 64<br/>value = [64, 0]>, fillcolor="#e58139"] ;
683 -> 684 ;
685 [label=<gini = 0.0<br/>samples = 1<br/>value = [0, 1]>, fillcolor="#399de5"] ;
683 -> 685 ;
686 [label=<gini = 0.0<br/>samples = 161<br/>value = [161, 0]>, fillcolor="#e58139"] ;
682 -> 686 ;
687 [label=<age &le; 42.0<br/>gini = 0.188<br/>samples = 19<br/>value = [17, 2]>, fillcolor="#e89050"] ;
671 -> 687 ;
688 [label=<gini = 0.0<br/>samples = 9<br/>value = [9, 0]>, fillcolor="#e58139"] ;
687 -> 688 ;
689 [label=<age &le; 43.5<br/>gini = 0.32<br/>samples = 10<br/>value = [8, 2]>, fillcolor="#eca06a"] ;
687 -> 689 ;
690 [label=<Female &le; 0.5<br/>gini = 0.5<br/>samples = 2<br/>value = [1, 1]>, fillcolor="#ffffff"] ;
689 -> 690 ;
691 [label=<gini = 0.0<br/>samples = 1<br/>value = [0, 1]>, fillcolor="#399de5"] ;
690 -> 691 ;
692 [label=<gini = 0.0<br/>samples = 1<br/>value = [1, 0]>, fillcolor="#e58139"] ;
690 -> 692 ;
693 [label=<bmi &le; 22.68<br/>gini = 0.219<br/>samples = 8<br/>value = [7, 1]>, fillcolor="#e99355"] ;
689 -> 693 ;
694 [label=<gini = 0.0<br/>samples = 6<br/>value = [6, 0]>, fillcolor="#e58139"] ;
693 -> 694 ;
695 [label=<blood_glucose_level &le; 128.0<br/>gini = 0.5<br/>samples = 2<br/>value = [1, 1]>, fillcolor="#ffffff"] ;
693 -> 695 ;
696 [label=<gini = 0.0<br/>samples = 1<br/>value = [0, 1]>, fillcolor="#399de5"] ;
695 -> 696 ;
697 [label=<gini = 0.0<br/>samples = 1<br/>value = [1, 0]>, fillcolor="#e58139"] ;
695 -> 697 ;
698 [label=<bmi &le; 23.515<br/>gini = 0.078<br/>samples = 1226<br/>value = [1176, 50]>, fillcolor="#e68641"] ;
670 -> 698 ;
699 [label=<HbA1c_level &le; 6.1<br/>gini = 0.375<br/>samples = 4<br/>value = [3, 1]>, fillcolor="#eeab7b"] ;
698 -> 699 ;
700 [label=<gini = 0.0<br/>samples = 1<br/>value = [0, 1]>, fillcolor="#399de5"] ;
699 -> 700 ;
701 [label=<gini = 0.0<br/>samples = 3<br/>value = [3, 0]>, fillcolor="#e58139"] ;
699 -> 701 ;
702 [label=<bmi &le; 24.58<br/>gini = 0.077<br/>samples = 1222<br/>value = [1173, 49]>, fillcolor="#e68641"] ;
698 -> 702 ;
703 [label=<bmi &le; 24.295<br/>gini = 0.128<br/>samples = 102<br/>value = [95.0, 7.0]>, fillcolor="#e78a48"] ;
702 -> 703 ;
704 [label=<former &le; 0.5<br/>gini = 0.051<br/>samples = 77<br/>value = [75, 2]>, fillcolor="#e6843e"] ;
703 -> 704 ;
705 [label=<blood_glucose_level &le; 150.0<br/>gini = 0.029<br/>samples = 69<br/>value = [68, 1]>, fillcolor="#e5833c"] ;
704 -> 705 ;
706 [label=<gini = 0.0<br/>samples = 52<br/>value = [52, 0]>, fillcolor="#e58139"] ;
705 -> 706 ;
707 [label=<HbA1c_level &le; 5.9<br/>gini = 0.111<br/>samples = 17<br/>value = [16, 1]>, fillcolor="#e78945"] ;
705 -> 707 ;
708 [label=<bmi &le; 23.805<br/>gini = 0.278<br/>samples = 6<br/>value = [5, 1]>, fillcolor="#ea9a61"] ;
707 -> 708 ;
709 [label=<age &le; 46.0<br/>gini = 0.444<br/>samples = 3<br/>value = [2, 1]>, fillcolor="#f2c09c"] ;
708 -> 709 ;
710 [label=<gini = 0.0<br/>samples = 1<br/>value = [0, 1]>, fillcolor="#399de5"] ;
709 -> 710 ;
711 [label=<gini = 0.0<br/>samples = 2<br/>value = [2, 0]>, fillcolor="#e58139"] ;
709 -> 711 ;
712 [label=<gini = 0.0<br/>samples = 3<br/>value = [3, 0]>, fillcolor="#e58139"] ;
708 -> 712 ;
713 [label=<gini = 0.0<br/>samples = 11<br/>value = [11, 0]>, fillcolor="#e58139"] ;
707 -> 713 ;
714 [label=<blood_glucose_level &le; 135.0<br/>gini = 0.219<br/>samples = 8<br/>value = [7, 1]>, fillcolor="#e99355"] ;
704 -> 714 ;
715 [label=<bmi &le; 23.84<br/>gini = 0.444<br/>samples = 3<br/>value = [2, 1]>, fillcolor="#f2c09c"] ;
714 -> 715 ;
716 [label=<gini = 0.0<br/>samples = 2<br/>value = [2, 0]>, fillcolor="#e58139"] ;
715 -> 716 ;
717 [label=<gini = 0.0<br/>samples = 1<br/>value = [0, 1]>, fillcolor="#399de5"] ;
715 -> 717 ;
718 [label=<gini = 0.0<br/>samples = 5<br/>value = [5, 0]>, fillcolor="#e58139"] ;
714 -> 718 ;
719 [label=<HbA1c_level &le; 6.35<br/>gini = 0.32<br/>samples = 25<br/>value = [20, 5]>, fillcolor="#eca06a"] ;
703 -> 719 ;
720 [label=<HbA1c_level &le; 5.75<br/>gini = 0.111<br/>samples = 17<br/>value = [16, 1]>, fillcolor="#e78945"] ;
719 -> 720 ;
721 [label=<age &le; 44.0<br/>gini = 0.5<br/>samples = 2<br/>value = [1, 1]>, fillcolor="#ffffff"] ;
720 -> 721 ;
722 [label=<gini = 0.0<br/>samples = 1<br/>value = [0, 1]>, fillcolor="#399de5"] ;
721 -> 722 ;
723 [label=<gini = 0.0<br/>samples = 1<br/>value = [1, 0]>, fillcolor="#e58139"] ;
721 -> 723 ;
724 [label=<gini = 0.0<br/>samples = 15<br/>value = [15, 0]>, fillcolor="#e58139"] ;
720 -> 724 ;
725 [label=<age &le; 43.5<br/>gini = 0.5<br/>samples = 8<br/>value = [4, 4]>, fillcolor="#ffffff"] ;
719 -> 725 ;
726 [label=<gini = 0.0<br/>samples = 3<br/>value = [3, 0]>, fillcolor="#e58139"] ;
725 -> 726 ;
727 [label=<blood_glucose_level &le; 128.0<br/>gini = 0.32<br/>samples = 5<br/>value = [1, 4]>, fillcolor="#6ab6ec"] ;
725 -> 727 ;
728 [label=<age &le; 46.5<br/>gini = 0.5<br/>samples = 2<br/>value = [1, 1]>, fillcolor="#ffffff"] ;
727 -> 728 ;
729 [label=<gini = 0.0<br/>samples = 1<br/>value = [1, 0]>, fillcolor="#e58139"] ;
728 -> 729 ;
730 [label=<gini = 0.0<br/>samples = 1<br/>value = [0, 1]>, fillcolor="#399de5"] ;
728 -> 730 ;
731 [label=<gini = 0.0<br/>samples = 3<br/>value = [0, 3]>, fillcolor="#399de5"] ;
727 -> 731 ;
732 [label=<bmi &le; 27.685<br/>gini = 0.072<br/>samples = 1120<br/>value = [1078, 42]>, fillcolor="#e68641"] ;
702 -> 732 ;
733 [label=<blood_glucose_level &le; 128.0<br/>gini = 0.067<br/>samples = 1015<br/>value = [980, 35]>, fillcolor="#e68640"] ;
732 -> 733 ;
734 [label=<age &le; 42.5<br/>gini = 0.11<br/>samples = 206<br/>value = [194, 12]>, fillcolor="#e78945"] ;
733 -> 734 ;
735 [label=<HbA1c_level &le; 5.9<br/>gini = 0.033<br/>samples = 60<br/>value = [59, 1]>, fillcolor="#e5833c"] ;
734 -> 735 ;
736 [label=<HbA1c_level &le; 5.75<br/>gini = 0.142<br/>samples = 13<br/>value = [12, 1]>, fillcolor="#e78c49"] ;
735 -> 736 ;
737 [label=<gini = 0.0<br/>samples = 7<br/>value = [7, 0]>, fillcolor="#e58139"] ;
736 -> 737 ;
738 [label=<age &le; 40.5<br/>gini = 0.278<br/>samples = 6<br/>value = [5, 1]>, fillcolor="#ea9a61"] ;
736 -> 738 ;
739 [label=<age &le; 39.5<br/>gini = 0.444<br/>samples = 3<br/>value = [2, 1]>, fillcolor="#f2c09c"] ;
738 -> 739 ;
740 [label=<gini = 0.0<br/>samples = 2<br/>value = [2, 0]>, fillcolor="#e58139"] ;
739 -> 740 ;
741 [label=<gini = 0.0<br/>samples = 1<br/>value = [0, 1]>, fillcolor="#399de5"] ;
739 -> 741 ;
742 [label=<gini = 0.0<br/>samples = 3<br/>value = [3, 0]>, fillcolor="#e58139"] ;
738 -> 742 ;
743 [label=<gini = 0.0<br/>samples = 47<br/>value = [47, 0]>, fillcolor="#e58139"] ;
735 -> 743 ;
744 [label=<bmi &le; 25.65<br/>gini = 0.139<br/>samples = 146<br/>value = [135, 11]>, fillcolor="#e78b49"] ;
734 -> 744 ;
745 [label=<gini = 0.0<br/>samples = 21<br/>value = [21, 0]>, fillcolor="#e58139"] ;
744 -> 745 ;
746 [label=<bmi &le; 26.35<br/>gini = 0.161<br/>samples = 125<br/>value = [114, 11]>, fillcolor="#e88d4c"] ;
744 -> 746 ;
747 [label=<age &le; 45.5<br/>gini = 0.49<br/>samples = 7<br/>value = [4, 3]>, fillcolor="#f8e0ce"] ;
746 -> 747 ;
748 [label=<gini = 0.0<br/>samples = 3<br/>value = [3, 0]>, fillcolor="#e58139"] ;
747 -> 748 ;
749 [label=<age &le; 49.5<br/>gini = 0.375<br/>samples = 4<br/>value = [1, 3]>, fillcolor="#7bbeee"] ;
747 -> 749 ;
750 [label=<gini = 0.0<br/>samples = 3<br/>value = [0, 3]>, fillcolor="#399de5"] ;
749 -> 750 ;
751 [label=<gini = 0.0<br/>samples = 1<br/>value = [1, 0]>, fillcolor="#e58139"] ;
749 -> 751 ;
752 [label=<age &le; 44.5<br/>gini = 0.126<br/>samples = 118<br/>value = [110, 8]>, fillcolor="#e78a47"] ;
746 -> 752 ;
753 [label=<HbA1c_level &le; 6.35<br/>gini = 0.231<br/>samples = 30<br/>value = [26, 4]>, fillcolor="#e99457"] ;
752 -> 753 ;
754 [label=<bmi &le; 27.205<br/>gini = 0.332<br/>samples = 19<br/>value = [15, 4]>, fillcolor="#eca36e"] ;
753 -> 754 ;
755 [label=<gini = 0.0<br/>samples = 2<br/>value = [2, 0]>, fillcolor="#e58139"] ;
754 -> 755 ;
756 [label=<bmi &le; 27.325<br/>gini = 0.36<br/>samples = 17<br/>value = [13, 4]>, fillcolor="#eda876"] ;
754 -> 756 ;
757 [label=<current &le; 0.5<br/>gini = 0.391<br/>samples = 15<br/>value = [11, 4]>, fillcolor="#eeaf81"] ;
756 -> 757 ;
758 [label=<Female &le; 0.5<br/>gini = 0.355<br/>samples = 13<br/>value = [10, 3]>, fillcolor="#eda774"] ;
757 -> 758 ;
759 [label=<HbA1c_level &le; 5.75<br/>gini = 0.48<br/>samples = 5<br/>value = [3, 2]>, fillcolor="#f6d5bd"] ;
758 -> 759 ;
760 [label=<gini = 0.0<br/>samples = 1<br/>value = [1, 0]>, fillcolor="#e58139"] ;
759 -> 760 ;
761 [label=<age &le; 43.5<br/>gini = 0.5<br/>samples = 4<br/>value = [2, 2]>, fillcolor="#ffffff"] ;
759 -> 761 ;
762 [label=<gini = 0.0<br/>samples = 1<br/>value = [0, 1]>, fillcolor="#399de5"] ;
761 -> 762 ;
763 [label=<HbA1c_level &le; 6.1<br/>gini = 0.444<br/>samples = 3<br/>value = [2, 1]>, fillcolor="#f2c09c"] ;
761 -> 763 ;
764 [label=<gini = 0.0<br/>samples = 1<br/>value = [1, 0]>, fillcolor="#e58139"] ;
763 -> 764 ;
765 [label=<gini = 0.5<br/>samples = 2<br/>value = [1, 1]>, fillcolor="#ffffff"] ;
763 -> 765 ;
766 [label=<HbA1c_level &le; 5.75<br/>gini = 0.219<br/>samples = 8<br/>value = [7, 1]>, fillcolor="#e99355"] ;
758 -> 766 ;
767 [label=<age &le; 43.5<br/>gini = 0.5<br/>samples = 2<br/>value = [1, 1]>, fillcolor="#ffffff"] ;
766 -> 767 ;
768 [label=<gini = 0.0<br/>samples = 1<br/>value = [1, 0]>, fillcolor="#e58139"] ;
767 -> 768 ;
769 [label=<gini = 0.0<br/>samples = 1<br/>value = [0, 1]>, fillcolor="#399de5"] ;
767 -> 769 ;
770 [label=<gini = 0.0<br/>samples = 6<br/>value = [6, 0]>, fillcolor="#e58139"] ;
766 -> 770 ;
771 [label=<Female &le; 0.5<br/>gini = 0.5<br/>samples = 2<br/>value = [1, 1]>, fillcolor="#ffffff"] ;
757 -> 771 ;
772 [label=<gini = 0.0<br/>samples = 1<br/>value = [1, 0]>, fillcolor="#e58139"] ;
771 -> 772 ;
773 [label=<gini = 0.0<br/>samples = 1<br/>value = [0, 1]>, fillcolor="#399de5"] ;
771 -> 773 ;
774 [label=<gini = 0.0<br/>samples = 2<br/>value = [2, 0]>, fillcolor="#e58139"] ;
756 -> 774 ;
775 [label=<gini = 0.0<br/>samples = 11<br/>value = [11, 0]>, fillcolor="#e58139"] ;
753 -> 775 ;
776 [label=<HbA1c_level &le; 5.9<br/>gini = 0.087<br/>samples = 88<br/>value = [84, 4]>, fillcolor="#e68742"] ;
752 -> 776 ;
777 [label=<gini = 0.0<br/>samples = 24<br/>value = [24, 0]>, fillcolor="#e58139"] ;
776 -> 777 ;
778 [label=<HbA1c_level &le; 6.05<br/>gini = 0.117<br/>samples = 64<br/>value = [60, 4]>, fillcolor="#e78946"] ;
776 -> 778 ;
779 [label=<bmi &le; 27.06<br/>gini = 0.298<br/>samples = 11<br/>value = [9, 2]>, fillcolor="#eb9d65"] ;
778 -> 779 ;
780 [label=<gini = 0.0<br/>samples = 1<br/>value = [0, 1]>, fillcolor="#399de5"] ;
779 -> 780 ;
781 [label=<age &le; 45.5<br/>gini = 0.18<br/>samples = 10<br/>value = [9, 1]>, fillcolor="#e88f4f"] ;
779 -> 781 ;
782 [label=<Female &le; 0.5<br/>gini = 0.375<br/>samples = 4<br/>value = [3, 1]>, fillcolor="#eeab7b"] ;
781 -> 782 ;
783 [label=<gini = 0.0<br/>samples = 1<br/>value = [1, 0]>, fillcolor="#e58139"] ;
782 -> 783 ;
784 [label=<current &le; 0.5<br/>gini = 0.444<br/>samples = 3<br/>value = [2, 1]>, fillcolor="#f2c09c"] ;
782 -> 784 ;
785 [label=<gini = 0.5<br/>samples = 2<br/>value = [1, 1]>, fillcolor="#ffffff"] ;
784 -> 785 ;
786 [label=<gini = 0.0<br/>samples = 1<br/>value = [1, 0]>, fillcolor="#e58139"] ;
784 -> 786 ;
787 [label=<gini = 0.0<br/>samples = 6<br/>value = [6, 0]>, fillcolor="#e58139"] ;
781 -> 787 ;
788 [label=<age &le; 49.5<br/>gini = 0.073<br/>samples = 53<br/>value = [51, 2]>, fillcolor="#e68641"] ;
778 -> 788 ;
789 [label=<HbA1c_level &le; 6.55<br/>gini = 0.042<br/>samples = 47<br/>value = [46, 1]>, fillcolor="#e6843d"] ;
788 -> 789 ;
790 [label=<gini = 0.0<br/>samples = 31<br/>value = [31, 0]>, fillcolor="#e58139"] ;
789 -> 790 ;
791 [label=<Female &le; 0.5<br/>gini = 0.117<br/>samples = 16<br/>value = [15, 1]>, fillcolor="#e78946"] ;
789 -> 791 ;
792 [label=<age &le; 46.5<br/>gini = 0.32<br/>samples = 5<br/>value = [4, 1]>, fillcolor="#eca06a"] ;
791 -> 792 ;
793 [label=<gini = 0.5<br/>samples = 2<br/>value = [1, 1]>, fillcolor="#ffffff"] ;
792 -> 793 ;
794 [label=<gini = 0.0<br/>samples = 3<br/>value = [3, 0]>, fillcolor="#e58139"] ;
792 -> 794 ;
795 [label=<gini = 0.0<br/>samples = 11<br/>value = [11, 0]>, fillcolor="#e58139"] ;
791 -> 795 ;
796 [label=<HbA1c_level &le; 6.15<br/>gini = 0.278<br/>samples = 6<br/>value = [5, 1]>, fillcolor="#ea9a61"] ;
788 -> 796 ;
797 [label=<gini = 0.0<br/>samples = 1<br/>value = [0, 1]>, fillcolor="#399de5"] ;
796 -> 797 ;
798 [label=<gini = 0.0<br/>samples = 5<br/>value = [5, 0]>, fillcolor="#e58139"] ;
796 -> 798 ;
799 [label=<current &le; 0.5<br/>gini = 0.055<br/>samples = 809<br/>value = [786, 23]>, fillcolor="#e6853f"] ;
733 -> 799 ;
800 [label=<former &le; 0.5<br/>gini = 0.045<br/>samples = 702<br/>value = [686, 16]>, fillcolor="#e6843e"] ;
799 -> 800 ;
801 [label=<age &le; 49.5<br/>gini = 0.039<br/>samples = 651<br/>value = [638, 13]>, fillcolor="#e6843d"] ;
800 -> 801 ;
802 [label=<HbA1c_level &le; 5.9<br/>gini = 0.043<br/>samples = 592<br/>value = [579, 13]>, fillcolor="#e6843d"] ;
801 -> 802 ;
803 [label=<HbA1c_level &le; 5.75<br/>gini = 0.024<br/>samples = 167<br/>value = [165, 2]>, fillcolor="#e5833b"] ;
802 -> 803 ;
804 [label=<Female &le; 0.5<br/>gini = 0.057<br/>samples = 68<br/>value = [66, 2]>, fillcolor="#e6853f"] ;
803 -> 804 ;
805 [label=<gini = 0.0<br/>samples = 25<br/>value = [25, 0]>, fillcolor="#e58139"] ;
804 -> 805 ;
806 [label=<bmi &le; 26.94<br/>gini = 0.089<br/>samples = 43<br/>value = [41, 2]>, fillcolor="#e68743"] ;
804 -> 806 ;
807 [label=<gini = 0.0<br/>samples = 13<br/>value = [13, 0]>, fillcolor="#e58139"] ;
806 -> 807 ;
808 [label=<age &le; 41.5<br/>gini = 0.124<br/>samples = 30<br/>value = [28, 2]>, fillcolor="#e78a47"] ;
806 -> 808 ;
809 [label=<gini = 0.0<br/>samples = 8<br/>value = [8, 0]>, fillcolor="#e58139"] ;
808 -> 809 ;
810 [label=<age &le; 42.5<br/>gini = 0.165<br/>samples = 22<br/>value = [20, 2]>, fillcolor="#e88e4d"] ;
808 -> 810 ;
811 [label=<blood_glucose_level &le; 137.5<br/>gini = 0.5<br/>samples = 2<br/>value = [1, 1]>, fillcolor="#ffffff"] ;
810 -> 811 ;
812 [label=<gini = 0.0<br/>samples = 1<br/>value = [1, 0]>, fillcolor="#e58139"] ;
811 -> 812 ;
813 [label=<gini = 0.0<br/>samples = 1<br/>value = [0, 1]>, fillcolor="#399de5"] ;
811 -> 813 ;
814 [label=<blood_glucose_level &le; 135.0<br/>gini = 0.095<br/>samples = 20<br/>value = [19, 1]>, fillcolor="#e68843"] ;
810 -> 814 ;
815 [label=<age &le; 46.5<br/>gini = 0.198<br/>samples = 9<br/>value = [8, 1]>, fillcolor="#e89152"] ;
814 -> 815 ;
816 [label=<gini = 0.0<br/>samples = 3<br/>value = [3, 0]>, fillcolor="#e58139"] ;
815 -> 816 ;
817 [label=<age &le; 47.5<br/>gini = 0.278<br/>samples = 6<br/>value = [5, 1]>, fillcolor="#ea9a61"] ;
815 -> 817 ;
818 [label=<gini = 0.375<br/>samples = 4<br/>value = [3, 1]>, fillcolor="#eeab7b"] ;
817 -> 818 ;
819 [label=<gini = 0.0<br/>samples = 2<br/>value = [2, 0]>, fillcolor="#e58139"] ;
817 -> 819 ;
820 [label=<gini = 0.0<br/>samples = 11<br/>value = [11, 0]>, fillcolor="#e58139"] ;
814 -> 820 ;
821 [label=<gini = 0.0<br/>samples = 99<br/>value = [99, 0]>, fillcolor="#e58139"] ;
803 -> 821 ;
822 [label=<bmi &le; 27.15<br/>gini = 0.05<br/>samples = 425<br/>value = [414, 11]>, fillcolor="#e6843e"] ;
802 -> 822 ;
823 [label=<bmi &le; 27.13<br/>gini = 0.084<br/>samples = 114<br/>value = [109, 5]>, fillcolor="#e68742"] ;
822 -> 823 ;
824 [label=<HbA1c_level &le; 6.05<br/>gini = 0.068<br/>samples = 113<br/>value = [109, 4]>, fillcolor="#e68640"] ;
823 -> 824 ;
825 [label=<age &le; 39.5<br/>gini = 0.204<br/>samples = 26<br/>value = [23, 3]>, fillcolor="#e89153"] ;
824 -> 825 ;
826 [label=<gini = 0.0<br/>samples = 1<br/>value = [0, 1]>, fillcolor="#399de5"] ;
825 -> 826 ;
827 [label=<age &le; 42.5<br/>gini = 0.147<br/>samples = 25<br/>value = [23, 2]>, fillcolor="#e78c4a"] ;
825 -> 827 ;
828 [label=<blood_glucose_level &le; 142.5<br/>gini = 0.32<br/>samples = 10<br/>value = [8, 2]>, fillcolor="#eca06a"] ;
827 -> 828 ;
829 [label=<gini = 0.0<br/>samples = 5<br/>value = [5, 0]>, fillcolor="#e58139"] ;
828 -> 829 ;
830 [label=<Female &le; 0.5<br/>gini = 0.48<br/>samples = 5<br/>value = [3, 2]>, fillcolor="#f6d5bd"] ;
828 -> 830 ;
831 [label=<gini = 0.0<br/>samples = 1<br/>value = [0, 1]>, fillcolor="#399de5"] ;
830 -> 831 ;
832 [label=<bmi &le; 26.645<br/>gini = 0.375<br/>samples = 4<br/>value = [3, 1]>, fillcolor="#eeab7b"] ;
830 -> 832 ;
833 [label=<gini = 0.0<br/>samples = 3<br/>value = [3, 0]>, fillcolor="#e58139"] ;
832 -> 833 ;
834 [label=<gini = 0.0<br/>samples = 1<br/>value = [0, 1]>, fillcolor="#399de5"] ;
832 -> 834 ;
835 [label=<gini = 0.0<br/>samples = 15<br/>value = [15, 0]>, fillcolor="#e58139"] ;
827 -> 835 ;
836 [label=<bmi &le; 24.935<br/>gini = 0.023<br/>samples = 87<br/>value = [86, 1]>, fillcolor="#e5823b"] ;
824 -> 836 ;
837 [label=<age &le; 47.0<br/>gini = 0.165<br/>samples = 11<br/>value = [10, 1]>, fillcolor="#e88e4d"] ;
836 -> 837 ;
838 [label=<gini = 0.0<br/>samples = 9<br/>value = [9, 0]>, fillcolor="#e58139"] ;
837 -> 838 ;
839 [label=<HbA1c_level &le; 6.3<br/>gini = 0.5<br/>samples = 2<br/>value = [1, 1]>, fillcolor="#ffffff"] ;
837 -> 839 ;
840 [label=<gini = 0.0<br/>samples = 1<br/>value = [1, 0]>, fillcolor="#e58139"] ;
839 -> 840 ;
841 [label=<gini = 0.0<br/>samples = 1<br/>value = [0, 1]>, fillcolor="#399de5"] ;
839 -> 841 ;
842 [label=<gini = 0.0<br/>samples = 76<br/>value = [76, 0]>, fillcolor="#e58139"] ;
836 -> 842 ;
843 [label=<gini = 0.0<br/>samples = 1<br/>value = [0, 1]>, fillcolor="#399de5"] ;
823 -> 843 ;
844 [label=<age &le; 41.5<br/>gini = 0.038<br/>samples = 311<br/>value = [305.0, 6.0]>, fillcolor="#e6833d"] ;
822 -> 844 ;
845 [label=<gini = 0.0<br/>samples = 90<br/>value = [90, 0]>, fillcolor="#e58139"] ;
844 -> 845 ;
846 [label=<age &le; 43.5<br/>gini = 0.053<br/>samples = 221<br/>value = [215, 6]>, fillcolor="#e6853f"] ;
844 -> 846 ;
847 [label=<blood_glucose_level &le; 142.5<br/>gini = 0.113<br/>samples = 50<br/>value = [47, 3]>, fillcolor="#e78946"] ;
846 -> 847 ;
848 [label=<HbA1c_level &le; 6.35<br/>gini = 0.191<br/>samples = 28<br/>value = [25, 3]>, fillcolor="#e89051"] ;
847 -> 848 ;
849 [label=<age &le; 42.5<br/>gini = 0.1<br/>samples = 19<br/>value = [18, 1]>, fillcolor="#e68844"] ;
848 -> 849 ;
850 [label=<Female &le; 0.5<br/>gini = 0.198<br/>samples = 9<br/>value = [8, 1]>, fillcolor="#e89152"] ;
849 -> 850 ;
851 [label=<HbA1c_level &le; 6.15<br/>gini = 0.32<br/>samples = 5<br/>value = [4, 1]>, fillcolor="#eca06a"] ;
850 -> 851 ;
852 [label=<gini = 0.5<br/>samples = 2<br/>value = [1, 1]>, fillcolor="#ffffff"] ;
851 -> 852 ;
853 [label=<gini = 0.0<br/>samples = 3<br/>value = [3, 0]>, fillcolor="#e58139"] ;
851 -> 853 ;
854 [label=<gini = 0.0<br/>samples = 4<br/>value = [4, 0]>, fillcolor="#e58139"] ;
850 -> 854 ;
855 [label=<gini = 0.0<br/>samples = 10<br/>value = [10, 0]>, fillcolor="#e58139"] ;
849 -> 855 ;
856 [label=<Female &le; 0.5<br/>gini = 0.346<br/>samples = 9<br/>value = [7, 2]>, fillcolor="#eca572"] ;
848 -> 856 ;
857 [label=<gini = 0.0<br/>samples = 4<br/>value = [4, 0]>, fillcolor="#e58139"] ;
856 -> 857 ;
858 [label=<blood_glucose_level &le; 135.0<br/>gini = 0.48<br/>samples = 5<br/>value = [3, 2]>, fillcolor="#f6d5bd"] ;
856 -> 858 ;
859 [label=<age &le; 42.5<br/>gini = 0.444<br/>samples = 3<br/>value = [2, 1]>, fillcolor="#f2c09c"] ;
858 -> 859 ;
860 [label=<gini = 0.0<br/>samples = 1<br/>value = [1, 0]>, fillcolor="#e58139"] ;
859 -> 860 ;
861 [label=<HbA1c_level &le; 6.55<br/>gini = 0.5<br/>samples = 2<br/>value = [1, 1]>, fillcolor="#ffffff"] ;
859 -> 861 ;
862 [label=<gini = 0.0<br/>samples = 1<br/>value = [1, 0]>, fillcolor="#e58139"] ;
861 -> 862 ;
863 [label=<gini = 0.0<br/>samples = 1<br/>value = [0, 1]>, fillcolor="#399de5"] ;
861 -> 863 ;
864 [label=<HbA1c_level &le; 6.55<br/>gini = 0.5<br/>samples = 2<br/>value = [1, 1]>, fillcolor="#ffffff"] ;
858 -> 864 ;
865 [label=<gini = 0.0<br/>samples = 1<br/>value = [0, 1]>, fillcolor="#399de5"] ;
864 -> 865 ;
866 [label=<gini = 0.0<br/>samples = 1<br/>value = [1, 0]>, fillcolor="#e58139"] ;
864 -> 866 ;
867 [label=<gini = 0.0<br/>samples = 22<br/>value = [22, 0]>, fillcolor="#e58139"] ;
847 -> 867 ;
868 [label=<blood_glucose_level &le; 142.5<br/>gini = 0.034<br/>samples = 171<br/>value = [168, 3]>, fillcolor="#e5833d"] ;
846 -> 868 ;
869 [label=<gini = 0.0<br/>samples = 89<br/>value = [89, 0]>, fillcolor="#e58139"] ;
868 -> 869 ;
870 [label=<age &le; 46.5<br/>gini = 0.07<br/>samples = 82<br/>value = [79, 3]>, fillcolor="#e68641"] ;
868 -> 870 ;
871 [label=<gini = 0.0<br/>samples = 39<br/>value = [39, 0]>, fillcolor="#e58139"] ;
870 -> 871 ;
872 [label=<Female &le; 0.5<br/>gini = 0.13<br/>samples = 43<br/>value = [40, 3]>, fillcolor="#e78a48"] ;
870 -> 872 ;
873 [label=<age &le; 47.5<br/>gini = 0.208<br/>samples = 17<br/>value = [15, 2]>, fillcolor="#e89253"] ;
872 -> 873 ;
874 [label=<gini = 0.0<br/>samples = 5<br/>value = [5, 0]>, fillcolor="#e58139"] ;
873 -> 874 ;
875 [label=<HbA1c_level &le; 6.05<br/>gini = 0.278<br/>samples = 12<br/>value = [10, 2]>, fillcolor="#ea9a61"] ;
873 -> 875 ;
876 [label=<gini = 0.0<br/>samples = 2<br/>value = [2, 0]>, fillcolor="#e58139"] ;
875 -> 876 ;
877 [label=<HbA1c_level &le; 6.55<br/>gini = 0.32<br/>samples = 10<br/>value = [8, 2]>, fillcolor="#eca06a"] ;
875 -> 877 ;
878 [label=<age &le; 48.5<br/>gini = 0.375<br/>samples = 8<br/>value = [6, 2]>, fillcolor="#eeab7b"] ;
877 -> 878 ;
879 [label=<HbA1c_level &le; 6.35<br/>gini = 0.32<br/>samples = 5<br/>value = [4, 1]>, fillcolor="#eca06a"] ;
878 -> 879 ;
880 [label=<gini = 0.0<br/>samples = 3<br/>value = [3, 0]>, fillcolor="#e58139"] ;
879 -> 880 ;
881 [label=<blood_glucose_level &le; 150.0<br/>gini = 0.5<br/>samples = 2<br/>value = [1, 1]>, fillcolor="#ffffff"] ;
879 -> 881 ;
882 [label=<gini = 0.0<br/>samples = 1<br/>value = [1, 0]>, fillcolor="#e58139"] ;
881 -> 882 ;
883 [label=<gini = 0.0<br/>samples = 1<br/>value = [0, 1]>, fillcolor="#399de5"] ;
881 -> 883 ;
884 [label=<HbA1c_level &le; 6.15<br/>gini = 0.444<br/>samples = 3<br/>value = [2, 1]>, fillcolor="#f2c09c"] ;
878 -> 884 ;
885 [label=<gini = 0.0<br/>samples = 1<br/>value = [0, 1]>, fillcolor="#399de5"] ;
884 -> 885 ;
886 [label=<gini = 0.0<br/>samples = 2<br/>value = [2, 0]>, fillcolor="#e58139"] ;
884 -> 886 ;
887 [label=<gini = 0.0<br/>samples = 2<br/>value = [2, 0]>, fillcolor="#e58139"] ;
877 -> 887 ;
888 [label=<age &le; 47.5<br/>gini = 0.074<br/>samples = 26<br/>value = [25, 1]>, fillcolor="#e68641"] ;
872 -> 888 ;
889 [label=<HbA1c_level &le; 6.05<br/>gini = 0.245<br/>samples = 7<br/>value = [6, 1]>, fillcolor="#e9965a"] ;
888 -> 889 ;
890 [label=<gini = 0.444<br/>samples = 3<br/>value = [2, 1]>, fillcolor="#f2c09c"] ;
889 -> 890 ;
891 [label=<gini = 0.0<br/>samples = 4<br/>value = [4, 0]>, fillcolor="#e58139"] ;
889 -> 891 ;
892 [label=<gini = 0.0<br/>samples = 19<br/>value = [19, 0]>, fillcolor="#e58139"] ;
888 -> 892 ;
893 [label=<gini = 0.0<br/>samples = 59<br/>value = [59, 0]>, fillcolor="#e58139"] ;
801 -> 893 ;
894 [label=<bmi &le; 25.32<br/>gini = 0.111<br/>samples = 51<br/>value = [48, 3]>, fillcolor="#e78945"] ;
800 -> 894 ;
895 [label=<age &le; 47.0<br/>gini = 0.5<br/>samples = 2<br/>value = [1, 1]>, fillcolor="#ffffff"] ;
894 -> 895 ;
896 [label=<gini = 0.0<br/>samples = 1<br/>value = [1, 0]>, fillcolor="#e58139"] ;
895 -> 896 ;
897 [label=<gini = 0.0<br/>samples = 1<br/>value = [0, 1]>, fillcolor="#399de5"] ;
895 -> 897 ;
898 [label=<HbA1c_level &le; 6.55<br/>gini = 0.078<br/>samples = 49<br/>value = [47.0, 2.0]>, fillcolor="#e68641"] ;
894 -> 898 ;
899 [label=<blood_glucose_level &le; 135.0<br/>gini = 0.043<br/>samples = 45<br/>value = [44, 1]>, fillcolor="#e6843d"] ;
898 -> 899 ;
900 [label=<age &le; 46.5<br/>gini = 0.142<br/>samples = 13<br/>value = [12, 1]>, fillcolor="#e78c49"] ;
899 -> 900 ;
901 [label=<age &le; 45.0<br/>gini = 0.278<br/>samples = 6<br/>value = [5, 1]>, fillcolor="#ea9a61"] ;
900 -> 901 ;
902 [label=<gini = 0.0<br/>samples = 4<br/>value = [4, 0]>, fillcolor="#e58139"] ;
901 -> 902 ;
903 [label=<HbA1c_level &le; 6.25<br/>gini = 0.5<br/>samples = 2<br/>value = [1, 1]>, fillcolor="#ffffff"] ;
901 -> 903 ;
904 [label=<gini = 0.0<br/>samples = 1<br/>value = [0, 1]>, fillcolor="#399de5"] ;
903 -> 904 ;
905 [label=<gini = 0.0<br/>samples = 1<br/>value = [1, 0]>, fillcolor="#e58139"] ;
903 -> 905 ;
906 [label=<gini = 0.0<br/>samples = 7<br/>value = [7, 0]>, fillcolor="#e58139"] ;
900 -> 906 ;
907 [label=<gini = 0.0<br/>samples = 32<br/>value = [32, 0]>, fillcolor="#e58139"] ;
899 -> 907 ;
908 [label=<age &le; 47.0<br/>gini = 0.375<br/>samples = 4<br/>value = [3, 1]>, fillcolor="#eeab7b"] ;
898 -> 908 ;
909 [label=<blood_glucose_level &le; 142.5<br/>gini = 0.5<br/>samples = 2<br/>value = [1, 1]>, fillcolor="#ffffff"] ;
908 -> 909 ;
910 [label=<gini = 0.0<br/>samples = 1<br/>value = [0, 1]>, fillcolor="#399de5"] ;
909 -> 910 ;
911 [label=<gini = 0.0<br/>samples = 1<br/>value = [1, 0]>, fillcolor="#e58139"] ;
909 -> 911 ;
912 [label=<gini = 0.0<br/>samples = 2<br/>value = [2, 0]>, fillcolor="#e58139"] ;
908 -> 912 ;
